{"learner":{"attributes":{"scikit_learn":"{\"_estimator_type\": \"regressor\"}"},"feature_names":["Country","Disaster Type","Start Month","Start Year","Severity"],"feature_types":["c","c","float","int","float"],"gradient_booster":{"model":{"cats":{"enc":[{"offsets":[0,11,18,25,39,45,53,72,81,88,97,104,114,128,135,145,153,160,167,173,178,185,191,223,245,253,259,281,289,301,308,318,326,334,340,354,368,392,396,401,406,452,494,502,509,514,526,536,543,547,553,560,573,610,642,649,657,665,683,690,695,706,723,730,737,745,753,757,764,770,783,799,804,810,817,824,829,835,842,852,856,865,871,884,890,895,903,910,917,922,931,957,961,968,974,979,986,991,997,1007,1012,1020,1026,1036,1068,1074,1081,1088,1095,1100,1113,1122,1132,1142,1148,1156,1164,1168,1173,1189,1199,1209,1218,1225,1231,1263,1271,1281,1291,1298,1308,1315,1322,1327,1355,1368,1379,1388,1393,1400,1404,1419,1443,1449,1453,1461,1466,1472,1488,1496,1500,1511,1517,1525,1536,1541,1558,1577,1584,1602,1608,1615,1631,1643,1664,1675,1701,1733,1738,1759,1771,1778,1784,1801,1811,1823,1848,1856,1864,1879,1886,1898,1909,1914,1923,1941,1946,1954,1960,1971,1991,2017,2027,2035,2046,2050,2057,2062,2081,2088,2100,2124,2130,2137,2143,2150,2170,2222,2249,2277,2301,2308,2318,2325,2359,2367,2392,2397,2403,2411],"values":[65,102,103,104,97,110,105,115,116,97,110,65,108,98,97,110,105,97,65,108,103,101,114,105,97,65,109,101,114,105,99,97,110,32,83,97,109,111,97,65,110,103,111,108,97,65,110,103,117,105,108,108,97,65,110,116,105,103,117,97,32,97,110,100,32,66,97,114,98,117,100,97,65,114,103,101,110,116,105,110,97,65,114,109,101,110,105,97,65,117,115,116,114,97,108,105,97,65,117,115,116,114,105,97,65,122,101,114,98,97,105,106,97,110,65,122,111,114,101,115,32,73,115,108,97,110,100,115,66,97,104,97,109,97,115,66,97,110,103,108,97,100,101,115,104,66,97,114,98,97,100,111,115,66,101,108,97,114,117,115,66,101,108,103,105,117,109,66,101,108,105,122,101,66,101,110,105,110,66,101,114,109,117,100,97,66,104,117,116,97,110,66,111,108,105,118,105,97,32,40,80,108,117,114,105,110,97,116,105,111,110,97,108,32,83,116,97,116,101,32,111,102,41,66,111,115,110,105,97,32,97,110,100,32,72,101,114,122,101,103,111,118,105,110,97,66,111,116,115,119,97,110,97,66,114,97,122,105,108,66,114,105,116,105,115,104,32,86,105,114,103,105,110,32,73,115,108,97,110,100,115,66,117,108,103,97,114,105,97,66,117,114,107,105,110,97,32,70,97,115,111,66,117,114,117,110,100,105,67,97,98,111,32,86,101,114,100,101,67,97,109,98,111,100,105,97,67,97,109,101,114,111,111,110,67,97,110,97,100,97,67,97,110,97,114,121,32,73,115,108,97,110,100,115,67,97,121,109,97,110,32,73,115,108,97,110,100,115,67,101,110,116,114,97,108,32,65,102,114,105,99,97,110,32,82,101,112,117,98,108,105,99,67,104,97,100,67,104,105,108,101,67,104,105,110,97,67,104,105,110,97,44,32,72,111,110,103,32,75,111,110,103,32,83,112,101,99,105,97,108,32,65,100,109,105,110,105,115,116,114,97,116,105,118,101,32,82,101,103,105,111,110,67,104,105,110,97,44,32,77,97,99,97,111,32,83,112,101,99,105,97,108,32,65,100,109,105,110,105,115,116,114,97,116,105,118,101,32,82,101,103,105,111,110,67,111,108,111,109,98,105,97,67,111,109,111,114,111,115,67,111,110,103,111,67,111,111,107,32,73,115,108,97,110,100,115,67,111,115,116,97,32,82,105,99,97,67,114,111,97,116,105,97,67,117,98,97,67,121,112,114,117,115,67,122,101,99,104,105,97,67,-61,-76,116,101,32,100,-30,-128,-103,73,118,111,105,114,101,68,101,109,111,99,114,97,116,105,99,32,80,101,111,112,108,101,39,115,32,82,101,112,117,98,108,105,99,32,111,102,32,75,111,114,101,97,68,101,109,111,99,114,97,116,105,99,32,82,101,112,117,98,108,105,99,32,111,102,32,116,104,101,32,67,111,110,103,111,68,101,110,109,97,114,107,68,106,105,98,111,117,116,105,68,111,109,105,110,105,99,97,68,111,109,105,110,105,99,97,110,32,82,101,112,117,98,108,105,99,69,99,117,97,100,111,114,69,103,121,112,116,69,108,32,83,97,108,118,97,100,111,114,69,113,117,97,116,111,114,105,97,108,32,71,117,105,110,101,97,69,114,105,116,114,101,97,69,115,116,111,110,105,97,69,115,119,97,116,105,110,105,69,116,104,105,111,112,105,97,70,105,106,105,70,105,110,108,97,110,100,70,114,97,110,99,101,70,114,101,110,99,104,32,71,117,105,97,110,97,70,114,101,110,99,104,32,80,111,108,121,110,101,115,105,97,71,97,98,111,110,71,97,109,98,105,97,71,101,111,114,103,105,97,71,101,114,109,97,110,121,71,104,97,110,97,71,114,101,101,99,101,71,114,101,110,97,100,97,71,117,97,100,101,108,111,117,112,101,71,117,97,109,71,117,97,116,101,109,97,108,97,71,117,105,110,101,97,71,117,105,110,101,97,45,66,105,115,115,97,117,71,117,121,97,110,97,72,97,105,116,105,72,111,110,100,117,114,97,115,72,117,110,103,97,114,121,73,99,101,108,97,110,100,73,110,100,105,97,73,110,100,111,110,101,115,105,97,73,114,97,110,32,40,73,115,108,97,109,105,99,32,82,101,112,117,98,108,105,99,32,111,102,41,73,114,97,113,73,114,101,108,97,110,100,73,115,114,97,101,108,73,116,97,108,121,74,97,109,97,105,99,97,74,97,112,97,110,74,111,114,100,97,110,75,97,122,97,107,104,115,116,97,110,75,101,110,121,97,75,105,114,105,98,97,116,105,75,117,119,97,105,116,75,121,114,103,121,122,115,116,97,110,76,97,111,32,80,101,111,112,108,101,39,115,32,68,101,109,111,99,114,97,116,105,99,32,82,101,112,117,98,108,105,99,76,97,116,118,105,97,76,101,98,97,110,111,110,76,101,115,111,116,104,111,76,105,98,101,114,105,97,76,105,98,121,97,76,105,101,99,104,116,101,110,115,116,101,105,110,76,105,116,104,117,97,110,105,97,76,117,120,101,109,98,111,117,114,103,77,97,100,97,103,97,115,99,97,114,77,97,108,97,119,105,77,97,108,97,121,115,105,97,77,97,108,100,105,118,101,115,77,97,108,105,77,97,108,116,97,77,97,114,115,104,97,108,108,32,73,115,108,97,110,100,115,77,97,114,116,105,110,105,113,117,101,77,97,117,114,105,116,97,110,105,97,77,97,117,114,105,116,105,117,115,77,97,121,111,116,116,101,77,101,120,105,99,111,77,105,99,114,111,110,101,115,105,97,32,40,70,101,100,101,114,97,116,101,100,32,83,116,97,116,101,115,32,111,102,41,77,111,110,103,111,108,105,97,77,111,110,116,101,110,101,103,114,111,77,111,110,116,115,101,114,114,97,116,77,111,114,111,99,99,111,77,111,122,97,109,98,105,113,117,101,77,121,97,110,109,97,114,78,97,109,105,98,105,97,78,101,112,97,108,78,101,116,104,101,114,108,97,110,100,115,32,40,75,105,110,103,100,111,109,32,111,102,32,116,104,101,41,78,101,119,32,67,97,108,101,100,111,110,105,97,78,101,119,32,90,101,97,108,97,110,100,78,105,99,97,114,97,103,117,97,78,105,103,101,114,78,105,103,101,114,105,97,78,105,117,101,78,111,114,116,104,32,77,97,99,101,100,111,110,105,97,78,111,114,116,104,101,114,110,32,77,97,114,105,97,110,97,32,73,115,108,97,110,100,115,78,111,114,119,97,121,79,109,97,110,80,97,107,105,115,116,97,110,80,97,108,97,117,80,97,110,97,109,97,80,97,112,117,97,32,78,101,119,32,71,117,105,110,101,97,80,97,114,97,103,117,97,121,80,101,114,117,80,104,105,108,105,112,112,105,110,101,115,80,111,108,97,110,100,80,111,114,116,117,103,97,108,80,117,101,114,116,111,32,82,105,99,111,81,97,116,97,114,82,101,112,117,98,108,105,99,32,111,102,32,75,111,114,101,97,82,101,112,117,98,108,105,99,32,111,102,32,77,111,108,100,111,118,97,82,111,109,97,110,105,97,82,117,115,115,105,97,110,32,70,101,100,101,114,97,116,105,111,110,82,119,97,110,100,97,82,-61,-87,117,110,105,111,110,83,97,105,110,116,32,66,97,114,116,104,-61,-87,108,101,109,121,83,97,105,110,116,32,72,101,108,101,110,97,83,97,105,110,116,32,75,105,116,116,115,32,97,110,100,32,78,101,118,105,115,83,97,105,110,116,32,76,117,99,105,97,83,97,105,110,116,32,77,97,114,116,105,110,32,40,70,114,101,110,99,104,32,80,97,114,116,41,83,97,105,110,116,32,86,105,110,99,101,110,116,32,97,110,100,32,116,104,101,32,71,114,101,110,97,100,105,110,101,115,83,97,109,111,97,83,97,111,32,84,111,109,101,32,97,110,100,32,80,114,105,110,99,105,112,101,83,97,117,100,105,32,65,114,97,98,105,97,83,101,110,101,103,97,108,83,101,114,98,105,97,83,101,114,98,105,97,32,77,111,110,116,101,110,101,103,114,111,83,101,121,99,104,101,108,108,101,115,83,105,101,114,114,97,32,76,101,111,110,101,83,105,110,116,32,77,97,97,114,116,101,110,32,40,68,117,116,99,104,32,112,97,114,116,41,83,108,111,118,97,107,105,97,83,108,111,118,101,110,105,97,83,111,108,111,109,111,110,32,73,115,108,97,110,100,115,83,111,109,97,108,105,97,83,111,117,116,104,32,65,102,114,105,99,97,83,111,117,116,104,32,83,117,100,97,110,83,112,97,105,110,83,114,105,32,76,97,110,107,97,83,116,97,116,101,32,111,102,32,80,97,108,101,115,116,105,110,101,83,117,100,97,110,83,117,114,105,110,97,109,101,83,119,101,100,101,110,83,119,105,116,122,101,114,108,97,110,100,83,121,114,105,97,110,32,65,114,97,98,32,82,101,112,117,98,108,105,99,84,97,105,119,97,110,32,40,80,114,111,118,105,110,99,101,32,111,102,32,67,104,105,110,97,41,84,97,106,105,107,105,115,116,97,110,84,104,97,105,108,97,110,100,84,105,109,111,114,45,76,101,115,116,101,84,111,103,111,84,111,107,101,108,97,117,84,111,110,103,97,84,114,105,110,105,100,97,100,32,97,110,100,32,84,111,98,97,103,111,84,117,110,105,115,105,97,84,117,114,107,109,101,110,105,115,116,97,110,84,117,114,107,115,32,97,110,100,32,67,97,105,99,111,115,32,73,115,108,97,110,100,115,84,117,118,97,108,117,84,-61,-68,114,107,105,121,101,85,103,97,110,100,97,85,107,114,97,105,110,101,85,110,105,116,101,100,32,65,114,97,98,32,69,109,105,114,97,116,101,115,85,110,105,116,101,100,32,75,105,110,103,100,111,109,32,111,102,32,71,114,101,97,116,32,66,114,105,116,97,105,110,32,97,110,100,32,78,111,114,116,104,101,114,110,32,73,114,101,108,97,110,100,85,110,105,116,101,100,32,82,101,112,117,98,108,105,99,32,111,102,32,84,97,110,122,97,110,105,97,85,110,105,116,101,100,32,83,116,97,116,101,115,32,86,105,114,103,105,110,32,73,115,108,97,110,100,115,85,110,105,116,101,100,32,83,116,97,116,101,115,32,111,102,32,65,109,101,114,105,99,97,85,114,117,103,117,97,121,85,122,98,101,107,105,115,116,97,110,86,97,110,117,97,116,117,86,101,110,101,122,117,101,108,97,32,40,66,111,108,105,118,97,114,105,97,110,32,82,101,112,117,98,108,105,99,32,111,102,41,86,105,101,116,32,78,97,109,87,97,108,108,105,115,32,97,110,100,32,70,117,116,117,110,97,32,73,115,108,97,110,100,115,89,101,109,101,110,90,97,109,98,105,97,90,105]},{"offsets":[0,7,17,36,41,68,87,106,111,128,136],"values":[68,114,111,117,103,104,116,69,97,114,116,104,113,117,97,107,101,69,120,116,114,101,109,101,32,116,101,109,112,101,114,97,116,117,114,101,70,108,111,111,100,71,108,97,99,105,97,108,32,108,97,107,101,32,111,117,116,98,117,114,115,116,32,102,108,111,111,100,77,97,115,115,32,109,111,118,101,109,101,110,116,32,40,100,114,121,41,77,97,115,115,32,109,111,118,101,109,101,110,116,32,40,119,101,116,41,83,116,111,114,109,86,111,108,99,97,110,105,99,32,97,99,116,105,118,105,116,121,87,105,108,100,102,105,114,101]},{"offsets":[],"values":[]},{"offsets":[],"values":[]},{"offsets":[],"values":[]}],"feature_segments":[0,219,229,229,229,229],"sorted_idx":[162,203,0,1,2,3,4,5,6,7,8,9,10,11,12,13,14,15,16,17,18,19,20,21,22,23,24,25,26,27,28,29,51,30,31,32,33,34,35,36,37,38,39,40,41,42,43,44,45,46,47,48,49,50,184,175,194,165,164,166,168,183,182,186,197,204,218,78,94,102,81,117,95,147,70,76,84,68,88,93,136,152,213,75,55,87,101,114,73,132,72,109,113,129,98,89,167,59,61,195,77,110,163,174,172,150,215,181,153,138,74,127,137,134,191,214,57,96,124,154,67,193,187,65,159,206,52,192,200,85,140,122,196,212,205,179,201,146,126,58,104,118,180,144,131,210,69,169,160,119,142,62,82,148,171,173,151,54,64,111,121,135,141,158,161,199,106,100,208,198,91,125,157,133,97,176,66,120,130,170,92,86,128,53,63,156,207,108,139,189,211,217,83,71,90,115,216,209,185,99,103,145,155,107,123,80,149,190,79,112,56,202,177,178,116,105,143,188,60,0,1,2,3,4,5,6,7,8,9]},"gbtree_model_param":{"num_parallel_tree":"1","num_trees":"169"},"iteration_indptr":[0,1,2,3,4,5,6,7,8,9,10,11,12,13,14,15,16,17,18,19,20,21,22,23,24,25,26,27,28,29,30,31,32,33,34,35,36,37,38,39,40,41,42,43,44,45,46,47,48,49,50,51,52,53,54,55,56,57,58,59,60,61,62,63,64,65,66,67,68,69,70,71,72,73,74,75,76,77,78,79,80,81,82,83,84,85,86,87,88,89,90,91,92,93,94,95,96,97,98,99,100,101,102,103,104,105,106,107,108,109,110,111,112,113,114,115,116,117,118,119,120,121,122,123,124,125,126,127,128,129,130,131,132,133,134,135,136,137,138,139,140,141,142,143,144,145,146,147,148,149,150,151,152,153,154,155,156,157,158,159,160,161,162,163,164,165,166,167,168,169],"tree_info":[0,0,0,0,0,0,0,0,0,0,0,0,0,0,0,0,0,0,0,0,0,0,0,0,0,0,0,0,0,0,0,0,0,0,0,0,0,0,0,0,0,0,0,0,0,0,0,0,0,0,0,0,0,0,0,0,0,0,0,0,0,0,0,0,0,0,0,0,0,0,0,0,0,0,0,0,0,0,0,0,0,0,0,0,0,0,0,0,0,0,0,0,0,0,0,0,0,0,0,0,0,0,0,0,0,0,0,0,0,0,0,0,0,0,0,0,0,0,0,0,0,0,0,0,0,0,0,0,0,0,0,0,0,0,0,0,0,0,0,0,0,0,0,0,0,0,0,0,0,0,0,0,0,0,0,0,0,0,0,0,0,0,0,0,0,0,0,0,0],"trees":[{"base_weights":[5.344709E-3,3.1073515E0,-7.5508943E0,3.8241687E0,3.9859693E-2,-3.9282186E0,-3.1693932E-1,4.5287404E0,2.5102973E0,-2.8885293E0,4.823471E-1,-2.1276253E-1,-2.5382059E0,3.9054048E0,4.937634E0,2.9384336E0,-5.2018378E-2,5.6999817E-2,-2.1569481E-1,1.6990417E0,-1.0909559E0,-3.6649227E-1,-3.8464534E0,4.181527E0,2.8206174E0,1.6673125E-1,8.894463E-2,3.1986039E0,1.7725333E0,9.182607E-2,-2.879294E0,1.1647865E-1,1.1342299E0,-2.2422721E0,1.6601311E0,2.3331003E0,-2.1569481E-1,-2.3317091E-1,-6.9102426E0,1.4573173E-1,6.4494535E-2,1.3084388E-1,-1.6177112E-1,3.4336529E0,1.887963E0,9.246004E-1,7.0047505E-2,-1.6177112E-1,-1.1453509E0,2.0991592E0,-1.4084466E0,-6.0445833E-1,-4.9573317E0,1.0967887E-1,-5.603635E-1,1.18032314E-1,-1.7268676E-2,-1.492841E0,6.408179E-2,-3.037144E0,-2.588338E-1,3.7258136E0,1.1692549E0,-2.0125883E0,1.1615065E-1,4.592562E-2,4.5914435E-1,9.573906E-2,-3.463379E0,1.2613554E-1,1.3710463E0,6.9320846E-1,-1.6177112E-1,-1.6177112E-1,7.113428E-1,-3.2830983E-3,-2.1569481E-1,-2.3197722E-2,-4.509871E-3,5.877154E-1,-1.6177112E-1,-1.6177112E-1,1.1597242E-2,1.8332728E0,4.1792407E0,6.62132E-2,-5.990378E-2,6.2257174E-2,-1.6177112E-1,1.4581785E-3,1.9208092E-2,-9.478263E-3,-1.6177112E-1,6.8744344E-1,6.319696E-2,9.906759E-1,-3.2830983E-3,6.627049E-2,-7.6555014E-1,3.225286E-2,-9.632586E-3,8.51258E-2,2.0629684E-2,1.6504733E-1,8.304719E-2,-4.420166E-3,1.4581785E-3,2.7352868E-2,8.851052E-3,5.1204167E-2,-2.2194511E-3,-4.1863867E-3,-3.0856367E-2],"categories":[7,9,11,14,15,23,24,25,27,32,42,46,48,68,72,77,83,94,95,103,110,135,146,149,151,152,155,156,157,158,164,182,196,197,201,204,209,213,1,2,3,4,5,6,7,9,10,11,12,13,14,15,16,17,18,19,20,21,23,24,25,26,27,29,30,32,33,34,35,36,38,40,41,42,43,44,45,46,47,48,49,50,51,53,54,56,57,58,59,60,61,63,66,67,68,69,70,71,72,74,75,76,77,78,79,81,82,83,86,87,89,90,92,93,94,95,96,97,98,100,101,102,103,104,105,107,108,109,110,111,115,116,117,118,119,121,122,123,124,126,127,128,130,133,134,135,138,139,140,141,142,143,145,146,147,148,149,150,151,152,153,154,155,156,157,158,160,161,162,163,164,165,166,167,168,169,171,172,173,174,175,176,177,178,182,184,186,187,188,190,192,193,194,195,196,197,198,199,200,201,202,204,205,206,208,209,210,212,213,215,216,7,9,11,14,15,23,27,46,68,83,94,95,103,110,135,146,151,152,155,157,158,164,182,196,197,204,209,213,1,2,3,4,5,6,7,8,9,10,11,12,13,14,15,16,17,18,19,20,21,22,23,24,25,26,27,29,30,32,33,34,35,36,38,39,40,41,42,43,44,45,46,47,48,49,50,51,53,54,55,56,57,58,59,60,61,62,63,64,66,67,68,69,70,71,72,73,74,75,76,77,78,79,81,82,83,84,85,86,87,89,90,92,93,94,95,96,97,98,100,101,102,103,104,105,107,108,109,110,111,112,115,116,117,118,119,121,122,123,124,125,126,127,128,130,133,134,135,136,138,139,140,141,142,143,145,146,147,148,149,150,151,152,153,154,155,156,157,158,159,160,161,162,163,164,165,166,167,168,169,171,172,173,174,175,176,177,178,182,184,185,186,187,188,190,192,193,194,195,196,197,198,199,200,201,202,204,205,206,208,209,210,211,212,213,214,215,216,4,116,0,1,2,3,5,6,7,8,9,10,11,12,13,14,15,16,17,18,19,20,21,22,23,24,25,26,27,28,29,31,32,33,34,35,36,37,38,39,40,41,42,43,44,45,46,47,48,49,50,51,52,53,54,55,56,57,58,59,60,61,62,63,64,65,66,67,68,69,70,71,72,73,74,75,76,77,78,79,80,81,83,84,85,86,87,88,89,90,91,92,93,94,95,96,97,98,99,100,101,102,103,104,105,106,107,108,109,110,111,112,113,114,115,117,118,119,120,121,122,123,124,125,126,127,128,129,130,131,132,133,134,135,136,137,138,139,140,141,142,143,144,145,146,147,149,151,152,153,154,155,156,157,158,159,160,161,162,163,164,165,166,167,168,169,170,171,172,173,174,175,176,177,178,179,180,181,182,183,184,185,186,187,188,189,190,191,193,194,195,196,197,198,199,200,201,202,203,204,205,206,207,208,209,211,212,213,214,215,216,217,218,1,2,3,4,5,6,7,8,9,10,11,12,13,14,15,16,17,18,19,20,21,22,23,24,25,26,27,29,30,32,33,34,35,36,38,39,40,41,42,43,44,45,46,47,48,49,50,51,53,54,55,56,57,58,59,60,61,62,63,64,66,67,68,69,70,71,72,73,74,75,76,77,78,79,81,82,83,84,85,86,87,89,90,92,93,94,95,96,97,98,100,101,102,103,104,105,106,107,108,109,110,111,112,115,116,117,118,119,121,122,123,124,125,126,127,128,130,133,134,135,136,138,139,140,141,142,143,145,146,147,148,149,150,151,152,153,154,155,156,157,158,159,160,161,162,163,164,165,166,167,168,169,170,171,172,173,174,175,176,177,178,182,184,185,186,187,188,190,191,192,193,194,195,196,197,198,199,200,201,202,203,204,205,206,208,209,210,211,212,213,214,215,216,0,1,2,3,4,5,6,7,8,9,10,11,12,13,14,15,16,17,18,19,20,21,22,23,24,25,26,27,28,29,30,31,32,33,34,35,36,37,38,40,41,42,43,44,45,46,47,48,49,50,51,52,53,54,55,56,57,58,59,60,61,63,65,66,67,68,69,70,71,72,74,75,76,77,78,79,80,81,82,83,84,86,87,88,89,90,91,92,93,94,95,96,97,98,99,100,101,102,103,104,105,106,107,108,109,110,111,113,114,115,116,117,118,119,120,121,122,123,124,126,127,128,129,130,131,132,133,134,135,137,138,139,140,141,142,143,144,145,146,147,148,149,150,151,152,153,154,155,156,157,158,160,161,162,163,164,165,166,167,168,169,170,171,172,173,174,175,176,177,178,179,180,181,182,183,184,186,187,188,189,190,191,192,193,194,195,196,197,198,199,200,201,202,203,204,205,206,207,208,209,210,212,213,214,215,216,217,218,39,85,0,1,2,3,5,6,7,8,9,10,11,12,13,14,15,16,17,18,19,20,21,22,23,24,25,26,27,28,29,30,31,32,33,34,35,36,37,38,39,40,41,42,43,44,45,46,47,48,49,50,51,52,53,54,55,56,57,58,59,60,61,62,63,64,65,66,67,68,69,70,71,72,73,74,75,76,77,78,79,80,81,82,83,84,85,86,87,88,89,90,91,92,93,94,95,96,97,98,99,100,101,102,103,104,105,106,107,108,109,110,111,112,113,114,115,116,117,118,119,120,121,122,123,124,125,126,127,128,129,130,131,132,133,134,135,136,137,138,139,140,141,142,143,144,145,146,147,148,149,150,151,152,153,154,155,156,157,158,159,160,161,162,163,164,165,166,167,168,169,170,171,172,173,174,175,176,177,178,179,180,181,182,183,184,185,186,187,188,189,190,191,192,193,194,195,196,197,198,199,200,201,202,203,204,205,206,207,208,209,210,211,212,213,214,215,216,217,218,77,201,24,25,1,2,3,4,5,6,7,8,9,10,11,12,13,14,15,16,17,18,19,20,21,22,23,24,25,26,27,28,29,30,32,33,34,35,36,37,38,39,40,41,42,43,44,45,46,47,48,49,50,51,52,53,54,55,56,57,58,59,60,61,62,63,64,66,67,68,69,70,71,72,73,74,75,76,77,78,79,80,81,82,83,84,85,86,87,89,90,91,92,93,94,95,96,97,98,100,101,102,103,104,105,107,108,109,110,111,112,114,115,116,117,118,119,121,122,123,124,125,126,127,128,130,131,132,133,134,135,136,138,139,140,141,142,143,144,145,146,147,148,149,150,151,152,153,154,155,156,157,158,159,160,161,162,163,164,165,166,167,168,169,170,171,172,173,174,175,176,177,178,180,181,182,183,184,185,186,187,188,189,190,192,193,194,195,196,197,198,199,200,201,202,204,205,206,207,208,209,210,211,212,213,214,215,216,88,60,89,118,32,156,25,0,1,2,3,4,5,6,7,8,9,10,11,12,13,14,15,16,17,18,19,20,21,22,23,24,25,26,27,28,29,30,31,32,33,34,35,36,37,38,40,41,42,43,44,45,46,47,48,49,50,51,52,53,54,55,56,57,58,59,60,61,63,65,66,67,68,69,70,71,72,74,75,76,77,78,79,80,81,82,83,84,86,87,88,89,90,91,92,93,94,95,96,97,98,99,100,101,102,103,104,105,106,107,108,109,110,111,112,113,114,115,116,117,118,119,120,121,122,123,124,126,127,128,129,130,131,132,133,134,135,137,138,139,140,141,142,143,144,145,146,147,148,149,150,151,152,153,154,155,156,157,158,160,161,162,163,164,165,166,167,168,169,170,171,172,173,174,175,176,177,178,179,180,181,182,183,184,185,186,187,188,189,190,191,192,193,194,195,196,197,198,199,200,201,202,203,204,205,206,207,208,209,210,212,213,214,215,216,217,218,0,1,2,3,4,5,6,7,9,10,11,12,13,14,15,16,17,18,19,20,21,22,23,24,25,26,27,28,29,30,31,32,33,34,35,36,37,38,39,40,41,42,43,44,45,46,47,48,49,50,51,52,53,54,55,56,57,58,59,60,61,62,63,64,65,66,67,68,69,70,71,72,73,74,75,76,77,78,79,80,81,82,83,84,85,86,87,88,89,90,91,92,93,94,95,96,97,98,99,100,101,102,103,104,105,106,107,108,109,110,111,112,113,114,115,116,117,118,119,120,121,122,123,124,125,126,127,128,129,130,131,132,133,134,135,136,137,138,139,140,141,142,143,144,145,146,147,148,149,150,151,152,153,154,155,156,157,158,159,160,161,162,163,164,165,166,167,168,169,170,171,172,173,174,175,176,177,178,179,180,181,182,183,184,185,186,187,188,189,190,191,192,193,194,195,196,197,198,199,200,201,202,203,204,205,206,207,208,209,210,211,212,213,214,215,216,217,218,0,1,2,3,4,5,6,7,8,9,10,11,12,13,14,15,16,17,18,19,20,21,22,23,24,25,26,27,28,29,30,31,32,33,34,35,36,37,38,39,40,41,42,43,44,45,46,47,48,49,50,51,52,53,54,55,56,57,58,59,60,61,62,63,64,65,66,67,68,69,70,71,72,73,74,75,76,77,78,79,80,81,82,83,84,85,86,87,88,89,90,91,92,93,94,95,96,97,98,99,100,101,102,103,104,105,106,107,108,109,110,111,112,113,114,115,116,117,118,119,120,121,122,123,124,125,126,127,128,129,130,131,132,133,134,135,136,137,138,139,140,141,142,143,144,145,146,147,148,149,150,151,152,153,154,155,156,157,158,159,160,161,162,163,164,165,166,167,168,169,170,171,172,173,174,175,176,177,178,179,180,181,182,183,184,185,186,187,188,189,190,191,193,194,195,196,197,198,199,200,201,202,203,204,205,206,207,208,209,210,211,212,213,214,215,216,217,218,192,42,39,39,201,0,1,2,3,4,5,6,7,8,9,10,11,12,13,14,15,16,17,18,19,20,21,22,23,24,25,26,27,28,29,30,31,32,33,34,35,36,37,38,39,40,41,42,43,44,45,46,47,48,49,50,51,52,53,54,55,56,57,58,59,60,61,62,63,64,65,66,67,68,69,70,71,72,74,75,76,77,78,79,80,81,82,83,84,85,86,87,88,89,90,91,92,93,94,95,96,97,98,99,100,101,102,103,104,105,106,107,108,109,110,111,112,113,114,115,116,117,118,119,120,121,122,123,124,126,127,128,129,130,131,132,133,134,135,136,137,138,139,140,141,142,143,144,145,146,147,148,149,150,151,152,153,154,155,156,157,158,159,160,161,162,163,164,165,166,167,168,169,170,171,172,173,174,175,176,177,178,179,180,181,182,183,184,185,186,187,188,189,190,191,192,193,194,195,196,197,198,199,200,201,202,203,204,205,206,207,208,209,210,212,213,214,215,216,217,218,0,1,2,3,4,5,6,7,8,9,10,11,12,13,14,15,16,17,18,19,20,21,22,23,24,25,26,27,28,29,30,31,32,33,34,35,36,37,38,40,41,42,43,44,45,46,47,48,49,50,51,52,53,54,55,56,57,58,59,60,61,63,64,65,66,67,68,69,70,71,72,73,74,75,76,77,78,79,80,81,82,83,84,85,86,87,88,89,90,91,92,93,94,95,96,97,98,99,100,101,102,103,104,105,106,107,108,109,110,111,112,113,114,115,116,117,118,119,120,121,122,123,124,125,126,127,128,129,130,131,132,133,134,135,136,137,138,139,140,141,142,143,144,145,146,147,148,149,150,151,152,153,154,155,156,157,158,159,160,161,162,163,164,165,166,167,168,169,170,171,172,173,174,175,176,177,178,179,180,181,182,183,184,185,186,187,188,189,190,191,192,193,194,195,196,197,198,199,200,201,202,203,204,205,206,207,208,209,210,211,212,213,214,215,216,217,218,0,1,2,3,4,5,6,7,8,9,10,11,12,13,14,15,16,17,18,19,20,21,22,23,24,25,26,27,28,29,30,31,32,33,34,35,36,37,38,39,40,41,42,43,44,45,46,47,48,49,50,51,52,53,54,55,56,57,58,59,60,61,62,63,64,65,66,67,68,69,70,71,72,73,74,75,76,77,78,79,80,81,83,84,85,86,87,88,89,90,91,92,93,94,95,96,97,98,99,100,101,102,103,104,105,106,107,108,109,110,111,112,113,114,115,116,117,118,119,120,121,122,123,124,125,126,127,128,129,130,131,132,133,134,135,136,137,138,139,140,141,142,143,144,145,146,147,149,150,151,152,153,154,155,156,157,158,159,160,161,162,163,164,165,166,167,168,169,170,171,172,173,174,175,176,177,178,179,180,181,182,183,184,185,186,187,188,189,190,191,192,193,194,195,196,197,198,199,200,201,202,203,204,205,206,207,208,209,210,211,212,213,214,215,216,217,218,150,58,118],"categories_nodes":[0,1,2,3,9,10,14,15,16,19,21,22,23,24,33,34,35,38,43,45,49,50,57,63,68,79,83,84,93,95,98],"categories_segments":[0,38,211,239,428,430,641,834,1042,1044,1262,1264,1266,1470,1471,1473,1474,1476,1477,1687,1905,2123,2124,2125,2126,2127,2128,2344,2561,2778,2779],"categories_sizes":[38,173,28,189,2,211,193,208,2,218,2,2,204,1,2,1,2,1,210,218,218,1,1,1,1,1,216,217,217,1,2],"default_left":[1,0,1,0,0,0,0,0,0,1,0,0,0,0,0,0,1,0,0,0,0,1,1,0,1,0,0,0,0,0,0,0,0,1,1,1,0,0,1,0,0,0,0,0,0,0,0,0,0,0,1,0,0,0,0,0,0,1,0,0,0,0,0,1,0,0,0,0,1,0,0,0,0,0,0,0,0,0,0,1,0,0,0,0,0,0,0,0,0,0,0,0,0,0,0,1,0,0,1,0,0,0,0,0,0,0,0,0,0,0,0,0,0],"id":0,"left_children":[1,3,5,7,9,11,-1,13,15,17,19,-1,21,23,25,27,29,-1,-1,31,33,35,37,39,41,-1,-1,43,45,-1,47,-1,49,51,53,55,-1,57,59,-1,-1,-1,-1,61,63,65,-1,-1,67,69,71,73,75,-1,77,-1,-1,79,-1,81,-1,83,85,87,-1,-1,89,-1,91,-1,93,95,-1,-1,97,-1,-1,-1,-1,99,-1,-1,-1,101,103,-1,105,-1,-1,-1,-1,-1,-1,107,-1,109,-1,-1,111,-1,-1,-1,-1,-1,-1,-1,-1,-1,-1,-1,-1,-1,-1],"loss_changes":[6.2818105E3,4.176256E2,5.4541504E2,1.311919E2,4.933696E1,8.896103E1,0E0,5.949463E0,6.1586E1,9.569937E1,6.502314E1,0E0,5.8254227E1,1.3850098E0,1.4473877E0,8.89032E0,8.022685E1,0E0,0E0,1.5678825E1,5.123303E1,1.6534203E2,1.423031E2,8.930542E0,1.2600735E2,0E0,0E0,5.223877E0,1.322609E0,0E0,1.1963409E1,0E0,4.22126E1,4.5917885E1,2.0373594E1,2.6825474E1,0E0,2.209973E1,1.6862488E0,0E0,0E0,0E0,0E0,1.615216E1,5.8129913E1,4.5090532E-1,0E0,0E0,4.7608356E1,9.845959E0,4.017131E1,4.8786865E1,3.0166656E1,0E0,8.589268E-2,0E0,0E0,3.8406532E1,0E0,2.0742582E1,0E0,1.55078125E1,5.279148E0,4.315023E1,0E0,0E0,1.792844E-1,0E0,1.2348133E1,0E0,2.4153118E0,1.0420034E0,0E0,0E0,1.4969043E1,0E0,0E0,0E0,0E0,1.6611296E0,0E0,0E0,0E0,4.7155685E0,1.623703E1,0E0,2.9109202E-2,0E0,0E0,0E0,0E0,0E0,0E0,1.3498569E-1,0E0,1.8905041E0,0E0,0E0,3.166554E-1,0E0,0E0,0E0,0E0,0E0,0E0,0E0,0E0,0E0,0E0,0E0,0E0,0E0,0E0],"parents":[2147483647,0,0,1,1,2,2,3,3,4,4,5,5,7,7,8,8,9,9,10,10,12,12,13,13,14,14,15,15,16,16,19,19,20,20,21,21,22,22,23,23,24,24,27,27,28,28,30,30,32,32,33,33,34,34,35,35,37,37,38,38,43,43,44,44,45,45,48,48,49,49,50,50,51,51,52,52,54,54,57,57,59,59,61,61,62,62,63,63,66,66,68,68,70,70,71,71,74,74,79,79,83,83,84,84,86,86,93,93,95,95,98,98],"right_children":[2,4,6,8,10,12,-1,14,16,18,20,-1,22,24,26,28,30,-1,-1,32,34,36,38,40,42,-1,-1,44,46,-1,48,-1,50,52,54,56,-1,58,60,-1,-1,-1,-1,62,64,66,-1,-1,68,70,72,74,76,-1,78,-1,-1,80,-1,82,-1,84,86,88,-1,-1,90,-1,92,-1,94,96,-1,-1,98,-1,-1,-1,-1,100,-1,-1,-1,102,104,-1,106,-1,-1,-1,-1,-1,-1,108,-1,110,-1,-1,112,-1,-1,-1,-1,-1,-1,-1,-1,-1,-1,-1,-1,-1,-1],"split_conditions":[1E-45,1E-45,1E-45,1E-45,2.002E3,2.007E3,-3.1693932E-1,2.012E3,2.021E3,1E-45,1E-45,-2.1276253E-1,2.015E3,2.009E3,1E-45,1E-45,1E-45,5.6999817E-2,-2.1569481E-1,1E-45,2.016E3,1E-45,1E-45,1E-45,1E-45,1.6673125E-1,8.894463E-2,2.015E3,2.005E3,9.182607E-2,2.022E3,1.1647865E-1,2.019E3,1E-45,1E-45,1E-45,-2.1569481E-1,2.022E3,1E-45,1.4573173E-1,6.4494535E-2,1.3084388E-1,-1.6177112E-1,1E-45,2.016E3,1E-45,7.0047505E-2,-1.6177112E-1,2.023E3,1E-45,1E-45,2.004E3,2.004E3,1.0967887E-1,2.023E3,1.18032314E-1,-1.7268676E-2,1E-45,6.408179E-2,2.016E3,-2.588338E-1,2.001E3,2.003E3,1E-45,1.1615065E-1,4.592562E-2,2.001E3,9.573906E-2,1E-45,1.2613554E-1,2.007E3,2.024E3,-1.6177112E-1,-1.6177112E-1,2.01E3,-3.2830983E-3,-2.1569481E-1,-2.3197722E-2,-4.509871E-3,1E-45,-1.6177112E-1,-1.6177112E-1,1.1597242E-2,1E-45,1E-45,6.62132E-2,2.006E3,6.2257174E-2,-1.6177112E-1,1.4581785E-3,1.9208092E-2,-9.478263E-3,-1.6177112E-1,1E-45,6.319696E-2,1E-45,-3.2830983E-3,6.627049E-2,1E-45,3.225286E-2,-9.632586E-3,8.51258E-2,2.0629684E-2,1.6504733E-1,8.304719E-2,-4.420166E-3,1.4581785E-3,2.7352868E-2,8.851052E-3,5.1204167E-2,-2.2194511E-3,-4.1863867E-3,-3.0856367E-2],"split_indices":[0,0,0,0,3,3,0,3,3,0,0,0,3,3,0,0,0,0,0,0,3,0,0,0,0,0,0,3,3,0,3,0,3,0,0,0,0,3,0,0,0,0,0,0,3,0,0,0,3,0,0,3,3,0,3,0,0,0,0,3,0,3,3,0,0,0,3,0,0,0,3,3,0,0,3,0,0,0,0,0,0,0,0,0,0,0,3,0,0,0,0,0,0,0,0,0,0,0,0,0,0,0,0,0,0,0,0,0,0,0,0,0,0],"split_type":[1,1,1,1,0,0,0,0,0,1,1,0,0,0,1,1,1,0,0,1,0,1,1,1,1,0,0,0,0,0,0,0,0,1,1,1,0,0,1,0,0,0,0,1,0,1,0,0,0,1,1,0,0,0,0,0,0,1,0,0,0,0,0,1,0,0,0,0,1,0,0,0,0,0,0,0,0,0,0,1,0,0,0,1,1,0,0,0,0,0,0,0,0,1,0,1,0,0,1,0,0,0,0,0,0,0,0,0,0,0,0,0,0],"sum_hessian":[2.66E2,1.89E2,7.7E1,1.53E2,3.6E1,2.9E1,4.8E1,9.8E1,5.5E1,4E0,3.2E1,9E0,2E1,4.3E1,5.5E1,4.7E1,8E0,2E0,2E0,1.8E1,1.4E1,8E0,1.2E1,3.2E1,1.1E1,5.1E1,4E0,3.7E1,1E1,4E0,4E0,3E0,1.5E1,1E1,4E0,6E0,2E0,6E0,6E0,2.8E1,4E0,1E1,1E0,3E1,7E0,4E0,6E0,1E0,3E0,1.1E1,4E0,7E0,3E0,2E0,2E0,4E0,2E0,4E0,2E0,2E0,4E0,2.6E1,4E0,2E0,5E0,1E0,3E0,1E0,2E0,2E0,9E0,3E0,1E0,1E0,6E0,1E0,2E0,1E0,1E0,3E0,1E0,1E0,1E0,6E0,2E1,2E0,2E0,1E0,1E0,1E0,2E0,1E0,1E0,5E0,4E0,2E0,1E0,3E0,3E0,2E0,1E0,3E0,3E0,1.2E1,8E0,1E0,1E0,3E0,2E0,1E0,1E0,1E0,2E0],"tree_param":{"num_deleted":"0","num_feature":"5","num_nodes":"113","size_leaf_vector":"1"}},{"base_weights":[9.082595E-2,3.2288067E0,-6.671857E0,3.9617796E0,1.0547614E0,-3.521164E0,-3.073617E-1,1.5961571E-1,3.420403E0,1.4655479E0,-4.2286265E-1,-5.684673E0,-2.8026407E0,2.6881363E0,1.1863251E-1,2.144392E-1,1.8600315E0,-1.7656709E0,1.5416415E0,-9.4738295E-3,-2.0844375E-1,-2.8772798E-1,-4.7426987E0,1.17213264E-1,-2.4292392E-3,1.3048626E0,-1.5821606E-1,8.770115E-2,8.694991E-1,7.74591E-2,-2.8432229E0,7.2851874E-2,-1.8657718E-2,2.2138016E0,-3.4628763E0,4.9899574E-3,-5.03949E0,5.978907E-2,2.4660537E-2,-3.629907E-2,3.3738166E-2,-1.4812084E0,-1.5910482E-1,1.0095348E0,2.975308E0,-1.5199931E-1,5.6474023E-2,-4.0657525E0,-2.369341E-1,1.4341451E-3,-3.22898E-3,-3.8678486E0,1.399168E0,9.038266E-2,-1.0901809E-1,1.09856345E-1,2.548121E-2,-1.8721037E-1,-2.852421E0,-2.841459E-2,-1.628341E-1,8.6035736E-2,-1.6852824E-2,6.200002E-2,-4.6124887E-2,9.816535E-1,-1.2966807E-1,5.1767576E-2,-3.22898E-3],"categories":[7,9,11,14,23,24,25,27,32,46,47,48,60,68,77,83,86,89,94,95,103,110,116,136,146,149,150,151,152,155,158,167,192,193,196,197,201,206,209,213,1,2,3,4,5,6,7,8,9,10,11,12,13,14,15,16,17,18,19,20,21,22,23,24,25,26,27,28,29,30,32,33,34,35,36,38,40,41,42,43,44,45,46,47,48,49,50,51,52,53,54,55,56,57,58,59,60,61,63,66,67,68,69,70,71,72,74,75,76,77,78,79,81,82,83,85,86,87,89,90,92,93,94,95,96,97,98,100,101,102,103,104,105,107,108,109,110,111,114,115,116,117,118,119,121,122,123,124,125,126,127,128,130,133,134,135,136,138,139,140,141,142,143,145,146,147,148,149,150,151,152,153,154,155,156,157,158,159,160,161,162,163,164,165,166,167,168,169,171,172,173,174,175,176,177,178,182,184,186,187,188,190,192,193,194,195,196,197,198,199,200,201,202,204,205,206,208,209,210,212,213,215,216,7,9,11,14,27,32,46,47,48,68,77,83,86,94,95,103,110,146,149,151,152,155,158,167,196,197,206,209,213,1,2,3,4,5,6,7,8,9,10,11,12,13,14,15,16,17,18,19,20,21,22,23,24,25,26,27,28,29,30,31,32,33,34,35,36,37,38,39,40,41,42,43,44,45,46,47,48,49,50,51,52,53,54,55,56,57,58,59,60,61,62,63,64,66,67,68,69,70,71,72,73,74,75,76,77,78,79,80,81,82,83,84,85,86,87,88,89,90,91,92,93,94,95,96,97,98,100,101,102,103,104,105,106,107,108,109,110,111,112,114,115,116,117,118,119,121,122,123,124,125,126,127,128,129,130,131,132,133,134,135,136,138,139,140,141,142,143,144,145,146,147,148,149,150,151,152,153,154,155,156,157,158,159,160,161,162,163,164,165,166,167,168,169,170,171,172,173,174,175,176,177,178,181,182,183,184,185,186,187,188,190,191,192,193,194,195,196,197,198,199,200,201,202,203,204,205,206,207,208,209,210,211,212,213,214,215,216,0,1,2,3,5,6,7,9,10,11,12,13,14,15,16,17,18,19,20,21,23,24,25,26,27,28,29,31,32,33,34,35,36,37,38,39,40,41,42,43,44,45,46,47,48,49,50,51,52,53,54,56,57,58,59,60,61,62,63,64,65,67,68,69,70,71,73,74,75,76,77,78,79,80,81,83,84,86,87,88,89,90,91,92,93,94,95,96,99,100,101,102,103,104,105,106,107,108,109,110,111,112,113,114,115,116,117,118,119,120,121,122,123,126,127,128,129,130,131,132,133,134,135,136,137,138,139,140,141,142,143,144,145,146,147,149,150,151,152,153,154,155,156,157,158,159,160,161,162,163,164,165,166,167,168,169,170,171,172,173,174,175,176,177,178,179,180,181,183,184,185,186,187,188,189,190,191,192,193,194,195,196,197,198,199,200,201,202,203,204,205,206,207,208,209,211,212,213,214,215,216,217,218,25,60,192,39,4,0,1,2,3,5,6,7,9,10,11,12,13,14,15,16,17,18,19,20,21,22,23,24,25,26,27,28,29,30,31,32,33,34,35,36,37,38,39,40,41,42,43,44,45,46,47,48,49,50,51,52,53,54,56,57,58,59,60,61,62,63,64,65,66,67,68,69,70,71,73,74,75,76,77,78,79,80,81,82,83,84,86,87,88,89,90,91,92,93,94,95,96,98,99,100,101,102,103,104,105,106,107,108,109,110,111,112,113,114,115,116,117,118,119,120,121,122,123,124,126,127,128,129,130,131,132,133,134,135,136,137,138,139,140,141,142,143,144,145,146,147,148,149,150,151,152,153,154,155,156,157,158,159,160,161,162,163,164,165,166,167,168,169,170,171,172,173,174,175,176,177,178,179,180,181,182,183,184,185,186,187,188,189,190,191,192,193,194,195,196,197,198,199,200,201,202,203,204,205,206,207,208,209,210,211,212,213,214,215,216,217,218,156,116,150,193,23,24,25,89,136,150,192,201,0,1,2,3,4,5,6,7,8,9,10,11,12,13,14,15,16,17,18,19,20,21,23,24,25,26,27,28,29,30,31,32,33,34,35,36,37,38,39,40,41,42,43,44,45,46,47,48,49,50,51,52,53,54,55,56,57,58,59,60,61,62,63,64,65,66,67,68,69,70,71,72,73,74,75,76,77,78,79,80,81,82,83,84,85,86,87,88,89,90,91,92,93,94,95,96,97,98,99,100,101,102,103,104,105,106,107,108,109,110,111,112,113,114,115,116,117,118,119,120,121,122,123,124,125,126,127,128,129,130,131,132,133,134,135,136,137,138,139,140,141,142,143,144,145,146,147,148,149,150,151,152,153,154,155,156,157,158,159,160,161,162,163,164,165,166,167,168,169,170,171,172,173,174,175,176,177,178,179,180,181,182,183,184,185,186,187,188,189,190,191,192,193,194,195,196,197,198,199,200,201,202,203,204,205,206,207,208,209,211,212,213,214,215,216,217,218,29,23,192,201,210,0,1,2,3,4,5,6,7,8,9,10,11,12,13,14,15,16,17,18,19,20,21,22,23,24,26,27,28,29,30,31,32,33,34,35,36,37,38,39,40,41,42,43,44,45,46,47,48,49,50,51,52,53,54,55,56,57,58,59,61,62,63,64,65,66,67,68,69,70,71,72,73,74,75,76,77,78,79,80,81,82,83,84,85,86,87,88,89,90,91,92,93,94,95,96,97,98,99,100,101,102,103,104,105,106,107,108,109,110,111,112,113,114,115,116,117,118,119,120,121,122,123,124,125,126,127,128,129,130,131,132,133,134,135,136,137,138,139,140,141,142,143,144,145,146,147,148,149,150,151,152,153,154,155,156,157,158,159,160,161,162,163,164,165,166,167,168,169,170,171,172,173,174,175,176,177,178,179,180,181,182,183,184,185,186,187,188,189,190,191,193,194,195,196,197,198,199,200,201,202,203,204,205,206,207,208,209,210,211,212,213,214,215,216,217,218,28,118,192,25,150,89],"categories_nodes":[0,1,2,3,4,11,13,15,16,18,21,22,25,30,36,39,44,51,52,54,58,65],"categories_segments":[0,40,223,252,460,663,666,667,668,880,881,884,892,1109,1110,1113,1114,1330,1331,1332,1333,1335],"categories_sizes":[40,183,29,208,203,3,1,1,212,1,3,8,217,1,3,1,216,1,1,1,2,1],"default_left":[1,0,1,0,0,0,0,0,0,0,0,1,0,1,0,1,0,0,1,0,0,1,1,0,0,0,0,0,0,0,1,0,0,0,0,0,1,0,0,1,0,0,0,0,0,0,0,0,0,0,0,1,1,0,1,0,0,0,1,0,0,0,0,0,0,1,0,0,0],"id":1,"left_children":[1,3,5,7,9,11,-1,-1,13,15,17,19,21,23,-1,25,27,29,31,-1,-1,33,35,-1,-1,37,-1,-1,39,-1,41,-1,-1,43,45,-1,47,-1,-1,49,-1,51,-1,53,55,-1,-1,57,-1,-1,-1,59,61,-1,63,-1,-1,-1,65,-1,-1,-1,-1,-1,-1,67,-1,-1,-1],"loss_changes":[5.623931E3,2.842478E2,6.691343E2,4.7780273E1,2.914817E1,4.6249207E1,0E0,0E0,1.6953125E0,1.7862175E1,3.1739506E1,2.9209412E1,1.5476588E2,5.0586E1,0E0,6.0938126E1,1.9888336E1,3.7723656E1,8.2948E0,0E0,0E0,1.2680703E2,2.6908203E1,0E0,0E0,1.19316E0,0E0,0E0,1.9899416E0,0E0,9.059452E0,0E0,0E0,5.249836E0,4.9502663E1,0E0,6.337036E0,0E0,0E0,1.902324E-2,0E0,3.9783882E1,0E0,9.987474E0,1.3585396E0,0E0,0E0,1.1208496E1,0E0,0E0,0E0,5.4081573E0,8.273985E0,0E0,1.2901416E1,0E0,0E0,0E0,4.5316467E1,0E0,0E0,0E0,0E0,0E0,0E0,2.060795E0,0E0,0E0,0E0],"parents":[2147483647,0,0,1,1,2,2,3,3,4,4,5,5,8,8,9,9,10,10,11,11,12,12,13,13,15,15,16,16,17,17,18,18,21,21,22,22,25,25,28,28,30,30,33,33,34,34,36,36,39,39,41,41,43,43,44,44,47,47,51,51,52,52,54,54,58,58,65,65],"right_children":[2,4,6,8,10,12,-1,-1,14,16,18,20,22,24,-1,26,28,30,32,-1,-1,34,36,-1,-1,38,-1,-1,40,-1,42,-1,-1,44,46,-1,48,-1,-1,50,-1,52,-1,54,56,-1,-1,58,-1,-1,-1,60,62,-1,64,-1,-1,-1,66,-1,-1,-1,-1,-1,-1,68,-1,-1,-1],"split_conditions":[1E-45,1E-45,1E-45,1E-45,1E-45,2E0,-3.073617E-1,1.5961571E-1,2E0,2E0,1E1,1E-45,7E0,1E-45,1.1863251E-1,1E-45,1E-45,2E0,1E-45,-9.4738295E-3,-2.0844375E-1,1E-45,1E-45,1.17213264E-1,-2.4292392E-3,1E-45,-1.5821606E-1,8.770115E-2,5E0,7.74591E-2,1E-45,7.2851874E-2,-1.8657718E-2,4E0,5E0,4.9899574E-3,1E-45,5.978907E-2,2.4660537E-2,1E-45,3.3738166E-2,5E0,-1.5910482E-1,3E0,1E-45,-1.5199931E-1,5.6474023E-2,8E0,-2.369341E-1,1.4341451E-3,-3.22898E-3,1E-45,1E-45,9.038266E-2,1E-45,1.09856345E-1,2.548121E-2,-1.8721037E-1,1E-45,-2.841459E-2,-1.628341E-1,8.6035736E-2,-1.6852824E-2,6.200002E-2,-4.6124887E-2,1E-45,-1.2966807E-1,5.1767576E-2,-3.22898E-3],"split_indices":[0,0,0,0,0,2,0,0,2,2,2,0,2,0,0,0,0,2,0,0,0,0,0,0,0,0,0,0,2,0,0,0,0,2,2,0,0,0,0,0,0,2,0,2,0,0,0,2,0,0,0,0,0,0,0,0,0,0,0,0,0,0,0,0,0,0,0,0,0],"split_type":[1,1,1,1,1,0,0,0,0,0,0,1,0,1,0,1,1,0,1,0,0,1,1,0,0,1,0,0,0,0,1,0,0,0,0,0,1,0,0,1,0,0,0,0,1,0,0,0,0,0,0,1,1,0,1,0,0,0,1,0,0,0,0,0,0,1,0,0,0],"sum_hessian":[2.63E2,1.8E2,8.3E1,1.34E2,4.6E1,3.9E1,4.4E1,4.8E1,8.6E1,3.6E1,1E1,8E0,3.1E1,2E1,6.6E1,9E0,2.7E1,6E0,4E0,1E0,7E0,1.4E1,1.7E1,1.5E1,5E0,8E0,1E0,1.4E1,1.3E1,1E0,5E0,3E0,1E0,8E0,6E0,1E0,1.6E1,3E0,5E0,2E0,1.1E1,4E0,1E0,4E0,4E0,5E0,1E0,1.3E1,3E0,1E0,1E0,2E0,2E0,1E0,3E0,3E0,1E0,4E0,9E0,1E0,1E0,1E0,1E0,1E0,2E0,2E0,7E0,1E0,1E0],"tree_param":{"num_deleted":"0","num_feature":"5","num_nodes":"69","size_leaf_vector":"1"}},{"base_weights":[-2.6141083E-1,2.6456335E0,-7.11855E0,3.667117E0,5.0063163E-2,-3.2793555E0,-2.9959998E-1,4.2721343E0,2.3858716E0,-3.1236491E0,9.003259E-1,-2.609605E-1,-1.8655992E0,1.5703942E-1,1.2292416E-1,2.8792498E0,-1.1365019E0,-7.244122E-1,-2.3540169E-1,2.300481E0,-8.419843E-1,1.5370252E0,-2.707128E0,1.5120934E0,3.6137538E0,1.0286959E-1,-2.1208638E-1,-1.64766E-1,6.0021085E-1,2.9190993E0,6.1212063E-2,-4.770145E0,9.016549E-1,8.095702E-2,1.05774246E-1,-3.3732414E0,5.7615902E-2,2.7839963E0,-3.392236E-1,1.6468924E-1,2.2695322E0,1.6500072E0,-5.996382E-1,3.219602E-1,3.4170632E0,1.8276202E-2,-3.2400584E-1,-4.7953445E-2,-2.3467785E-1,6.1197955E-2,-1.1884022E0,4.907719E-3,3.223683E-4,-2.339096E-1,-1.9683136E0,1.0288996E-1,1.4105047E-3,-1.6406642E-1,1.2632939E0,8.860542E-2,5.5147696E-1,6.424272E-2,1.241705E-2,-2.2547022E-2,-5.7122167E-3,1.2287729E-1,-1.6308986E-1,1.3665093E-1,5.3847197E-2,-3.1905905E-3,-1.6575065E-2,4.537653E-2,-4.7747623E-2,-3.2289572E0,4.114832E-2,3.1030672E0,-3.1724799E0,5.4357294E-2,6.581924E-1,2.458582E-2,-5.211429E-4,-3.1757574E-3,-1.5648246E-1,1.21746846E-1,3.1686638E-2,-5.0519557E0,9.328232E-2,3.313046E-2,-6.3025993E-3,-1.8300807E0,-2.3110421E-1,8.087842E-2,-1.5406948E-1,3.0997979E-2,-1.6714993E-1],"categories":[7,11,15,23,25,28,46,47,49,68,77,83,86,94,95,103,110,116,146,149,150,152,155,156,157,158,164,166,167,180,193,196,201,204,209,213,1,2,3,4,5,6,7,8,9,10,11,12,13,14,15,16,17,18,19,20,21,23,24,25,26,27,28,29,30,32,33,34,35,36,38,40,41,43,44,45,46,47,48,49,50,51,53,54,55,56,57,58,59,60,61,62,63,66,67,68,69,70,71,74,75,76,77,78,79,81,82,83,84,85,86,87,89,90,92,93,94,95,96,97,98,100,101,102,103,104,105,107,108,109,110,111,115,116,117,118,119,121,122,124,126,127,128,130,131,133,134,135,136,138,139,140,141,142,143,145,146,149,150,151,152,153,154,155,156,157,158,160,161,162,163,164,165,166,167,168,169,171,172,173,174,175,176,177,178,180,182,184,186,187,188,190,192,193,194,195,196,197,198,199,200,201,202,204,205,206,208,209,210,211,212,213,215,216,7,11,15,23,46,47,49,68,83,86,94,103,110,146,149,152,155,156,157,158,164,166,167,196,204,209,213,1,2,3,4,5,6,7,8,9,10,11,12,13,14,15,16,17,18,19,20,21,22,23,24,25,26,27,28,29,30,32,33,34,35,36,38,39,40,41,42,43,44,45,46,47,48,49,50,51,53,54,55,56,57,58,59,60,61,62,63,64,66,67,68,69,70,71,72,73,74,75,76,77,78,79,80,81,82,83,84,85,86,87,89,90,92,93,94,95,96,97,98,100,101,102,103,104,105,107,108,109,110,111,112,115,116,117,118,119,121,122,124,125,126,127,128,130,131,132,133,134,135,136,138,139,140,141,142,143,145,146,148,149,150,151,152,153,154,155,156,157,158,159,160,161,162,163,164,165,166,167,168,169,170,171,172,173,174,175,176,177,178,180,182,184,186,187,188,190,192,193,194,195,196,197,198,199,200,201,202,204,205,206,208,209,210,211,212,213,215,216,1,2,3,4,5,6,7,8,9,10,11,12,13,14,15,16,17,18,19,20,21,22,23,24,25,26,27,28,29,30,31,32,33,34,35,36,38,39,40,41,42,43,44,45,46,47,48,49,50,51,53,54,55,56,57,58,59,60,61,62,63,64,66,67,68,69,70,71,72,73,74,75,76,77,78,79,80,81,82,83,84,85,86,87,89,90,91,92,93,94,95,96,97,98,100,101,102,103,104,105,106,107,108,109,110,111,112,113,114,115,116,117,118,119,120,121,122,123,124,125,126,127,128,129,130,131,132,133,134,135,136,138,139,140,141,142,143,144,145,146,147,148,149,150,151,152,153,154,155,156,157,158,159,160,161,162,163,164,165,166,167,168,169,170,171,172,173,174,175,176,177,178,180,181,182,183,184,185,186,187,188,190,191,192,193,194,195,196,197,198,199,200,201,202,203,204,205,206,207,208,209,210,211,212,213,214,215,216,4,60,192,25,77,180,193,201,39,0,1,2,3,5,6,7,8,9,10,11,12,13,14,15,16,17,18,19,20,21,22,23,24,25,26,27,28,29,30,31,32,33,34,35,36,37,38,39,40,41,42,43,44,45,46,47,49,50,51,52,53,54,56,57,58,59,61,62,63,64,65,66,67,68,69,70,71,72,73,74,75,76,77,78,79,80,81,83,84,86,87,88,90,91,92,93,94,95,96,97,98,99,100,101,102,103,104,105,106,107,108,109,110,111,112,113,114,115,116,117,118,119,120,121,122,123,124,125,126,127,128,129,130,132,133,134,135,137,138,139,140,141,142,143,144,145,146,147,148,149,150,151,152,153,154,155,156,157,158,159,160,161,162,163,164,165,166,167,168,169,170,171,172,173,174,175,176,177,178,179,180,181,182,183,184,185,186,187,188,189,190,191,193,194,195,196,197,198,199,200,201,202,203,204,205,206,207,208,209,210,211,212,213,214,215,216,217,218,0,1,2,3,4,5,6,7,8,9,10,11,12,13,14,15,16,17,18,19,20,21,22,23,24,25,26,27,29,30,31,32,33,34,35,36,37,38,39,40,41,42,43,44,45,46,47,48,49,50,51,52,53,54,55,56,57,58,59,60,61,62,63,64,65,66,67,68,69,70,71,72,73,74,75,76,77,78,79,80,81,82,83,84,85,86,87,88,89,90,91,92,93,94,96,97,98,99,100,101,102,103,104,105,106,107,108,109,110,111,112,113,114,115,116,117,118,119,120,121,122,123,124,125,126,127,128,129,130,131,132,133,134,135,136,137,138,139,140,141,142,143,144,145,146,147,148,149,150,151,152,153,154,155,156,157,158,159,160,161,162,163,164,165,166,167,168,169,170,171,172,173,174,175,176,177,178,179,180,181,182,183,184,185,186,187,188,189,190,191,192,193,194,195,196,197,198,199,200,201,202,203,204,205,206,207,208,209,210,211,212,213,214,215,216,217,218,0,1,2,3,4,5,6,7,8,9,10,11,12,13,14,15,16,17,18,19,20,21,22,23,24,25,26,27,28,29,30,31,32,33,34,35,36,37,38,40,41,42,43,44,45,46,47,48,49,50,51,52,53,54,55,56,57,58,59,60,61,62,63,64,65,66,67,68,69,70,71,72,73,74,75,76,77,78,79,81,82,83,84,85,86,87,88,89,90,91,92,93,94,95,96,97,98,99,100,101,102,103,104,105,106,107,108,109,110,111,112,113,114,115,116,117,118,119,120,121,122,123,124,125,126,127,128,129,130,131,132,133,134,135,136,137,138,139,140,141,142,143,144,145,146,147,148,149,150,151,152,153,154,155,156,157,158,159,160,161,162,163,164,165,166,167,168,169,170,171,172,173,174,175,176,177,178,179,180,181,182,183,184,185,186,187,188,189,190,191,192,193,194,195,196,197,198,199,200,201,202,203,204,205,206,207,208,209,210,211,212,213,214,215,216,217,218,32,118,210,89,136,192,29,89,0,1,2,3,4,5,6,7,8,9,10,11,12,13,14,15,16,17,18,19,20,21,22,23,24,25,26,27,28,29,30,31,32,33,34,35,36,37,38,39,40,41,42,43,44,45,46,47,48,49,50,51,52,53,54,55,56,57,58,59,60,61,62,63,64,65,66,67,68,69,70,71,72,73,74,75,76,77,78,79,80,81,82,83,84,85,86,87,88,89,90,91,92,93,94,95,96,97,98,99,100,101,102,103,104,105,106,107,108,109,110,111,112,113,114,115,117,118,119,120,121,122,123,124,125,126,127,128,129,130,131,132,133,134,135,136,137,138,139,140,141,142,143,144,145,146,147,148,149,150,151,152,153,154,155,156,157,158,159,160,161,162,163,164,165,166,167,168,169,170,171,172,173,174,175,176,177,178,179,180,181,182,183,184,185,186,187,188,189,190,191,192,193,194,195,196,197,198,199,200,201,202,203,204,205,206,207,208,209,210,211,212,213,214,215,216,217,218,0,1,2,3,4,5,6,7,8,9,10,11,12,13,14,15,16,17,18,19,20,21,22,23,24,25,26,27,28,29,30,31,32,33,34,35,36,37,38,40,41,42,43,44,45,46,47,48,49,50,51,52,53,54,55,56,57,58,59,60,61,62,63,64,65,66,67,68,69,70,71,72,74,75,76,77,78,79,80,81,82,83,84,85,86,87,88,89,90,91,92,93,94,95,96,97,98,99,100,101,102,103,104,105,106,107,108,109,110,111,113,114,115,116,117,118,119,120,121,122,123,124,126,127,128,129,130,131,132,133,134,135,136,137,138,139,140,141,142,143,144,145,146,147,148,149,150,151,152,153,154,155,156,157,158,160,161,162,163,164,165,166,167,168,169,171,172,173,174,175,176,177,178,179,180,181,182,183,184,185,186,187,188,189,190,191,192,193,194,195,196,197,198,199,200,201,202,203,204,205,206,207,208,209,210,211,212,213,214,215,216,217,218,0,1,2,3,4,5,6,7,8,9,10,11,12,13,14,15,16,17,18,19,20,21,22,23,24,25,26,27,28,29,30,31,32,33,34,35,36,37,38,39,40,41,42,43,44,45,46,47,48,49,50,51,52,53,54,55,56,57,58,59,60,61,62,63,64,65,66,67,68,69,70,71,72,73,74,75,76,77,78,79,80,81,82,83,84,86,87,88,89,90,91,92,93,94,95,96,97,98,99,100,101,102,103,104,105,106,107,108,109,110,111,112,113,114,115,116,117,118,119,120,121,122,123,124,125,126,127,128,129,130,132,133,134,135,136,137,138,139,140,141,142,143,144,145,146,147,148,149,150,151,152,153,154,155,156,157,158,159,160,161,162,163,164,165,166,167,168,169,170,171,172,173,174,175,176,177,178,179,180,181,182,183,184,185,186,187,188,189,190,191,192,193,194,195,196,197,198,199,200,201,202,203,204,205,206,207,208,209,210,211,212,213,214,215,216,217,218,0,1,2,3,5,6,7,8,9,10,11,12,13,14,15,16,17,18,19,20,21,22,23,24,25,26,27,28,29,30,31,32,33,34,35,36,37,38,39,40,41,42,43,44,45,46,47,48,49,50,51,52,53,54,55,56,57,58,59,61,62,63,64,65,66,67,68,69,70,71,72,73,74,75,76,77,78,79,80,81,82,83,84,86,87,88,90,91,92,93,94,95,96,97,98,99,100,101,102,103,104,105,106,107,108,109,110,111,112,113,114,115,116,117,118,119,120,121,122,123,124,125,126,127,128,129,130,132,133,134,135,136,137,138,139,140,141,142,143,144,145,146,147,148,149,150,151,152,153,154,155,156,157,158,159,160,161,162,163,164,165,166,167,168,169,170,171,172,173,174,175,176,177,178,179,180,181,182,183,184,185,186,187,188,189,190,191,193,194,195,196,197,198,199,200,201,202,203,204,205,206,207,208,209,210,211,212,213,214,215,216,217,218,118,85,112,29,0,1,2,3,4,5,6,7,8,9,10,11,12,13,14,15,16,17,18,19,20,21,22,23,24,26,27,28,29,30,31,32,33,34,35,36,37,38,39,40,41,42,43,44,45,46,47,48,49,50,51,52,53,54,55,56,57,58,59,60,61,62,63,64,65,66,67,68,69,70,71,72,73,74,75,76,77,78,79,80,81,82,83,84,85,86,87,88,89,90,91,92,93,94,95,96,97,98,99,100,101,102,103,104,105,106,107,108,109,110,111,112,113,114,115,116,117,118,119,120,121,122,123,124,125,126,127,128,129,130,131,132,133,134,135,136,137,138,139,140,141,142,143,144,145,146,147,148,149,150,151,152,153,154,155,156,157,158,159,160,161,162,163,164,165,166,167,168,169,170,171,172,173,174,175,176,177,178,179,180,181,182,183,184,185,186,187,188,189,190,191,192,193,194,195,196,197,198,199,200,201,202,203,204,205,206,207,208,209,210,211,212,213,214,215,216,217,218,112,25],"categories_nodes":[0,1,2,3,7,9,12,16,19,21,24,30,31,32,34,37,41,44,46,47,60,73,75,78,85],"categories_segments":[0,36,214,241,432,640,643,648,649,858,1075,1292,1295,1298,1300,1518,1731,1948,2161,2162,2163,2164,2165,2383,2384],"categories_sizes":[36,178,27,191,208,3,5,1,209,217,217,3,3,2,218,213,217,213,1,1,1,1,218,1,1],"default_left":[1,0,1,0,0,0,0,0,0,1,0,0,1,0,0,0,1,0,0,0,0,0,0,0,0,0,0,0,0,0,1,1,1,0,0,0,0,0,0,0,0,0,0,0,0,0,1,1,0,0,0,0,0,0,0,0,0,0,0,0,1,0,0,0,0,0,0,0,0,0,0,0,0,1,0,0,0,0,1,0,0,0,0,0,0,1,0,0,0,0,0,0,0,0,0],"id":2,"left_children":[1,3,5,7,9,11,-1,13,15,17,19,-1,21,-1,-1,23,25,27,-1,29,31,33,35,37,39,-1,-1,-1,41,43,45,47,49,-1,51,53,-1,55,57,-1,59,61,63,65,67,-1,69,71,-1,-1,73,-1,-1,-1,75,-1,-1,-1,77,-1,79,-1,-1,-1,-1,-1,-1,-1,-1,-1,-1,-1,-1,81,-1,83,85,-1,87,-1,-1,-1,-1,-1,-1,89,91,-1,-1,93,-1,-1,-1,-1,-1],"loss_changes":[5.0222686E3,4.691023E2,5.374927E2,8.825464E1,1.4043526E2,1.6223993E2,0E0,4.939453E0,7.800035E1,1.00856705E2,1.0195665E2,0E0,6.715589E1,0E0,0E0,3.269458E1,1.553904E2,4.829133E1,0E0,3.1682137E1,1.3443764E2,6.3161755E0,5.931131E1,3.6264828E1,3.3256256E1,0E0,0E0,0E0,9.806588E0,2.2178894E1,1.3196219E0,6.62162E1,3.0146349E1,0E0,1.0958351E-2,6.971507E1,0E0,8.187981E0,5.831429E1,0E0,8.58197E0,7.881479E-1,2.533114E-2,9.022753E1,1.2715683E1,0E0,1.13853574E-1,7.9791274E0,0E0,0E0,2.8891657E1,0E0,0E0,0E0,8.923262E1,0E0,0E0,0E0,3.149824E-1,0E0,4.5283473E-1,0E0,0E0,0E0,0E0,0E0,0E0,0E0,0E0,0E0,0E0,0E0,0E0,1.3809893E1,0E0,2.4255562E-1,6.798839E1,0E0,1.3706493E0,0E0,0E0,0E0,0E0,0E0,0E0,3.1348602E1,6.77267E1,0E0,0E0,4.068019E1,0E0,0E0,0E0,0E0,0E0],"parents":[2147483647,0,0,1,1,2,2,3,3,4,4,5,5,7,7,8,8,9,9,10,10,12,12,15,15,16,16,17,17,19,19,20,20,21,21,22,22,23,23,24,24,28,28,29,29,30,30,31,31,32,32,34,34,35,35,37,37,38,38,40,40,41,41,42,42,43,43,44,44,46,46,47,47,50,50,54,54,58,58,60,60,73,73,75,75,76,76,78,78,85,85,86,86,89,89],"right_children":[2,4,6,8,10,12,-1,14,16,18,20,-1,22,-1,-1,24,26,28,-1,30,32,34,36,38,40,-1,-1,-1,42,44,46,48,50,-1,52,54,-1,56,58,-1,60,62,64,66,68,-1,70,72,-1,-1,74,-1,-1,-1,76,-1,-1,-1,78,-1,80,-1,-1,-1,-1,-1,-1,-1,-1,-1,-1,-1,-1,82,-1,84,86,-1,88,-1,-1,-1,-1,-1,-1,90,92,-1,-1,94,-1,-1,-1,-1,-1],"split_conditions":[1E-45,1E-45,1E-45,1E-45,2E0,2.006E3,-2.9959998E-1,1E-45,2.023E3,1E-45,7E0,-2.609605E-1,1E-45,1.5703942E-1,1.2292416E-1,2.006E3,1E-45,2.002E3,-2.3540169E-1,1E-45,8E0,1E-45,1E1,9E0,1E-45,1.0286959E-1,-2.1208638E-1,-1.64766E-1,2.014E3,4E0,1E-45,1E-45,1E-45,8.095702E-2,1E-45,2.012E3,5.7615902E-2,1E-45,2.001E3,1.6468924E-1,8E0,1E-45,2.024E3,2.011E3,1E-45,1.8276202E-2,1E-45,1E-45,-2.3467785E-1,6.1197955E-2,2.004E3,4.907719E-3,3.223683E-4,-2.339096E-1,2.017E3,1.0288996E-1,1.4105047E-3,-1.6406642E-1,2.003E3,8.860542E-2,1E-45,6.424272E-2,1.241705E-2,-2.2547022E-2,-5.7122167E-3,1.2287729E-1,-1.6308986E-1,1.3665093E-1,5.3847197E-2,-3.1905905E-3,-1.6575065E-2,4.537653E-2,-4.7747623E-2,1E-45,4.114832E-2,1E-45,2.023E3,5.4357294E-2,1E-45,2.458582E-2,-5.211429E-4,-3.1757574E-3,-1.5648246E-1,1.21746846E-1,3.1686638E-2,1E-45,2.025E3,3.313046E-2,-6.3025993E-3,2E0,-2.3110421E-1,8.087842E-2,-1.5406948E-1,3.0997979E-2,-1.6714993E-1],"split_indices":[0,0,0,0,2,3,0,0,3,0,2,0,0,0,0,3,0,3,0,0,2,0,2,2,0,0,0,0,3,2,0,0,0,0,0,3,0,0,3,0,2,0,3,3,0,0,0,0,0,0,3,0,0,0,3,0,0,0,3,0,0,0,0,0,0,0,0,0,0,0,0,0,0,0,0,0,3,0,0,0,0,0,0,0,0,0,3,0,0,2,0,0,0,0,0],"split_type":[1,1,1,1,0,0,0,1,0,1,0,0,1,0,0,0,1,0,0,1,0,1,0,0,1,0,0,0,0,0,1,1,1,0,1,0,0,1,0,0,0,1,0,0,1,0,1,1,0,0,0,0,0,0,0,0,0,0,0,0,1,0,0,0,0,0,0,0,0,0,0,0,0,1,0,1,0,0,1,0,0,0,0,0,0,1,0,0,0,0,0,0,0,0,0],"sum_hessian":[2.5E2,1.76E2,7.4E1,1.26E2,5E1,2.6E1,4.8E1,8.4E1,4.2E1,1E1,4E1,5E0,2.1E1,4E1,4.4E1,3.7E1,5E0,7E0,3E0,2.2E1,1.8E1,4E0,1.7E1,1.4E1,2.3E1,3E0,2E0,1E0,6E0,1.7E1,5E0,5E0,1.3E1,2E0,2E0,1.5E1,2E0,8E0,6E0,1E1,1.3E1,3E0,3E0,3E0,1.4E1,2E0,3E0,2E0,3E0,9E0,4E0,1E0,1E0,3E0,1.2E1,7E0,1E0,1E0,5E0,1E1,3E0,2E0,1E0,2E0,1E0,2E0,1E0,9E0,5E0,2E0,1E0,1E0,1E0,2E0,2E0,2E0,1E1,2E0,3E0,2E0,1E0,1E0,1E0,1E0,1E0,6E0,4E0,2E0,1E0,3E0,3E0,3E0,1E0,2E0,1E0],"tree_param":{"num_deleted":"0","num_feature":"5","num_nodes":"95","size_leaf_vector":"1"}},{"base_weights":[2.529901E-1,3.0599189E0,-5.865116E0,3.686658E0,3.0437434E-1,-2.5648985E0,-2.9031318E-1,1.5750536E-1,3.0343044E0,1.1314297E0,-4.5164225E-1,-5.6247582E0,-1.1047924E0,3.4361906E0,2.385759E0,1.11532174E-1,4.0717295E-1,-1.967446E0,3.9930147E-1,-2.316528E0,-2.679779E-1,2.4986303E0,-2.596507E0,2.9014366E0,1.2811132E-1,3.366224E0,-1.8251069E-1,1.205745E0,-1.6439497E-1,9.178316E-1,-2.0175274E-1,9.710883E-2,-1.0598537E0,4.9866676E-1,-2.0557381E-1,1.0447008E-1,8.68068E-1,1.086142E-1,-3.3900788E0,1.0273379E-1,-7.3534645E-2,4.1874595E0,6.870481E-1,-5.244634E0,9.9027656E-2,9.3206954E-1,7.4001335E-2,6.998442E-2,-5.9334725E-1,9.3059264E-2,-3.3966992E0,9.439959E-2,-1.4770424E-1,3.7941765E-2,3.1705547E-4,-4.706723E0,2.4710386E-1,-5.125607E-4,-3.1234152E-3,1.6066928E-1,6.6579334E-2,-1.6136229E-1,2.1838067E0,4.8914723E-2,-2.4056143E-1,1.3872571E-3,1.0091515E0,-2.3720436E-2,-5.6180637E-3,1.7461386E-2,-3.6685967E-1,-3.1231637E-3,-1.6482918E-1,-1.3576946E0,-7.0487823E0,2.1352684E0,-1.5153012E-1,8.031759E-2,1.1000494E-2,3.567388E-2,4.5908676E-3,-1.5575344E-3,-1.5085779E-2,1.3517423E-1,-4.361182E0,-9.828594E-3,-2.6274028E-1,8.111141E-2,1.3743775E-2,-2.0646445E-1,-1.0052738E0,1.00749135E-1,-1.5045565E-1],"categories":[7,9,11,23,24,25,28,42,46,47,72,77,83,94,110,116,123,135,136,146,149,150,151,152,155,157,158,182,192,193,196,197,201,204,206,209,213,1,2,3,4,5,6,7,8,9,10,11,12,13,14,15,16,17,18,19,20,21,22,23,24,25,26,27,28,30,32,33,34,35,36,38,40,41,42,43,44,45,46,47,48,49,50,51,53,54,56,57,58,59,60,61,62,63,66,67,68,69,70,71,72,73,74,75,76,77,78,79,81,82,83,86,87,90,91,92,93,94,95,96,97,98,100,101,102,103,104,105,107,108,109,110,111,115,116,117,118,119,121,122,123,124,126,127,128,130,133,134,135,136,138,139,140,141,142,143,145,146,147,148,149,150,151,152,153,154,155,156,157,158,160,161,162,163,164,165,166,167,168,169,171,172,173,174,175,176,177,178,180,182,184,186,187,188,190,192,193,194,195,196,197,198,199,200,201,202,204,205,206,208,209,210,212,213,215,216,7,9,11,46,47,83,94,110,135,146,149,151,152,155,157,158,182,193,196,197,204,206,209,213,1,2,3,4,5,6,7,8,9,10,11,12,13,14,15,16,17,18,19,20,21,22,23,24,25,26,27,28,29,30,31,32,33,34,35,36,38,39,40,41,42,43,44,45,46,47,48,49,50,51,53,54,55,56,57,58,59,60,61,62,63,64,66,67,68,69,70,71,72,73,74,75,76,77,78,79,80,81,82,83,84,85,86,87,89,90,91,92,93,94,95,96,97,98,100,101,102,103,104,105,106,107,108,109,110,111,112,114,115,116,117,118,119,120,121,122,123,124,125,126,127,128,129,130,131,132,133,134,135,136,138,139,140,141,142,143,144,145,146,147,148,149,150,151,152,153,154,155,156,157,158,159,160,161,162,163,164,165,166,167,168,169,170,171,172,173,174,175,176,177,178,180,181,182,183,184,185,186,187,188,190,191,192,193,194,195,196,197,198,199,200,201,202,203,204,205,206,207,208,209,210,211,212,213,214,215,216,217,0,1,2,3,4,5,6,7,8,9,10,11,12,13,14,15,16,17,18,19,20,21,23,24,25,26,27,28,29,31,32,33,34,35,36,37,38,39,40,41,42,43,44,45,46,47,48,49,50,51,52,53,54,55,56,57,59,60,61,62,63,64,65,67,68,69,70,71,72,73,74,75,76,77,78,79,80,81,83,84,85,86,87,88,89,90,91,92,93,94,96,98,99,100,101,102,103,104,105,106,107,108,109,110,111,112,113,114,115,116,117,118,119,120,121,122,123,124,125,126,127,128,129,130,131,132,133,134,135,136,137,138,139,140,141,142,143,144,145,146,147,148,149,150,151,152,153,154,155,156,157,158,159,160,161,162,163,164,165,166,167,168,169,170,171,172,173,174,175,176,177,178,179,181,182,183,184,185,186,187,188,189,190,191,192,193,194,195,196,197,198,199,200,201,202,203,204,205,206,207,208,209,210,211,212,213,214,215,216,217,218,0,1,2,3,4,5,6,7,8,9,10,11,12,13,14,15,16,17,18,19,20,21,22,23,24,25,26,27,28,30,32,33,34,35,36,37,38,39,40,41,42,43,44,45,46,47,48,49,50,51,52,53,54,55,56,57,58,59,60,61,62,63,64,65,66,67,68,69,70,71,72,73,74,75,76,77,78,79,81,82,83,85,86,87,88,90,91,92,93,94,95,96,97,98,99,100,101,102,103,104,105,107,108,109,110,111,113,115,116,117,118,119,121,122,123,124,125,126,127,128,130,132,133,134,135,136,137,138,139,140,141,142,143,145,146,147,148,149,150,151,152,153,154,155,156,157,158,159,160,161,162,163,164,165,166,167,168,169,170,171,172,173,174,175,176,177,178,179,180,182,183,184,186,187,188,189,190,191,192,193,194,195,196,197,198,199,200,201,202,204,205,206,208,209,210,211,212,213,215,216,217,218,28,72,116,123,136,150,24,25,42,77,192,201,180,4,60,32,118,145,148,210,89,112,118,89,0,1,2,3,4,5,6,7,8,9,10,11,12,13,14,15,16,17,18,19,20,21,22,23,24,25,26,27,28,29,30,31,32,33,34,35,36,37,38,40,41,42,43,44,45,46,47,48,49,50,51,52,53,54,55,56,57,58,59,60,61,62,63,64,65,66,67,68,69,70,71,72,73,74,75,76,77,78,79,80,81,82,83,84,85,86,87,88,89,90,91,92,93,94,95,96,97,98,99,100,101,102,103,104,105,106,107,108,109,110,111,112,113,114,115,116,117,118,119,120,121,122,123,124,125,126,127,128,129,130,131,132,133,134,135,136,137,138,139,140,141,142,143,144,145,146,147,148,149,150,151,152,153,154,155,156,157,158,160,161,162,163,164,165,166,167,168,169,170,171,172,173,174,175,176,177,178,179,180,181,182,183,184,185,186,187,188,189,190,191,192,193,194,195,196,197,198,199,200,201,202,203,204,205,206,207,208,209,210,211,212,213,214,215,216,217,218,39,32,118,145,148,0,1,2,3,4,5,6,7,8,9,10,11,12,13,14,15,16,17,18,19,20,21,22,23,24,25,26,27,28,29,30,31,32,33,34,35,36,37,38,40,41,42,43,44,45,46,47,48,49,50,51,52,53,54,56,57,58,59,60,61,62,63,64,65,66,67,68,69,70,71,72,73,74,75,76,77,78,79,80,81,82,83,84,85,86,87,88,89,90,91,92,93,94,95,96,97,98,99,100,101,102,103,104,105,106,107,108,109,110,111,112,113,114,115,116,117,118,119,120,121,122,123,124,125,126,127,128,129,130,131,132,133,134,135,136,137,138,139,140,141,142,143,144,145,146,147,148,149,150,151,152,153,154,155,156,157,158,159,160,161,162,163,164,165,166,167,168,169,171,172,173,174,175,176,177,178,179,180,181,182,183,184,185,186,187,188,189,190,192,193,194,195,196,197,198,199,200,201,202,203,204,205,206,207,208,209,210,211,212,213,214,215,216,217,218,118,145,77,192,201,24,25,42,192,0,1,2,3,4,5,6,7,8,9,10,11,12,13,14,15,16,17,18,19,20,21,22,23,24,26,27,28,29,30,31,32,33,34,35,36,37,38,39,40,41,43,44,45,46,47,48,49,50,51,52,53,54,55,56,57,58,59,60,61,62,63,64,65,66,67,68,69,70,71,72,73,74,75,76,78,79,80,81,82,83,84,85,86,87,88,89,90,91,92,93,94,95,96,97,98,99,100,101,102,103,104,105,106,107,108,109,110,111,112,113,114,115,116,117,118,119,120,121,122,123,124,125,126,127,128,129,130,131,132,133,134,135,136,137,138,139,140,141,142,143,144,145,146,147,148,149,150,151,152,153,154,155,156,157,158,159,160,161,162,163,164,165,166,167,168,169,170,171,172,173,174,175,176,177,178,179,180,181,182,183,184,185,186,187,188,189,190,191,192,193,194,195,196,197,198,199,200,201,202,203,204,205,206,207,208,209,210,211,212,213,214,215,216,217,218,201],"categories_nodes":[0,1,2,3,4,8,11,12,16,17,18,23,29,40,41,43,49,50,62,70,73,74,75,90],"categories_segments":[0,37,216,240,448,659,861,867,873,874,876,881,883,884,885,1102,1103,1106,1107,1322,1324,1327,1331,1547],"categories_sizes":[37,179,24,208,211,202,6,6,1,2,5,2,1,1,217,1,3,1,215,2,3,4,216,1],"default_left":[1,0,1,0,0,0,0,0,0,0,0,1,1,0,0,0,1,1,1,0,0,0,0,1,0,0,0,0,0,1,0,0,0,0,0,0,0,0,0,0,1,0,0,1,0,0,0,0,0,1,1,0,0,0,0,0,0,0,0,0,0,0,0,0,0,0,0,0,0,0,1,0,0,1,1,0,0,0,0,0,0,0,0,0,0,0,0,0,0,0,1,0,0],"id":3,"left_children":[1,3,5,7,9,11,-1,-1,13,15,17,19,21,23,25,-1,27,29,31,33,-1,35,37,39,-1,41,43,45,-1,47,-1,-1,49,51,-1,-1,53,-1,55,-1,57,59,61,63,-1,65,-1,-1,67,69,71,-1,-1,-1,-1,73,75,-1,-1,-1,-1,-1,77,-1,-1,-1,79,-1,-1,-1,81,-1,-1,83,85,87,-1,-1,-1,-1,-1,-1,-1,-1,89,-1,-1,-1,-1,-1,91,-1,-1],"loss_changes":[4.5859883E3,3.149203E2,7.929607E2,9.159314E1,2.2395365E1,1.7696234E2,0E0,0E0,1.682373E1,2.635029E1,2.529301E1,8.888724E1,1.6237079E2,2.4472046E0,1.0133827E2,0E0,6.632157E1,8.949504E1,5.14291E1,8.035516E1,0E0,7.0900345E0,1.0935132E2,1.9428833E1,0E0,6.092984E1,2.0932962E2,1.6047497E0,0E0,1.03663435E1,0E0,0E0,2.456371E1,7.171558E1,0E0,0E0,9.6050143E-1,0E0,9.215166E1,0E0,2.2177026E-3,2.2901123E1,7.753141E1,7.990085E1,0E0,7.807512E-1,0E0,0E0,3.752947E-2,1.600109E0,1.5411331E1,0E0,0E0,0E0,0E0,1.0024066E2,6.4692726E1,0E0,0E0,0E0,0E0,0E0,2.4599075E0,0E0,0E0,0E0,5.4838085E-1,0E0,0E0,0E0,9.444165E-2,0E0,0E0,1.3264297E2,4.7404144E1,1.7693787E0,0E0,0E0,0E0,0E0,0E0,0E0,0E0,0E0,2.562133E1,0E0,0E0,0E0,0E0,0E0,5.7315884E1,0E0,0E0],"parents":[2147483647,0,0,1,1,2,2,3,3,4,4,5,5,8,8,9,9,10,10,11,11,12,12,13,13,14,14,16,16,17,17,18,18,19,19,21,21,22,22,23,23,25,25,26,26,27,27,29,29,32,32,33,33,36,36,38,38,40,40,41,41,42,42,43,43,45,45,48,48,49,49,50,50,55,55,56,56,62,62,66,66,70,70,73,73,74,74,75,75,84,84,90,90],"right_children":[2,4,6,8,10,12,-1,-1,14,16,18,20,22,24,26,-1,28,30,32,34,-1,36,38,40,-1,42,44,46,-1,48,-1,-1,50,52,-1,-1,54,-1,56,-1,58,60,62,64,-1,66,-1,-1,68,70,72,-1,-1,-1,-1,74,76,-1,-1,-1,-1,-1,78,-1,-1,-1,80,-1,-1,-1,82,-1,-1,84,86,88,-1,-1,-1,-1,-1,-1,-1,-1,90,-1,-1,-1,-1,-1,92,-1,-1],"split_conditions":[1E-45,1E-45,1E-45,1E-45,1E-45,2.006E3,-2.9031318E-1,1.5750536E-1,1E-45,2E0,2E0,1E-45,1E-45,2.015E3,2.015E3,1.11532174E-1,1E-45,1E-45,1E-45,2.004E3,-2.679779E-1,2.015E3,2.009E3,1E-45,1.2811132E-1,9E0,6E0,2.018E3,-1.6439497E-1,1E-45,-2.0175274E-1,9.710883E-2,2.016E3,7E0,-2.0557381E-1,1.0447008E-1,2.016E3,1.086142E-1,2.023E3,1.0273379E-1,1E-45,1E-45,2.001E3,1E-45,9.9027656E-2,5E0,7.4001335E-2,6.998442E-2,2.023E3,1E-45,1E-45,9.439959E-2,-1.4770424E-1,3.7941765E-2,3.1705547E-4,2.015E3,2.025E3,-5.125607E-4,-3.1234152E-3,1.6066928E-1,6.6579334E-2,-1.6136229E-1,1E-45,4.8914723E-2,-2.4056143E-1,1.3872571E-3,1.2E1,-2.3720436E-2,-5.6180637E-3,1.7461386E-2,1E-45,-3.1231637E-3,-1.6482918E-1,1E-45,1E-45,1E-45,-1.5153012E-1,8.031759E-2,1.1000494E-2,3.567388E-2,4.5908676E-3,-1.5575344E-3,-1.5085779E-2,1.3517423E-1,4E0,-9.828594E-3,-2.6274028E-1,8.111141E-2,1.3743775E-2,-2.0646445E-1,1E-45,1.00749135E-1,-1.5045565E-1],"split_indices":[0,0,0,0,0,3,0,0,0,2,2,0,0,3,3,0,0,0,0,3,0,3,3,0,0,2,2,3,0,0,0,0,3,2,0,0,3,0,3,0,0,0,3,0,0,2,0,0,3,0,0,0,0,0,0,3,3,0,0,0,0,0,0,0,0,0,2,0,0,0,0,0,0,0,0,0,0,0,0,0,0,0,0,0,2,0,0,0,0,0,0,0,0],"split_type":[1,1,1,1,1,0,0,0,1,0,0,1,1,0,0,0,1,1,1,0,0,0,0,1,0,0,0,0,0,1,0,0,0,0,0,0,0,0,0,0,1,1,0,1,0,0,0,0,0,1,1,0,0,0,0,0,0,0,0,0,0,0,1,0,0,0,0,0,0,0,1,0,0,1,1,1,0,0,0,0,0,0,0,0,0,0,0,0,0,0,1,0,0],"sum_hessian":[2.65E2,1.82E2,8.3E1,1.48E2,3.4E1,4E1,4.3E1,5.3E1,9.5E1,1.6E1,1.8E1,1.2E1,2.8E1,5.6E1,3.9E1,3E0,1.3E1,6E0,1.2E1,6E0,6E0,8E0,2E1,2.9E1,2.7E1,2.8E1,1.1E1,1.2E1,1E0,4E0,2E0,4E0,8E0,4E0,2E0,5E0,3E0,2E0,1.8E1,2.7E1,2E0,2.1E1,7E0,4E0,7E0,1.1E1,1E0,2E0,2E0,6E0,2E0,3E0,1E0,2E0,1E0,1.3E1,5E0,1E0,1E0,1.5E1,6E0,1E0,6E0,1E0,3E0,1E0,1E1,1E0,1E0,3E0,3E0,1E0,1E0,6E0,7E0,4E0,1E0,5E0,1E0,9E0,1E0,1E0,2E0,2E0,4E0,1E0,6E0,3E0,1E0,2E0,2E0,1E0,1E0],"tree_param":{"num_deleted":"0","num_feature":"5","num_nodes":"93","size_leaf_vector":"1"}},{"base_weights":[-2.726752E-1,2.4822621E0,-6.173116E0,3.596833E0,2.9924917E-1,-3.2585442E0,-2.8364784E-1,3.9051597E0,2.5401812E0,-1.6786053E0,9.5266634E-1,-2.5283136E0,-4.749206E0,1.4467585E-1,1.13631055E-1,3.5140173E0,1.688924E0,6.4797145E-1,-4.377001E0,2.1247773E0,-1.5165426E0,-4.0466485E0,6.001724E-1,7.594031E-2,-5.528931E0,1.2303591E-1,1.1115049E-2,2.3277457E0,-1.6168544E-1,1.9104398E0,-3.285126E-2,-9.371745E-2,-1.9731903E-1,2.7013605E0,1.0669485E0,-3.078885E0,-1.15014456E-1,-2.5180418E0,-6.2158794E0,2.7174482E0,-3.7844224E0,-6.1186924E0,-5.670054E-2,8.582609E-2,2.3443572E-2,9.440511E-2,2.36593E-2,9.980316E-2,1.5696329E0,3.7181508E-2,4.5151995E-3,7.3122466E-1,-2.3311368E-1,8.5448074E-1,-8.774962E-2,-2.0161843E0,-1.4903261E-1,-2.4348192E-1,-3.1988401E0,1.3270944E-1,1.1271887E0,-2.0215908E-1,5.3740468E-2,-1.0521263E-1,-2.4848208E-1,-6.759971E-2,1.1299739E-1,1.0765519E-1,-7.1889806E-1,5.8505714E-2,2.5188494E-1,-5.165061E-1,-1.0640185E-1,-4.0132158E-2,-1.5069383E-1,4.721151E-2,-1.5318663E-3,-3.071686E-3,-2.9549059E-2,1.7029678E-2,-6.1000525E-3,-1.1922088E0,5.8308247E-2,-9.6666E-3,-4.3293085E-2],"categories":[7,9,23,24,25,27,32,46,47,48,49,72,77,83,86,94,95,103,110,116,123,135,146,149,150,151,152,155,156,158,167,182,192,193,196,197,201,204,206,209,1,2,3,4,5,6,7,9,10,11,12,13,14,15,16,17,18,19,20,21,22,23,24,25,26,27,29,30,32,33,34,35,36,38,39,40,41,43,44,45,46,47,48,49,50,51,53,54,56,57,58,59,60,61,63,66,67,68,69,70,71,72,73,74,75,76,77,78,79,81,82,83,85,86,87,89,90,92,93,94,95,96,97,98,100,101,102,103,104,105,107,108,109,110,111,115,116,117,118,119,121,122,123,124,126,127,128,130,131,133,134,135,136,138,139,140,141,142,143,145,146,147,148,149,150,151,152,153,154,155,156,157,158,159,160,161,162,163,164,165,166,167,168,169,171,172,173,174,175,176,177,178,182,184,186,187,188,190,192,193,194,195,196,197,198,199,200,201,202,204,205,206,208,209,210,212,213,215,216,7,9,27,46,47,49,72,77,83,86,94,103,110,135,146,151,152,155,156,158,167,196,197,204,206,209,1,2,3,4,5,6,7,8,9,10,11,12,13,14,15,16,17,18,19,20,21,22,23,24,25,26,27,29,30,32,33,34,35,36,38,39,40,41,42,43,44,45,46,47,48,49,50,51,53,54,55,56,57,58,59,60,61,62,63,64,66,67,68,69,70,71,72,73,74,75,76,77,78,79,81,82,83,84,85,86,87,89,90,92,93,94,95,96,97,98,100,101,102,103,104,105,107,108,109,110,111,112,114,115,116,117,118,119,121,122,123,124,125,126,127,128,130,131,132,133,134,135,136,138,139,140,141,142,143,145,146,147,148,149,150,151,152,153,154,155,156,157,158,159,160,161,162,163,164,165,166,167,168,169,170,171,172,173,174,175,176,177,178,180,182,184,186,187,188,190,192,193,194,195,196,197,198,199,200,201,202,204,205,206,208,209,210,211,212,213,215,216,1,2,3,4,5,6,7,8,9,10,11,12,13,14,15,16,17,18,19,20,21,22,23,24,25,26,27,28,29,30,31,32,33,34,35,36,38,39,40,41,42,43,44,45,46,47,48,49,50,51,53,54,55,56,57,58,59,60,61,62,63,64,66,67,68,69,70,71,72,73,74,75,76,77,78,79,80,81,82,83,84,85,86,87,88,89,90,91,92,93,94,95,96,97,98,100,101,102,103,104,105,106,107,108,109,110,111,112,114,115,116,117,118,119,120,121,122,123,124,125,126,127,128,129,130,131,132,133,134,135,136,138,139,140,141,142,143,144,145,146,147,148,149,150,151,152,153,154,155,156,157,158,159,160,161,162,163,164,165,166,167,168,169,170,171,172,173,174,175,176,177,178,180,181,182,183,184,185,186,187,188,190,191,192,193,194,195,196,197,198,199,200,201,202,203,204,205,206,207,208,209,210,211,212,213,214,215,216,4,39,60,29,58,89,118,136,145,148,210,23,24,25,48,150,192,201,0,1,2,3,4,5,6,7,8,9,10,11,12,13,14,15,16,17,18,19,20,21,22,23,24,25,26,27,28,29,30,31,32,33,34,35,36,37,38,39,40,41,43,44,45,46,47,48,49,50,51,52,53,54,55,56,57,58,59,60,61,62,63,65,66,67,68,69,70,71,72,73,74,75,76,77,78,79,80,81,82,83,85,86,87,88,89,90,91,92,93,94,95,96,97,98,99,100,101,102,103,104,105,106,107,108,109,110,111,113,115,116,117,118,119,120,121,122,123,124,126,127,128,129,130,131,132,133,134,135,136,137,138,139,140,141,142,143,144,145,146,147,148,149,150,151,152,153,154,155,156,157,158,159,160,161,162,163,164,165,166,167,168,169,170,171,172,173,174,175,176,177,178,179,181,182,183,184,185,186,187,188,189,190,191,192,193,194,195,196,197,198,199,200,201,202,203,204,205,206,207,208,209,210,211,212,213,214,215,216,217,218,180,118,131,4,60,0,1,2,3,5,6,7,8,9,10,11,12,13,14,15,16,17,18,19,20,21,22,23,24,25,26,27,28,29,30,31,32,33,34,35,36,37,38,40,41,42,43,44,45,46,47,48,49,50,51,52,53,54,55,56,57,58,59,61,62,63,64,65,66,67,68,69,70,71,72,73,74,75,76,77,78,79,80,81,82,83,84,85,86,87,88,89,90,91,92,93,94,95,96,97,98,99,100,101,102,103,104,105,106,107,108,109,110,111,112,113,114,115,116,117,118,119,120,121,122,123,124,125,126,127,128,129,130,132,133,134,135,136,137,138,139,140,141,142,143,144,145,146,147,148,149,150,151,152,153,154,155,156,157,158,159,160,161,162,163,164,165,166,167,168,169,170,171,172,173,174,175,176,177,178,179,180,181,182,183,184,185,186,187,188,189,190,191,192,193,194,195,196,197,198,199,200,201,202,203,204,205,206,207,208,209,210,211,212,213,214,215,216,217,218,32,150,192,193,116,123,0,1,2,3,4,5,6,7,8,9,10,11,12,13,14,15,16,17,18,19,20,21,22,23,24,25,26,27,28,30,31,32,33,34,35,36,37,38,39,40,41,42,43,44,45,46,47,48,49,50,51,52,53,54,55,56,57,58,59,60,61,62,63,64,65,66,67,68,69,70,71,72,73,74,75,76,77,78,79,80,81,82,83,84,85,86,87,88,89,90,91,92,93,94,95,96,97,98,99,100,101,102,103,104,105,106,107,108,109,110,111,112,113,114,115,116,117,118,119,120,121,122,123,124,125,126,127,128,129,130,131,132,133,134,135,136,137,138,139,140,141,142,143,144,145,146,147,149,150,151,152,153,154,155,156,157,158,159,160,161,162,163,164,165,166,167,168,169,170,171,172,173,174,175,176,177,178,179,180,181,182,183,184,185,186,187,188,189,190,191,192,193,194,195,196,197,198,199,200,201,202,203,204,205,206,207,208,209,210,211,212,213,214,215,216,217,218,29,0,1,2,3,4,5,6,7,8,9,10,11,12,13,14,15,16,17,18,19,20,21,22,23,24,26,27,28,29,30,31,32,33,34,35,36,37,38,39,40,41,42,43,44,45,46,47,48,49,50,51,52,53,54,55,56,57,58,59,60,61,62,63,64,65,66,67,68,69,70,71,72,73,74,75,76,77,78,79,80,81,82,83,84,85,86,87,88,89,90,91,92,93,94,95,96,97,98,99,100,101,102,103,104,105,106,107,108,109,110,111,112,113,114,115,116,117,118,119,120,121,122,123,124,125,126,127,128,129,130,131,132,133,134,135,136,137,138,139,140,141,142,143,144,145,146,147,148,149,150,151,152,153,154,155,156,157,158,159,160,161,162,163,164,165,166,167,168,169,170,171,172,173,174,175,176,177,178,179,180,181,182,183,184,185,186,187,188,189,190,191,193,194,195,196,197,198,199,200,201,202,203,204,205,206,207,208,209,210,211,212,213,214,215,216,217,218,23,25,48,192,201,58,118,210,0,1,2,3,4,5,6,7,8,9,10,11,12,13,14,15,16,17,18,19,20,21,22,23,24,25,26,27,28,29,30,31,32,33,34,35,36,37,38,39,40,41,42,43,44,45,46,47,48,49,50,51,52,53,54,55,56,57,58,59,60,61,62,63,64,65,66,67,68,69,70,71,72,73,74,75,76,77,78,79,80,81,82,83,84,85,86,87,88,89,90,91,92,93,94,95,96,97,98,99,100,101,102,103,104,105,106,107,108,109,110,111,112,113,114,115,116,117,118,119,120,121,122,123,124,125,126,127,128,129,130,131,132,133,134,135,137,138,139,140,141,142,143,144,145,146,147,148,149,150,151,152,153,154,155,156,157,158,159,160,161,162,163,164,165,166,167,168,169,170,171,172,173,174,175,176,177,178,179,180,181,182,183,184,185,186,187,188,189,190,191,192,193,194,195,196,197,198,199,200,201,202,203,204,205,206,207,208,209,210,211,212,213,214,215,216,217,218,95,149,182,150,32,58,118,89,145,25],"categories_nodes":[0,1,2,3,7,9,10,12,15,16,17,18,19,21,22,29,36,39,41,51,53,55,58,60,68,70,81],"categories_segments":[0,40,219,245,437,645,648,656,663,875,876,878,880,1095,1099,1101,1318,1319,1536,1541,1544,1762,1765,1766,1767,1769,1771],"categories_sizes":[40,179,26,192,208,3,8,7,212,1,2,2,215,4,2,217,1,217,5,3,218,3,1,1,2,2,1],"default_left":[1,0,1,0,0,0,0,0,0,1,1,0,1,0,0,0,1,1,1,0,0,1,1,0,0,0,0,0,0,0,0,0,0,0,0,0,1,0,0,0,0,1,0,0,0,0,0,0,0,0,0,1,0,0,0,1,0,0,1,0,1,0,0,0,0,0,0,0,1,0,1,0,0,0,0,0,0,0,0,0,0,1,0,0,0],"id":4,"left_children":[1,3,5,7,9,11,-1,13,15,17,19,21,23,-1,-1,25,27,29,31,33,35,37,39,-1,41,-1,-1,43,-1,45,-1,-1,-1,47,49,51,53,55,57,59,61,63,-1,-1,-1,-1,-1,-1,65,-1,-1,67,-1,69,-1,71,-1,-1,73,-1,75,-1,-1,-1,-1,-1,-1,-1,77,-1,79,81,-1,-1,-1,-1,-1,-1,-1,-1,-1,83,-1,-1,-1],"loss_changes":[4.6480967E3,4.7338245E2,6.1691187E2,3.2107666E1,8.8187546E1,3.4799164E1,0E0,6.584961E0,2.059262E1,1.0956258E2,1.5082587E2,1.4968147E2,8.422897E1,0E0,0E0,8.456421E0,9.1451126E1,2.266592E1,2.7260132E0,1.846521E1,3.687022E1,5.3982086E1,1.1240134E2,0E0,1.643106E1,0E0,0E0,6.176399E0,0E0,4.7676544E0,0E0,0E0,0E0,3.3717957E0,6.396961E-1,1.2687865E2,2.6967495E1,4.9580994E0,4.622772E0,1.2108402E1,6.0860256E1,1.7483276E1,0E0,0E0,0E0,0E0,0E0,0E0,5.4123352E1,0E0,0E0,2.0725464E1,0E0,3.9898062E0,0E0,2.1954945E1,0E0,0E0,5.3133545E0,0E0,1.8565798E0,0E0,0E0,0E0,0E0,0E0,0E0,0E0,3.6075282E-1,0E0,7.896303E-1,1.2918418E1,0E0,0E0,0E0,0E0,0E0,0E0,0E0,0E0,0E0,2.682743E-1,0E0,0E0,0E0],"parents":[2147483647,0,0,1,1,2,2,3,3,4,4,5,5,7,7,8,8,9,9,10,10,11,11,12,12,15,15,16,16,17,17,18,18,19,19,20,20,21,21,22,22,24,24,27,27,29,29,33,33,34,34,35,35,36,36,37,37,38,38,39,39,40,40,41,41,48,48,51,51,53,53,55,55,58,58,60,60,68,68,70,70,71,71,81,81],"right_children":[2,4,6,8,10,12,-1,14,16,18,20,22,24,-1,-1,26,28,30,32,34,36,38,40,-1,42,-1,-1,44,-1,46,-1,-1,-1,48,50,52,54,56,58,60,62,64,-1,-1,-1,-1,-1,-1,66,-1,-1,68,-1,70,-1,72,-1,-1,74,-1,76,-1,-1,-1,-1,-1,-1,-1,78,-1,80,82,-1,-1,-1,-1,-1,-1,-1,-1,-1,84,-1,-1,-1],"split_conditions":[1E-45,1E-45,1E-45,1E-45,2E0,7E0,-2.8364784E-1,1E-45,4E0,1E-45,1E-45,4E0,1E-45,1.4467585E-1,1.13631055E-1,1E-45,1E-45,1E-45,1E-45,1E-45,8E0,1E-45,1E-45,7.594031E-2,1E1,1.2303591E-1,1.1115049E-2,1.1E1,-1.6168544E-1,1E-45,-3.285126E-2,-9.371745E-2,-1.9731903E-1,9E0,1.2E1,7E0,1E-45,1.5E0,3E0,1E-45,5E0,1E-45,-5.670054E-2,8.582609E-2,2.3443572E-2,9.440511E-2,2.36593E-2,9.980316E-2,1E1,3.7181508E-2,4.5151995E-3,1E-45,-2.3311368E-1,1E-45,-8.774962E-2,1E-45,-1.4903261E-1,-2.4348192E-1,1E-45,1.3270944E-1,1E-45,-2.0215908E-1,5.3740468E-2,-1.0521263E-1,-2.4848208E-1,-6.759971E-2,1.1299739E-1,1.0765519E-1,1E-45,5.8505714E-2,1E-45,2E0,-1.0640185E-1,-4.0132158E-2,-1.5069383E-1,4.721151E-2,-1.5318663E-3,-3.071686E-3,-2.9549059E-2,1.7029678E-2,-6.1000525E-3,1E-45,5.8308247E-2,-9.6666E-3,-4.3293085E-2],"split_indices":[0,0,0,0,2,2,0,0,2,0,0,2,0,0,0,0,0,0,0,0,2,0,0,0,2,0,0,2,0,0,0,0,0,2,2,2,0,4,2,0,2,0,0,0,0,0,0,0,2,0,0,0,0,0,0,0,0,0,0,0,0,0,0,0,0,0,0,0,0,0,0,2,0,0,0,0,0,0,0,0,0,0,0,0,0],"split_type":[1,1,1,1,0,0,0,1,0,1,1,0,1,0,0,1,1,1,1,1,0,1,1,0,0,0,0,0,0,1,0,0,0,0,0,0,1,0,0,1,0,1,0,0,0,0,0,0,0,0,0,1,0,1,0,1,0,0,1,0,1,0,0,0,0,0,0,0,1,0,1,0,0,0,0,0,0,0,0,0,0,1,0,0,0],"sum_hessian":[2.84E2,1.94E2,9E1,1.28E2,6.6E1,4.2E1,4.8E1,9.7E1,3.1E1,1.6E1,5E1,3E1,1.2E1,4.3E1,5.4E1,1.3E1,1.8E1,9E0,7E0,3.4E1,1.6E1,2E1,1E1,1E0,1.1E1,1.2E1,1E0,1.7E1,1E0,5E0,4E0,5E0,2E0,2.1E1,1.3E1,7E0,9E0,1.3E1,7E0,7E0,3E0,9E0,2E0,1.4E1,3E0,2E0,3E0,1.5E1,6E0,1.2E1,1E0,4E0,3E0,7E0,2E0,1.2E1,1E0,4E0,3E0,3E0,4E0,2E0,1E0,4E0,5E0,2E0,4E0,1E0,3E0,2E0,5E0,6E0,6E0,2E0,1E0,3E0,1E0,1E0,2E0,3E0,2E0,5E0,1E0,1E0,4E0],"tree_param":{"num_deleted":"0","num_feature":"5","num_nodes":"85","size_leaf_vector":"1"}},{"base_weights":[-2.5843644E-1,2.4076943E0,-6.63363E0,3.4805577E0,-7.5506695E-2,-3.714626E0,-2.7508208E-1,3.760197E0,6.30085E-2,-2.9844146E0,1.418177E0,-6.25134E0,-9.45748E-1,3.7602997E-1,3.8831935E0,5.612593E-1,-4.936797E0,2.712595E0,2.946452E-1,8.932489E-2,-7.029401E0,2.0548477E0,-5.0972066E0,9.428852E-2,-1.5758856E-1,1.5428667E-1,3.3762736E0,-3.7613598E-1,9.3641376E-1,-2.4491984E-1,-3.0031762E0,1.0799146E-1,1.598758E0,-6.1967707E-1,2.3424325E0,-3.7844865E0,-2.727233E-1,8.496135E-2,6.266506E-1,-2.3753048E-1,1.16169296E-1,1.1360636E-1,5.898727E-2,3.00725E-2,-4.867083E-2,4.481901E-2,5.997181E-2,1.4455604E-2,-5.4201727E0,1.9186205E0,-1.0553039E-2,1.7997688E0,-3.2640939E0,1.1502827E-1,6.097274E-1,-1.889625E-1,-1.3774159E0,2.6067734E-2,4.002467E-2,1.5251357E-2,-9.507279E-3,5.936754E-3,-2.9714028E-3,-1.4689866E-1,7.404497E-2,2.755275E-4,-2.2347486E-1,7.0383824E-2,1.0206354E-2,1.1168293E-1,-1.4846039E-1,1.1620655E-1,-2.1998237E-1,4.8202977E-2,-5.336715E-3,3.3576347E-2,-1.4117435E-1,2.7955612E-3,-1.5066225E-3,6.292753E-1,-2.88997E-2,2.5561443E-2,-5.8176136E-1,2.5005775E-2,6.1092163E-3,-5.977606E-3,-2.2788022E-2],"categories":[7,9,11,14,15,23,24,27,32,46,47,48,77,83,86,88,94,95,103,110,116,123,135,146,149,150,151,152,155,158,164,167,192,193,197,201,204,206,209,213,1,2,3,4,5,6,7,9,10,11,12,13,14,15,16,17,18,19,20,21,23,24,25,26,27,28,29,30,32,33,34,35,36,38,40,41,43,44,45,46,47,48,49,50,51,53,54,56,57,58,59,61,63,66,67,68,69,70,71,72,73,74,75,76,77,78,79,81,82,83,85,86,87,88,89,90,92,93,94,95,96,97,98,100,101,102,103,104,105,107,108,109,110,111,115,116,117,118,119,121,122,123,124,126,127,128,130,131,133,134,135,136,138,139,140,141,142,143,145,146,149,150,151,152,153,154,155,156,157,158,160,161,162,163,164,165,166,167,168,169,171,172,173,174,175,176,177,178,182,184,186,187,188,190,192,193,194,195,196,197,198,199,200,201,202,204,205,206,208,209,210,212,213,215,216,7,9,11,14,15,27,46,47,83,86,94,103,110,116,135,146,151,152,155,158,164,167,197,204,206,209,213,1,2,3,4,5,6,7,8,9,10,11,12,13,14,15,16,17,18,19,20,21,22,23,24,25,26,27,28,29,30,32,33,34,35,36,38,40,41,43,44,45,46,47,48,49,50,51,53,54,55,56,57,58,59,61,63,66,67,68,69,70,71,72,73,74,75,76,77,78,79,81,82,83,85,86,87,88,89,90,92,93,94,95,96,97,98,100,101,102,103,104,105,107,108,109,110,111,115,116,117,118,119,121,122,123,124,125,126,127,128,130,131,133,134,135,136,138,139,140,141,142,143,145,146,148,149,150,151,152,153,154,155,156,157,158,160,161,162,163,164,165,166,167,168,169,171,172,173,174,175,176,177,178,182,184,186,187,188,190,191,192,193,194,195,196,197,198,199,200,201,202,204,205,206,208,209,210,211,212,213,215,216,4,25,28,29,72,131,136,0,1,2,3,5,6,7,8,9,10,11,12,13,14,15,16,17,18,19,20,21,22,23,24,25,26,27,30,31,32,33,34,35,36,37,38,39,40,41,42,43,44,45,46,47,48,49,50,51,52,53,54,55,56,57,58,59,60,61,62,63,64,65,66,67,68,69,70,71,73,74,75,76,77,78,79,80,81,82,83,84,86,87,88,89,90,91,92,93,94,95,96,97,98,99,100,101,102,103,104,105,106,107,108,109,110,111,112,113,114,115,116,117,118,119,120,121,122,123,124,125,126,127,128,129,130,132,133,134,135,137,138,139,140,141,142,143,144,145,146,147,148,149,150,151,152,153,154,155,156,157,158,159,160,161,162,163,164,165,166,167,168,169,170,171,172,173,174,175,176,177,178,179,180,181,182,183,184,185,186,187,188,189,190,191,192,193,194,195,196,197,198,199,200,201,202,203,204,205,206,207,208,209,210,211,212,213,214,215,216,217,218,23,32,48,77,88,95,123,149,150,193,24,192,201,0,1,2,3,4,5,6,7,8,9,10,11,12,13,14,15,16,17,18,19,20,21,22,23,24,25,26,27,28,29,30,31,32,33,34,35,36,37,38,40,41,42,43,44,45,46,47,48,49,50,51,53,54,55,56,57,58,59,60,61,62,63,64,66,67,68,69,70,71,72,73,74,75,76,77,78,79,80,81,82,83,84,85,86,87,88,89,90,91,92,93,94,95,96,97,98,100,101,102,103,104,105,106,107,108,109,110,111,112,114,115,116,117,118,119,120,121,122,123,124,125,126,127,128,129,130,131,132,133,134,135,136,137,138,139,140,141,142,143,144,145,146,147,148,149,150,151,152,153,154,155,156,157,158,159,160,161,162,163,164,165,166,167,168,169,170,171,172,173,174,175,176,177,178,179,181,182,183,184,185,186,187,188,189,190,191,192,193,194,195,196,197,198,199,200,201,202,203,204,205,206,207,208,209,210,211,212,213,214,215,216,217,0,1,2,3,5,6,7,8,9,10,11,12,13,14,15,16,17,18,19,20,21,22,23,24,25,26,27,30,31,32,33,34,35,36,37,38,39,40,41,42,43,44,45,46,47,48,49,50,51,52,53,54,55,56,57,58,59,60,61,62,63,64,65,66,67,68,69,70,71,72,73,74,75,76,77,78,79,80,81,82,83,84,85,86,87,88,89,90,91,92,93,94,95,96,97,98,99,100,101,102,103,104,105,106,107,108,109,110,111,112,113,114,115,116,117,118,119,120,121,122,123,124,125,126,127,128,129,130,132,133,134,135,137,138,139,140,141,142,143,144,145,146,147,148,149,150,151,152,153,154,155,156,157,158,159,160,161,162,163,164,165,166,167,168,169,170,171,172,173,174,175,176,177,178,179,180,181,182,183,184,185,186,187,188,189,190,191,192,193,194,195,196,197,198,199,200,201,202,203,204,205,206,207,208,209,210,211,212,213,214,215,216,217,218,32,48,77,88,95,123,150,193,0,1,2,3,4,5,6,7,8,9,10,11,12,13,14,15,16,17,18,19,20,21,22,23,24,25,26,27,28,29,30,31,32,33,34,35,36,37,38,39,40,41,42,43,44,45,46,47,49,50,51,52,53,54,55,56,57,58,59,60,61,62,63,64,65,66,67,68,69,70,71,72,73,74,75,76,78,79,80,81,82,83,84,85,86,87,89,90,91,92,93,94,96,97,98,99,100,101,102,103,104,105,106,107,108,109,110,111,112,113,114,115,116,117,118,119,120,121,122,124,125,126,127,128,129,130,131,132,133,134,135,136,137,138,139,140,141,142,143,144,145,146,147,148,149,150,151,152,153,154,155,156,157,158,159,160,161,162,163,164,165,166,167,168,169,170,171,172,173,174,175,176,177,178,179,180,181,182,183,184,185,186,187,188,189,190,191,192,194,195,196,197,198,199,200,201,202,203,204,205,206,207,208,209,210,211,212,213,214,215,216,217,218,85,0,1,2,3,4,5,6,7,8,9,10,11,12,13,14,15,16,17,18,19,20,21,22,23,24,25,26,27,28,29,30,31,32,33,34,35,36,37,38,39,40,41,42,43,44,45,46,47,48,49,50,51,52,53,54,55,56,57,58,59,60,61,62,63,64,65,66,67,68,69,70,71,72,73,74,75,76,77,78,79,80,81,83,84,86,87,88,89,90,91,92,93,94,95,96,97,98,99,100,101,102,103,104,105,106,107,108,109,110,111,112,113,114,115,116,117,118,119,120,121,122,123,124,125,126,127,128,129,130,131,132,133,134,135,136,137,138,139,140,141,142,143,144,145,146,147,148,149,150,151,152,153,154,155,156,157,158,159,160,161,162,163,164,165,166,167,168,169,170,171,172,173,174,175,176,177,178,179,180,181,182,183,184,185,186,187,188,189,190,191,192,193,194,195,196,197,198,199,200,201,202,203,204,205,206,207,208,209,210,211,212,213,214,215,216,217,218,0,1,2,3,4,5,6,7,8,9,10,11,12,13,14,15,16,17,18,19,20,21,22,23,24,26,27,28,29,30,31,32,33,34,35,36,37,38,39,40,41,42,43,44,45,46,47,48,49,50,51,52,53,54,55,56,57,58,59,60,61,62,63,64,65,66,67,68,69,70,71,72,73,74,75,76,77,78,79,80,81,82,83,84,85,86,87,88,90,91,92,93,94,95,96,97,98,99,100,101,102,103,104,105,106,107,108,109,110,111,112,113,114,115,116,117,118,119,120,121,122,123,124,125,126,127,128,129,130,131,132,133,134,135,136,137,138,139,140,141,142,143,144,145,146,147,148,149,150,151,152,153,154,155,156,157,158,159,160,161,162,163,164,165,166,167,168,169,170,171,172,173,174,175,176,177,178,179,180,181,182,183,184,185,186,187,188,189,190,191,192,193,194,195,196,197,198,199,200,201,202,203,204,205,206,207,208,209,210,211,212,213,214,215,216,217,218,201,89,25,29,0,1,2,3,4,5,6,7,8,9,10,11,12,13,14,15,16,17,18,19,20,21,22,23,24,26,27,28,29,30,31,32,33,34,35,36,37,38,39,40,41,42,43,44,45,46,47,48,49,50,51,52,53,54,55,56,57,58,59,60,61,62,63,64,65,66,67,68,69,70,71,72,73,74,75,76,77,78,79,80,81,82,83,84,85,86,87,88,89,90,91,92,93,94,95,96,97,98,99,100,101,102,103,104,105,106,107,108,109,110,111,112,113,114,115,116,117,118,119,120,121,122,123,124,125,126,127,128,129,130,131,132,133,134,135,136,137,138,139,140,141,142,143,144,145,146,147,148,149,150,151,152,153,154,155,156,157,158,159,160,161,162,163,164,165,166,167,168,169,170,171,172,173,174,175,176,177,178,179,180,181,182,183,184,185,186,187,188,189,190,191,192,193,194,195,196,197,198,199,200,201,202,203,204,205,206,207,208,209,210,211,212,213,214,215,216,217,218,25,89,32,118,145,0,1,2,3,4,5,6,7,8,9,10,11,12,13,14,15,16,17,18,19,20,21,22,23,24,25,26,27,28,29,30,31,32,33,34,35,36,37,38,39,40,41,42,43,44,45,46,47,48,49,50,51,52,53,54,55,56,57,59,60,61,62,63,64,65,66,67,68,69,70,71,72,73,74,75,76,77,78,79,80,81,82,83,84,85,86,87,88,89,90,91,92,93,94,95,96,97,98,99,100,101,102,103,104,105,106,107,108,109,110,111,112,113,114,115,116,117,118,119,120,121,122,123,124,125,126,127,128,129,130,131,132,133,134,135,136,137,138,139,140,141,142,143,144,145,146,147,148,149,150,151,152,153,154,155,156,157,158,159,160,161,162,163,164,165,166,167,168,169,170,171,172,173,174,175,176,177,178,179,180,181,182,183,184,185,186,187,188,189,190,191,192,193,194,195,196,197,198,199,200,201,202,203,204,205,206,207,208,209,210,211,212,213,214,215,216,217,218,118],"categories_nodes":[0,1,2,3,9,10,11,12,14,17,20,21,27,28,34,40,46,48,51,52,57,71,79,82],"categories_segments":[0,40,215,242,424,431,643,653,656,868,1082,1090,1303,1304,1521,1738,1739,1740,1742,1960,1962,1963,1965,2183],"categories_sizes":[40,175,27,182,7,212,10,3,212,214,8,213,1,217,217,1,1,2,218,2,1,2,218,1],"default_left":[1,0,1,0,0,0,0,0,0,1,0,1,1,0,0,0,0,0,0,0,1,0,0,0,0,0,0,1,0,0,0,0,0,0,0,0,0,0,0,0,1,0,0,0,0,0,1,0,1,0,0,0,1,0,0,0,0,1,0,0,0,0,0,0,0,0,0,0,0,0,0,1,0,0,0,0,0,0,0,0,0,0,1,0,0,0,0],"id":5,"left_children":[1,3,5,7,9,11,-1,13,-1,15,17,19,21,23,25,27,29,31,33,-1,35,37,39,-1,-1,-1,41,43,45,-1,47,-1,49,51,53,55,-1,-1,57,-1,59,-1,-1,-1,-1,-1,61,63,65,67,-1,69,71,-1,73,-1,75,77,-1,-1,-1,-1,-1,-1,-1,-1,-1,-1,-1,-1,79,81,-1,-1,-1,-1,-1,-1,-1,83,-1,-1,85,-1,-1,-1,-1],"loss_changes":[4.554197E3,5.037843E2,3.6363794E2,5.07323E1,2.5624176E2,2.1182724E2,0E0,4.4742676E1,0E0,1.412211E2,5.5919212E1,1.3060492E2,2.0978357E2,7.7728935E1,2.7442749E1,3.1655626E0,4.035724E1,6.0592957E0,4.2642975E1,0E0,2.923993E1,5.848091E0,7.778699E1,0E0,0E0,0E0,1.510315E0,5.6001587E0,2.1440687E0,0E0,6.5720795E1,0E0,5.524494E0,1.0824299E2,1.17854E1,2.0236938E1,0E0,0E0,1.3798357E0,0E0,5.540069E-1,0E0,0E0,0E0,0E0,0E0,7.0332356E-2,5.989975E1,3.694957E1,1.7780399E0,0E0,2.8351908E1,9.297259E1,0E0,2.868197E0,0E0,3.2206535E1,1.65238E-2,0E0,0E0,0E0,0E0,0E0,0E0,0E0,0E0,0E0,0E0,0E0,0E0,3.3836174E0,2.7517354E0,0E0,0E0,0E0,0E0,0E0,0E0,0E0,3.1626463E-2,0E0,0E0,6.2299967E-3,0E0,0E0,0E0,0E0],"parents":[2147483647,0,0,1,1,2,2,3,3,4,4,5,5,7,7,9,9,10,10,11,11,12,12,13,13,14,14,15,15,16,16,17,17,18,18,20,20,21,21,22,22,26,26,27,27,28,28,30,30,32,32,33,33,34,34,35,35,38,38,40,40,46,46,47,47,48,48,49,49,51,51,52,52,54,54,56,56,57,57,70,70,71,71,79,79,82,82],"right_children":[2,4,6,8,10,12,-1,14,-1,16,18,20,22,24,26,28,30,32,34,-1,36,38,40,-1,-1,-1,42,44,46,-1,48,-1,50,52,54,56,-1,-1,58,-1,60,-1,-1,-1,-1,-1,62,64,66,68,-1,70,72,-1,74,-1,76,78,-1,-1,-1,-1,-1,-1,-1,-1,-1,-1,-1,-1,80,82,-1,-1,-1,-1,-1,-1,-1,84,-1,-1,86,-1,-1,-1,-1],"split_conditions":[1E-45,1E-45,1E-45,1E-45,2.005E3,2.011E3,-2.7508208E-1,2.001E3,6.30085E-2,1E-45,1E-45,1E-45,1E-45,9E0,1E-45,2.001E3,6E0,1E-45,2.023E3,8.932489E-2,1E-45,1E-45,2.02E3,9.428852E-2,-1.5758856E-1,1.5428667E-1,1.1E1,1E-45,1E-45,-2.4491984E-1,9E0,1.0799146E-1,2.019E3,2.015E3,1E-45,2E0,-2.727233E-1,8.496135E-2,7E0,-2.3753048E-1,1E-45,1.1360636E-1,5.898727E-2,3.00725E-2,-4.867083E-2,4.481901E-2,1E-45,2.001E3,1E-45,1E1,-1.0553039E-2,1E-45,1E-45,1.1502827E-1,2.024E3,-1.889625E-1,6E0,1E-45,4.002467E-2,1.5251357E-2,-9.507279E-3,5.936754E-3,-2.9714028E-3,-1.4689866E-1,7.404497E-2,2.755275E-4,-2.2347486E-1,7.0383824E-2,1.0206354E-2,1.1168293E-1,2.01E3,1E-45,-2.1998237E-1,4.8202977E-2,-5.336715E-3,3.3576347E-2,-1.4117435E-1,2.7955612E-3,-1.5066225E-3,1E-45,-2.88997E-2,2.5561443E-2,1E-45,2.5005775E-2,6.1092163E-3,-5.977606E-3,-2.2788022E-2],"split_indices":[0,0,0,0,3,3,0,3,0,0,0,0,0,2,0,3,2,0,3,0,0,0,3,0,0,0,2,0,0,0,2,0,3,3,0,2,0,0,2,0,0,0,0,0,0,0,0,3,0,2,0,0,0,0,3,0,2,0,0,0,0,0,0,0,0,0,0,0,0,0,3,0,0,0,0,0,0,0,0,0,0,0,0,0,0,0,0],"split_type":[1,1,1,1,0,0,0,0,0,1,1,1,1,0,1,0,0,1,0,0,1,1,0,0,0,0,0,1,1,0,0,0,0,0,1,0,0,0,0,0,1,0,0,0,0,0,1,0,1,0,0,1,1,0,0,0,0,1,0,0,0,0,0,0,0,0,0,0,0,0,0,1,0,0,0,0,0,0,0,1,0,0,1,0,0,0,0],"sum_hessian":[2.66E2,1.88E2,7.8E1,1.31E2,5.7E1,3E1,4.8E1,1.1E2,2.1E1,1.9E1,3.8E1,1.5E1,1.5E1,4E0,1.06E2,7E0,1.2E1,1.7E1,2.1E1,1E0,1.4E1,9E0,6E0,3E0,1E0,3.8E1,6.8E1,2E0,5E0,4E0,8E0,1E1,7E0,1.5E1,6E0,5E0,9E0,6E0,3E0,4E0,2E0,6.4E1,4E0,1E0,1E0,3E0,2E0,4E0,4E0,6E0,1E0,8E0,7E0,3E0,3E0,2E0,3E0,2E0,1E0,1E0,1E0,1E0,1E0,1E0,3E0,1E0,3E0,5E0,1E0,4E0,4E0,4E0,3E0,1E0,2E0,2E0,1E0,1E0,1E0,2E0,2E0,2E0,2E0,1E0,1E0,1E0,1E0],"tree_param":{"num_deleted":"0","num_feature":"5","num_nodes":"87","size_leaf_vector":"1"}},{"base_weights":[-1.0073311E-1,-7.2471493E-1,2.9104846E0,-5.0568957E0,-4.0103304E-1,-1.7459507E0,3.1676664E0,7.417068E-2,-2.0945632E-1,-7.7597374E-1,1.2474194E0,5.4784406E-2,-1.4111425E-1,1.7309465E0,3.3989468E0,-4.6536493E-1,-2.3577983E0,-2.0125864E0,2.4835854E0,9.267206E-2,-1.7227974E-3,6.3357405E-2,1.2368953E-1,-1.2994792E0,1.23116955E-1,2.1391695E0,-3.7445114E0,5.5982996E-2,-3.6164641E0,9.9316694E-2,1.5267593E0,-2.5558279E0,-5.709845E-1,-7.1492547E-1,4.7613293E-1,3.6431886E-2,1.0381572E-1,-1.6706463E0,-5.16069E0,-1.7861347E-1,3.9326854E-2,2.416578E0,-2.0230274E-1,1.6774058E-1,-5.568527E0,1.0087737E0,-2.3823144E0,4.736805E-1,-1.4131213E0,1.0533563E0,-6.1852634E-1,-4.19967E0,1.0458786E-1,-5.712579E0,1.49999885E-2,3.0345058E-2,9.104038E-2,-1.5966734E-1,2.168978E0,1.1123813E0,-4.5398872E-2,-1.08783774E-1,-2.365795E-1,-6.875018E-1,2.1055202E0,-1.0125098E-1,-1.6644582E0,9.3654275E-2,-4.7332013E-1,-1.0911158E-1,5.6033134E-2,-1.0239092E-1,1.5110568E0,1.1001905E0,-1.0876474E0,-2.0749912E0,-2.0902072E-1,-2.397117E-1,-2.386929E0,8.341239E-2,1.7877081E-2,-3.8560756E-2,8.951797E-2,8.377239E-2,-1.9730777E0,1.3685593E-1,-2.4144758E-1,4.802728E-2,-2.519994E0,1.4533862E-1,-1.1283135E0,6.473263E-2,-1.0420939E0,-1.432099E-1,6.7820174E-1,2.4230084E0,-1.1859668E-1,-2.933097E-3,4.679967E-2,-3.8333812E0,5.2069224E-2,7.848272E-2,-1.9248216E-1,-1.12867124E-1,2.9028423E-2,-9.6581966E-2,-1.7238395E-2,-1.22738376E-1,1.0881006E-1,-3.954313E-2,-1.0998047E-1,8.785264E-2,-3.7937675E-2,-8.839493E-2,5.820532E-2,-5.916839E-3,-7.0291884E-2,9.2641555E-2,-1.55810965E-2,6.005541E-2,9.713502E-2,-2.2596719E-2,9.1481894E-2,-2.5691621E-2,-1.8491328E-1,-5.0555475E-2,4.070576E-2],"categories":[],"categories_nodes":[],"categories_segments":[],"categories_sizes":[],"default_left":[0,0,0,0,0,0,0,0,0,0,0,0,0,0,0,0,0,0,0,0,0,0,0,0,0,0,0,0,0,0,0,0,0,0,0,0,0,0,0,0,0,0,0,0,0,0,0,0,0,0,0,0,0,0,0,0,0,0,0,0,0,0,0,0,0,0,0,0,0,0,0,0,0,0,0,0,0,0,0,0,0,0,0,0,0,0,0,0,0,0,0,0,0,0,0,0,0,0,0,0,0,0,0,0,0,0,0,0,0,0,0,0,0,0,0,0,0,0,0,0,0,0,0,0,0,0,0],"id":6,"left_children":[1,3,5,7,9,11,13,-1,-1,15,17,-1,-1,19,21,23,25,27,29,-1,-1,-1,-1,31,33,35,37,-1,39,-1,41,43,45,47,49,-1,-1,51,53,-1,-1,55,57,59,61,63,65,67,69,71,73,75,-1,77,-1,-1,-1,-1,79,81,-1,-1,-1,83,85,-1,87,-1,89,-1,91,93,95,97,99,101,-1,-1,103,-1,-1,-1,-1,-1,105,-1,107,-1,109,111,113,-1,115,-1,117,119,121,-1,-1,123,125,-1,-1,-1,-1,-1,-1,-1,-1,-1,-1,-1,-1,-1,-1,-1,-1,-1,-1,-1,-1,-1,-1,-1,-1,-1,-1],"loss_changes":[4.9251395E2,3.0225995E2,5.942038E1,1.5647916E2,1.2643657E2,3.303104E1,8.404846E0,0E0,0E0,8.046333E1,1.5813493E2,0E0,0E0,1.5559259E1,1.1574371E1,6.8880554E1,1.7638223E2,7.161206E1,9.580917E0,0E0,0E0,0E0,0E0,5.162478E1,2.4895315E1,3.830925E0,5.3054535E1,0E0,7.5798195E1,0E0,1.8951504E1,1.7324522E2,1.11138824E2,2.141636E1,3.7931442E1,0E0,0E0,1.358168E2,3.979062E1,0E0,0E0,1.5895729E0,6.553633E1,1.9045345E1,1.28012085E1,4.0515625E1,3.7937317E0,2.3764444E1,4.4775314E1,2.0785175E1,1.8128632E1,1.8688805E1,0E0,3.9687866E1,0E0,0E0,0E0,0E0,9.794636E-1,3.244805E1,0E0,0E0,0E0,4.237258E1,6.3432537E1,0E0,3.3046974E1,0E0,3.405727E0,0E0,2.299553E1,4.2682304E1,4.1899986E1,2.026247E0,5.3398697E1,9.776622E1,0E0,0E0,1.9958054E1,0E0,0E0,0E0,0E0,0E0,8.180782E0,0E0,9.863106E1,0E0,5.699524E0,1.9398304E1,2.2715763E1,0E0,6.20069E0,0E0,2.8321207E1,2.9838562E-1,1.9948082E1,0E0,0E0,2.2750458E1,2.6276579E1,0E0,0E0,0E0,0E0,0E0,0E0,0E0,0E0,0E0,0E0,0E0,0E0,0E0,0E0,0E0,0E0,0E0,0E0,0E0,0E0,0E0,0E0,0E0,0E0,0E0,0E0],"parents":[2147483647,0,0,1,1,2,2,3,3,4,4,5,5,6,6,9,9,10,10,13,13,14,14,15,15,16,16,17,17,18,18,23,23,24,24,25,25,26,26,28,28,30,30,31,31,32,32,33,33,34,34,37,37,38,38,41,41,42,42,43,43,44,44,45,45,46,46,47,47,48,48,49,49,50,50,51,51,53,53,58,58,59,59,63,63,64,64,66,66,68,68,70,70,71,71,72,72,73,73,74,74,75,75,78,78,84,84,86,86,88,88,89,89,90,90,92,92,94,94,95,95,96,96,99,99,100,100],"right_children":[2,4,6,8,10,12,14,-1,-1,16,18,-1,-1,20,22,24,26,28,30,-1,-1,-1,-1,32,34,36,38,-1,40,-1,42,44,46,48,50,-1,-1,52,54,-1,-1,56,58,60,62,64,66,68,70,72,74,76,-1,78,-1,-1,-1,-1,80,82,-1,-1,-1,84,86,-1,88,-1,90,-1,92,94,96,98,100,102,-1,-1,104,-1,-1,-1,-1,-1,106,-1,108,-1,110,112,114,-1,116,-1,118,120,122,-1,-1,124,126,-1,-1,-1,-1,-1,-1,-1,-1,-1,-1,-1,-1,-1,-1,-1,-1,-1,-1,-1,-1,-1,-1,-1,-1,-1,-1],"split_conditions":[1.5E0,2.001E3,2.002E3,3E0,9E0,2.001E3,2E0,7.417068E-2,-2.0945632E-1,7E0,2.007E3,5.4784406E-2,-1.4111425E-1,2.02E3,5E0,2E0,2.006E3,2.002E3,2.012E3,9.267206E-2,-1.7227974E-3,6.3357405E-2,1.2368953E-1,2.011E3,2.004E3,2.003E3,2.015E3,5.5982996E-2,1.1E1,9.9316694E-2,1E1,2.006E3,2.02E3,4E0,2.018E3,3.6431886E-2,1.0381572E-1,2.01E3,2.023E3,-1.7861347E-1,3.9326854E-2,2.014E3,2.016E3,2.004E3,2.01E3,2.015E3,2.022E3,2.002E3,5E0,4E0,4E0,2.009E3,1.0458786E-1,8E0,1.49999885E-2,3.0345058E-2,9.104038E-2,-1.5966734E-1,1.1E1,2.002E3,-4.5398872E-2,-1.08783774E-1,-2.365795E-1,2.013E3,2.018E3,-1.0125098E-1,2.023E3,9.3654275E-2,2.003E3,-1.0911158E-1,2.002E3,2.008E3,6E0,3E0,6E0,8E0,-2.0902072E-1,-2.397117E-1,2.016E3,8.341239E-2,1.7877081E-2,-3.8560756E-2,8.951797E-2,8.377239E-2,2.014E3,1.3685593E-1,2.019E3,4.802728E-2,2.024E3,3E0,3E0,6.473263E-2,2.003E3,-1.432099E-1,2.012E3,2.014E3,2.016E3,-2.933097E-3,4.679967E-2,2.019E3,2.019E3,7.848272E-2,-1.9248216E-1,-1.12867124E-1,2.9028423E-2,-9.6581966E-2,-1.7238395E-2,-1.22738376E-1,1.0881006E-1,-3.954313E-2,-1.0998047E-1,8.785264E-2,-3.7937675E-2,-8.839493E-2,5.820532E-2,-5.916839E-3,-7.0291884E-2,9.2641555E-2,-1.55810965E-2,6.005541E-2,9.713502E-2,-2.2596719E-2,9.1481894E-2,-2.5691621E-2,-1.8491328E-1,-5.0555475E-2,4.070576E-2],"split_indices":[4,3,3,2,2,3,2,0,0,2,3,0,0,3,4,2,3,3,3,0,0,0,0,3,3,3,3,0,2,0,2,3,3,2,3,0,0,3,3,0,0,3,3,3,3,3,3,3,2,2,2,3,0,2,0,0,0,0,2,3,0,0,0,3,3,0,3,0,3,0,3,3,2,2,2,2,0,0,3,0,0,0,0,0,3,0,3,0,3,2,2,0,3,0,3,3,3,0,0,3,3,0,0,0,0,0,0,0,0,0,0,0,0,0,0,0,0,0,0,0,0,0,0,0,0,0,0],"split_type":[0,0,0,0,0,0,0,0,0,0,0,0,0,0,0,0,0,0,0,0,0,0,0,0,0,0,0,0,0,0,0,0,0,0,0,0,0,0,0,0,0,0,0,0,0,0,0,0,0,0,0,0,0,0,0,0,0,0,0,0,0,0,0,0,0,0,0,0,0,0,0,0,0,0,0,0,0,0,0,0,0,0,0,0,0,0,0,0,0,0,0,0,0,0,0,0,0,0,0,0,0,0,0,0,0,0,0,0,0,0,0,0,0,0,0,0,0,0,0,0,0,0,0,0,0,0,0],"sum_hessian":[2.6E2,2.16E2,4.4E1,1.4E1,2.02E2,2E0,4.2E1,2E0,1.2E1,1.65E2,3.7E1,1E0,1E0,7E0,3.5E1,1.39E2,2.6E1,1E1,2.7E1,4E0,3E0,8E0,2.7E1,5.7E1,8.2E1,6E0,2E1,3E0,7E0,1.6E1,1.1E1,2E1,3.7E1,2.4E1,5.8E1,4E0,2E0,9E0,1.1E1,5E0,2E0,7E0,4E0,1.1E1,9E0,2E1,1.7E1,9E0,1.5E1,3.8E1,2E1,6E0,3E0,1E1,1E0,2E0,5E0,1E0,3E0,7E0,4E0,5E0,4E0,8E0,1.2E1,7E0,1E1,2E0,7E0,6E0,9E0,1.1E1,2.7E1,4E0,1.6E1,4E0,2E0,6E0,4E0,2E0,1E0,3E0,4E0,2E0,6E0,6E0,6E0,2E0,8E0,4E0,3E0,3E0,6E0,1E0,1E1,1.7E1,1E1,1E0,3E0,4E0,1.2E1,2E0,2E0,3E0,1E0,3E0,3E0,3E0,3E0,4E0,4E0,1E0,3E0,2E0,1E0,4E0,2E0,3E0,7E0,1E1,7E0,9E0,1E0,2E0,2E0,5E0,7E0],"tree_param":{"num_deleted":"0","num_feature":"5","num_nodes":"127","size_leaf_vector":"1"}},{"base_weights":[-4.3196194E-2,2.618744E0,-5.552291E0,3.4437757E0,1.1314768E0,-3.1611354E0,-2.594231E-1,1.2937579E-1,2.9116893E0,2.072282E0,-5.6207746E-1,-6.612164E0,-1.6603695E0,2.3108242E0,1.0867731E-1,3.1962512E0,6.761035E-1,1.3312318E0,-3.3458335E0,-1.8159511E0,-2.594067E-1,2.134679E0,-2.618253E0,2.7126026E0,5.194623E-1,4.648493E-1,3.7468174E0,-2.0557892E0,1.4875635E0,1.4403936E0,-3.2474648E-3,-1.8862857E0,-2.0182712E-1,3.6682066E-1,-1.3785915E-1,8.246486E-2,-1.1093562E-3,1.2168711E0,-3.589324E0,1.0165767E-1,6.1802633E-2,3.824235E-2,-9.0904474E-2,5.7109438E-2,-3.1570747E-2,1.4128481E-1,1.8641263E0,6.4392185E-1,-1.3417062E-1,6.071888E-2,3.3943978E-1,1.5646565E0,-2.8847475E-3,-3.227523E0,1.424951E0,2.2771236E-2,-4.6335114E-3,1.04475096E-1,-1.4084953E-1,-5.5440664E0,-8.847005E-1,3.9716107E-3,-2.0152855E-1,9.559668E-3,2.1209497E0,3.3029098E-2,-1.1898972E-3,5.339618E-1,-7.2297635E-3,6.277192E-2,8.5106736E-1,-1.6559842E-1,-1.8635718E0,9.366178E-2,-2.3204008E-2,-7.16263E-1,-2.593738E-1,1.08213484E-1,-2.3369236E0,-1.7676577E-3,-8.197073E-3,7.7826984E-2,1.9132618E-2,6.104501E-1,5.0186906E-3,3.7556276E-2,-9.727351E-3,5.4113388E-2,-1.5714374E-1,1.227026E0,-1.399219E-1,-1.3841323E0,-1.4844376E-1,2.4247741E-2,5.936424E-3,1.05950326E-1,-1.5535791E-1,7.1963444E-2,-2.7050203E-2,-3.0349233E0,-1.16831206E-1,-7.6817772E-3,-1.4238228E-1,8.095019E-2,-8.736886E-2],"categories":[7,9,11,14,15,25,27,28,32,42,47,48,49,58,68,89,94,95,103,110,123,136,146,149,150,152,157,158,166,167,180,182,192,193,196,197,201,204,206,209,1,2,3,5,6,7,8,9,10,11,12,13,14,15,16,17,18,19,20,21,22,23,24,25,26,27,28,30,32,33,34,35,36,38,39,40,41,42,43,44,45,46,47,48,49,50,51,53,54,55,56,57,58,59,61,63,64,66,67,68,69,70,71,72,74,75,76,77,78,79,81,82,83,85,86,87,89,90,92,93,94,95,96,97,98,100,101,102,103,104,105,107,108,109,110,111,114,115,116,117,118,119,121,122,123,124,125,126,127,128,130,131,133,134,135,136,138,139,140,141,142,143,144,145,146,147,148,149,150,151,152,153,154,155,156,157,158,160,161,162,163,164,165,166,167,168,169,171,172,173,174,175,176,177,178,180,181,182,184,186,187,188,190,192,193,194,195,196,197,198,199,200,201,202,204,205,206,208,209,210,212,213,215,216,7,9,11,14,15,27,47,49,68,94,103,110,146,150,152,157,158,166,167,196,197,204,206,209,1,2,3,4,5,6,7,8,9,10,11,12,13,14,15,16,17,18,19,20,21,22,23,24,25,26,27,28,29,30,31,32,33,34,35,36,38,39,40,41,42,43,44,45,46,47,48,49,50,51,53,54,55,56,57,58,59,60,61,62,63,64,66,67,68,69,70,71,72,73,74,75,76,77,78,79,80,81,82,83,84,85,86,87,89,90,92,93,94,95,96,97,98,100,101,102,103,104,105,106,107,108,109,110,111,112,114,115,116,117,118,119,121,122,123,124,125,126,127,128,129,130,131,132,133,134,135,136,138,139,140,141,142,143,144,145,146,147,148,149,150,151,152,153,154,155,156,157,158,159,160,161,162,163,164,165,166,167,168,169,170,171,172,173,174,175,176,177,178,180,181,182,183,184,185,186,187,188,189,190,191,192,193,194,195,196,197,198,199,200,201,202,203,204,205,206,208,209,210,211,212,213,214,215,216,0,1,2,3,4,5,6,7,9,10,11,12,13,14,15,16,17,18,19,20,21,22,23,24,25,26,27,28,29,30,31,32,33,34,35,36,37,38,40,41,42,43,44,45,46,47,48,49,50,51,52,53,54,55,56,57,58,59,60,61,62,63,64,65,66,67,68,69,70,71,72,73,74,75,76,77,78,79,80,81,82,83,84,85,86,87,88,89,90,91,92,93,94,95,96,97,98,99,100,101,102,103,104,105,106,107,108,109,110,111,112,113,114,115,117,118,119,120,121,122,123,124,126,127,128,129,130,131,132,133,134,135,136,137,138,139,140,141,142,143,144,145,146,147,149,150,151,152,153,154,155,156,157,158,159,160,161,162,163,164,165,166,167,168,169,170,171,172,173,174,175,176,177,178,179,180,181,182,183,184,185,186,187,188,189,190,191,192,193,194,195,196,197,198,199,200,201,202,203,204,205,206,207,208,209,210,211,212,213,214,215,216,217,218,39,118,148,25,28,32,48,95,123,136,192,25,42,58,89,180,182,192,193,201,0,1,2,3,4,5,6,7,8,9,10,11,12,13,14,15,16,17,18,19,20,21,22,23,24,25,26,27,28,30,32,33,34,35,36,37,38,39,40,41,42,43,44,45,46,47,48,49,50,51,52,53,54,55,56,57,58,59,60,61,63,64,65,66,67,68,69,70,71,72,74,75,76,77,78,79,80,81,82,83,84,85,86,87,88,89,90,91,92,93,94,95,96,97,98,99,100,101,102,103,104,105,107,108,109,110,111,112,113,114,115,116,117,118,119,120,121,122,123,124,125,126,127,128,130,131,132,133,134,135,136,137,138,139,140,141,142,143,144,145,146,147,148,149,150,151,152,153,154,155,156,157,158,160,161,162,163,164,165,166,167,168,169,171,172,173,174,175,176,177,178,179,180,181,182,183,184,186,187,188,189,190,192,193,194,195,196,197,198,199,200,201,202,204,205,206,207,208,209,210,212,213,215,216,217,218,145,32,0,1,2,3,4,5,6,7,8,9,10,11,12,13,14,15,16,17,18,19,20,21,22,23,24,25,26,27,28,30,31,32,33,34,35,36,37,38,39,40,41,42,43,44,45,46,47,48,49,50,51,52,53,54,55,56,57,58,59,60,61,63,64,65,66,67,68,69,70,71,72,74,75,76,77,78,79,80,81,82,83,84,85,86,87,88,89,90,91,92,93,94,95,96,97,98,99,100,101,102,103,104,105,106,107,108,109,110,111,112,113,114,115,116,117,118,119,120,121,122,123,124,125,126,127,128,129,130,131,132,133,134,135,136,137,138,139,140,141,142,143,144,145,146,147,148,149,150,151,152,153,154,155,156,157,158,160,161,162,163,164,165,166,167,168,169,170,171,172,173,174,175,176,177,178,179,180,181,182,183,184,186,187,188,189,190,192,193,194,195,196,197,198,199,200,201,202,204,205,206,207,208,209,210,212,213,215,216,217,218,39,0,1,2,3,4,5,6,7,8,9,10,11,12,13,14,15,16,17,18,19,20,21,22,23,24,25,26,27,28,29,30,31,32,33,34,35,36,37,38,40,41,42,43,44,45,46,47,48,49,50,51,52,53,54,55,56,57,58,59,60,61,62,63,64,65,66,67,68,69,70,71,72,73,74,75,76,77,78,79,80,81,82,83,84,85,86,87,88,89,90,91,92,93,94,95,96,97,98,99,100,101,102,103,104,105,106,107,108,109,110,111,112,113,114,115,116,117,118,119,120,121,122,123,124,125,126,127,128,129,130,131,132,133,134,135,136,137,138,139,140,141,142,143,144,145,146,147,148,149,150,151,152,153,154,155,156,157,158,159,160,161,162,163,164,165,166,167,168,169,170,171,172,173,174,175,176,177,178,179,180,181,182,183,184,185,186,187,188,189,190,191,192,193,194,195,196,197,198,199,200,201,202,203,204,205,206,207,208,209,210,211,212,213,214,215,216,217,218,85,131,0,1,2,3,4,5,6,7,8,9,10,11,12,13,14,15,16,17,18,19,20,21,22,24,25,26,27,28,29,30,31,32,33,34,35,36,37,38,39,40,41,42,43,44,45,46,47,48,49,50,51,52,53,54,56,57,58,59,60,61,62,63,64,65,66,67,68,69,70,71,72,73,74,75,76,77,78,79,80,81,82,83,84,86,87,88,89,90,91,92,93,94,95,96,97,98,99,100,101,102,103,104,105,106,107,108,109,110,111,112,113,114,115,116,117,118,119,120,121,122,123,124,125,126,127,128,129,130,132,133,134,135,136,137,138,139,140,141,142,143,144,145,146,147,148,149,150,151,152,153,154,155,156,157,158,159,160,161,162,163,164,165,166,167,168,169,170,171,172,173,174,175,176,177,178,179,180,181,182,183,184,185,186,187,188,189,190,191,192,193,194,195,196,197,198,199,200,201,202,203,204,205,206,207,208,209,210,211,212,213,214,215,216,217,218,89,193,4,112,22,156,0,1,2,3,4,5,6,7,8,9,10,11,12,13,14,15,16,17,18,19,20,21,22,23,24,25,26,27,28,29,30,31,32,33,34,35,36,37,38,39,40,41,42,43,44,45,46,47,48,49,50,51,52,53,54,56,57,58,59,60,61,62,63,64,65,66,67,68,69,70,71,72,73,74,75,76,78,79,80,81,82,83,84,85,86,87,88,89,90,91,92,93,94,95,96,97,98,99,100,101,102,103,104,105,106,107,108,109,110,111,112,113,114,115,116,117,118,119,120,121,122,123,124,125,126,127,128,129,130,132,133,134,135,136,137,138,139,140,141,142,143,144,145,146,147,148,149,150,151,152,153,154,155,156,157,158,159,160,161,162,163,164,165,166,167,168,169,170,171,172,173,174,175,176,177,178,179,180,181,182,183,184,185,186,187,188,189,190,191,192,193,194,195,196,197,198,199,200,201,202,203,204,205,206,207,208,209,211,212,213,214,215,216,217,218,118,42,89,180,192,201,25,182,201,112,0,1,2,3,4,5,6,7,8,9,10,11,12,13,14,15,16,17,18,19,20,21,22,23,24,25,26,27,28,29,30,31,32,33,34,35,36,37,38,39,40,41,42,43,44,45,46,47,48,49,50,51,52,53,54,55,56,57,58,59,60,61,62,63,64,65,66,67,68,69,70,71,72,73,74,75,76,77,78,79,80,81,83,84,85,86,87,88,89,90,91,92,93,94,95,96,97,98,99,100,101,102,103,104,105,106,107,108,109,110,111,112,113,114,115,116,117,118,119,120,121,122,123,124,125,126,127,128,129,130,131,132,133,134,135,136,137,138,139,140,141,142,143,144,145,146,147,148,149,150,151,152,153,154,155,156,157,158,159,160,161,162,163,164,165,166,167,168,169,170,171,172,173,174,175,176,177,178,179,180,