{"learner":{"attributes":{"scikit_learn":"{\"_estimator_type\": \"regressor\"}"},"feature_names":["Country","Disaster Type","Start Month","Start Year","Severity"],"feature_types":["c","c","float","int","float"],"gradient_booster":{"model":{"cats":{"enc":[{"offsets":[0,11,18,25,39,45,53,72,81,88,97,104,114,128,135,145,153,160,167,173,178,185,191,223,245,253,259,281,289,301,308,318,326,334,340,354,368,392,396,401,406,452,494,502,509,514,526,536,543,547,553,560,573,610,642,649,657,665,683,690,695,706,723,730,737,745,753,757,764,770,783,799,804,810,817,824,829,835,842,852,856,865,871,884,890,895,903,910,917,922,931,957,961,968,974,979,986,991,997,1007,1012,1020,1026,1036,1068,1074,1081,1088,1095,1100,1113,1122,1132,1142,1148,1156,1164,1168,1173,1189,1199,1209,1218,1225,1231,1263,1271,1281,1291,1298,1308,1315,1322,1327,1355,1368,1379,1388,1393,1400,1404,1419,1443,1449,1453,1461,1466,1472,1488,1496,1500,1511,1517,1525,1536,1541,1558,1577,1584,1602,1608,1615,1631,1643,1664,1675,1701,1733,1738,1759,1771,1778,1784,1801,1811,1823,1848,1856,1864,1879,1886,1898,1909,1914,1923,1941,1946,1954,1960,1971,1991,2017,2027,2035,2046,2050,2057,2062,2081,2088,2100,2124,2130,2137,2143,2150,2170,2222,2249,2277,2301,2308,2318,2325,2359,2367,2392,2397,2403,2411],"values":[65,102,103,104,97,110,105,115,116,97,110,65,108,98,97,110,105,97,65,108,103,101,114,105,97,65,109,101,114,105,99,97,110,32,83,97,109,111,97,65,110,103,111,108,97,65,110,103,117,105,108,108,97,65,110,116,105,103,117,97,32,97,110,100,32,66,97,114,98,117,100,97,65,114,103,101,110,116,105,110,97,65,114,109,101,110,105,97,65,117,115,116,114,97,108,105,97,65,117,115,116,114,105,97,65,122,101,114,98,97,105,106,97,110,65,122,111,114,101,115,32,73,115,108,97,110,100,115,66,97,104,97,109,97,115,66,97,110,103,108,97,100,101,115,104,66,97,114,98,97,100,111,115,66,101,108,97,114,117,115,66,101,108,103,105,117,109,66,101,108,105,122,101,66,101,110,105,110,66,101,114,109,117,100,97,66,104,117,116,97,110,66,111,108,105,118,105,97,32,40,80,108,117,114,105,110,97,116,105,111,110,97,108,32,83,116,97,116,101,32,111,102,41,66,111,115,110,105,97,32,97,110,100,32,72,101,114,122,101,103,111,118,105,110,97,66,111,116,115,119,97,110,97,66,114,97,122,105,108,66,114,105,116,105,115,104,32,86,105,114,103,105,110,32,73,115,108,97,110,100,115,66,117,108,103,97,114,105,97,66,117,114,107,105,110,97,32,70,97,115,111,66,117,114,117,110,100,105,67,97,98,111,32,86,101,114,100,101,67,97,109,98,111,100,105,97,67,97,109,101,114,111,111,110,67,97,110,97,100,97,67,97,110,97,114,121,32,73,115,108,97,110,100,115,67,97,121,109,97,110,32,73,115,108,97,110,100,115,67,101,110,116,114,97,108,32,65,102,114,105,99,97,110,32,82,101,112,117,98,108,105,99,67,104,97,100,67,104,105,108,101,67,104,105,110,97,67,104,105,110,97,44,32,72,111,110,103,32,75,111,110,103,32,83,112,101,99,105,97,108,32,65,100,109,105,110,105,115,116,114,97,116,105,118,101,32,82,101,103,105,111,110,67,104,105,110,97,44,32,77,97,99,97,111,32,83,112,101,99,105,97,108,32,65,100,109,105,110,105,115,116,114,97,116,105,118,101,32,82,101,103,105,111,110,67,111,108,111,109,98,105,97,67,111,109,111,114,111,115,67,111,110,103,111,67,111,111,107,32,73,115,108,97,110,100,115,67,111,115,116,97,32,82,105,99,97,67,114,111,97,116,105,97,67,117,98,97,67,121,112,114,117,115,67,122,101,99,104,105,97,67,-61,-76,116,101,32,100,-30,-128,-103,73,118,111,105,114,101,68,101,109,111,99,114,97,116,105,99,32,80,101,111,112,108,101,39,115,32,82,101,112,117,98,108,105,99,32,111,102,32,75,111,114,101,97,68,101,109,111,99,114,97,116,105,99,32,82,101,112,117,98,108,105,99,32,111,102,32,116,104,101,32,67,111,110,103,111,68,101,110,109,97,114,107,68,106,105,98,111,117,116,105,68,111,109,105,110,105,99,97,68,111,109,105,110,105,99,97,110,32,82,101,112,117,98,108,105,99,69,99,117,97,100,111,114,69,103,121,112,116,69,108,32,83,97,108,118,97,100,111,114,69,113,117,97,116,111,114,105,97,108,32,71,117,105,110,101,97,69,114,105,116,114,101,97,69,115,116,111,110,105,97,69,115,119,97,116,105,110,105,69,116,104,105,111,112,105,97,70,105,106,105,70,105,110,108,97,110,100,70,114,97,110,99,101,70,114,101,110,99,104,32,71,117,105,97,110,97,70,114,101,110,99,104,32,80,111,108,121,110,101,115,105,97,71,97,98,111,110,71,97,109,98,105,97,71,101,111,114,103,105,97,71,101,114,109,97,110,121,71,104,97,110,97,71,114,101,101,99,101,71,114,101,110,97,100,97,71,117,97,100,101,108,111,117,112,101,71,117,97,109,71,117,97,116,101,109,97,108,97,71,117,105,110,101,97,71,117,105,110,101,97,45,66,105,115,115,97,117,71,117,121,97,110,97,72,97,105,116,105,72,111,110,100,117,114,97,115,72,117,110,103,97,114,121,73,99,101,108,97,110,100,73,110,100,105,97,73,110,100,111,110,101,115,105,97,73,114,97,110,32,40,73,115,108,97,109,105,99,32,82,101,112,117,98,108,105,99,32,111,102,41,73,114,97,113,73,114,101,108,97,110,100,73,115,114,97,101,108,73,116,97,108,121,74,97,109,97,105,99,97,74,97,112,97,110,74,111,114,100,97,110,75,97,122,97,107,104,115,116,97,110,75,101,110,121,97,75,105,114,105,98,97,116,105,75,117,119,97,105,116,75,121,114,103,121,122,115,116,97,110,76,97,111,32,80,101,111,112,108,101,39,115,32,68,101,109,111,99,114,97,116,105,99,32,82,101,112,117,98,108,105,99,76,97,116,118,105,97,76,101,98,97,110,111,110,76,101,115,111,116,104,111,76,105,98,101,114,105,97,76,105,98,121,97,76,105,101,99,104,116,101,110,115,116,101,105,110,76,105,116,104,117,97,110,105,97,76,117,120,101,109,98,111,117,114,103,77,97,100,97,103,97,115,99,97,114,77,97,108,97,119,105,77,97,108,97,121,115,105,97,77,97,108,100,105,118,101,115,77,97,108,105,77,97,108,116,97,77,97,114,115,104,97,108,108,32,73,115,108,97,110,100,115,77,97,114,116,105,110,105,113,117,101,77,97,117,114,105,116,97,110,105,97,77,97,117,114,105,116,105,117,115,77,97,121,111,116,116,101,77,101,120,105,99,111,77,105,99,114,111,110,101,115,105,97,32,40,70,101,100,101,114,97,116,101,100,32,83,116,97,116,101,115,32,111,102,41,77,111,110,103,111,108,105,97,77,111,110,116,101,110,101,103,114,111,77,111,110,116,115,101,114,114,97,116,77,111,114,111,99,99,111,77,111,122,97,109,98,105,113,117,101,77,121,97,110,109,97,114,78,97,109,105,98,105,97,78,101,112,97,108,78,101,116,104,101,114,108,97,110,100,115,32,40,75,105,110,103,100,111,109,32,111,102,32,116,104,101,41,78,101,119,32,67,97,108,101,100,111,110,105,97,78,101,119,32,90,101,97,108,97,110,100,78,105,99,97,114,97,103,117,97,78,105,103,101,114,78,105,103,101,114,105,97,78,105,117,101,78,111,114,116,104,32,77,97,99,101,100,111,110,105,97,78,111,114,116,104,101,114,110,32,77,97,114,105,97,110,97,32,73,115,108,97,110,100,115,78,111,114,119,97,121,79,109,97,110,80,97,107,105,115,116,97,110,80,97,108,97,117,80,97,110,97,109,97,80,97,112,117,97,32,78,101,119,32,71,117,105,110,101,97,80,97,114,97,103,117,97,121,80,101,114,117,80,104,105,108,105,112,112,105,110,101,115,80,111,108,97,110,100,80,111,114,116,117,103,97,108,80,117,101,114,116,111,32,82,105,99,111,81,97,116,97,114,82,101,112,117,98,108,105,99,32,111,102,32,75,111,114,101,97,82,101,112,117,98,108,105,99,32,111,102,32,77,111,108,100,111,118,97,82,111,109,97,110,105,97,82,117,115,115,105,97,110,32,70,101,100,101,114,97,116,105,111,110,82,119,97,110,100,97,82,-61,-87,117,110,105,111,110,83,97,105,110,116,32,66,97,114,116,104,-61,-87,108,101,109,121,83,97,105,110,116,32,72,101,108,101,110,97,83,97,105,110,116,32,75,105,116,116,115,32,97,110,100,32,78,101,118,105,115,83,97,105,110,116,32,76,117,99,105,97,83,97,105,110,116,32,77,97,114,116,105,110,32,40,70,114,101,110,99,104,32,80,97,114,116,41,83,97,105,110,116,32,86,105,110,99,101,110,116,32,97,110,100,32,116,104,101,32,71,114,101,110,97,100,105,110,101,115,83,97,109,111,97,83,97,111,32,84,111,109,101,32,97,110,100,32,80,114,105,110,99,105,112,101,83,97,117,100,105,32,65,114,97,98,105,97,83,101,110,101,103,97,108,83,101,114,98,105,97,83,101,114,98,105,97,32,77,111,110,116,101,110,101,103,114,111,83,101,121,99,104,101,108,108,101,115,83,105,101,114,114,97,32,76,101,111,110,101,83,105,110,116,32,77,97,97,114,116,101,110,32,40,68,117,116,99,104,32,112,97,114,116,41,83,108,111,118,97,107,105,97,83,108,111,118,101,110,105,97,83,111,108,111,109,111,110,32,73,115,108,97,110,100,115,83,111,109,97,108,105,97,83,111,117,116,104,32,65,102,114,105,99,97,83,111,117,116,104,32,83,117,100,97,110,83,112,97,105,110,83,114,105,32,76,97,110,107,97,83,116,97,116,101,32,111,102,32,80,97,108,101,115,116,105,110,101,83,117,100,97,110,83,117,114,105,110,97,109,101,83,119,101,100,101,110,83,119,105,116,122,101,114,108,97,110,100,83,121,114,105,97,110,32,65,114,97,98,32,82,101,112,117,98,108,105,99,84,97,105,119,97,110,32,40,80,114,111,118,105,110,99,101,32,111,102,32,67,104,105,110,97,41,84,97,106,105,107,105,115,116,97,110,84,104,97,105,108,97,110,100,84,105,109,111,114,45,76,101,115,116,101,84,111,103,111,84,111,107,101,108,97,117,84,111,110,103,97,84,114,105,110,105,100,97,100,32,97,110,100,32,84,111,98,97,103,111,84,117,110,105,115,105,97,84,117,114,107,109,101,110,105,115,116,97,110,84,117,114,107,115,32,97,110,100,32,67,97,105,99,111,115,32,73,115,108,97,110,100,115,84,117,118,97,108,117,84,-61,-68,114,107,105,121,101,85,103,97,110,100,97,85,107,114,97,105,110,101,85,110,105,116,101,100,32,65,114,97,98,32,69,109,105,114,97,116,101,115,85,110,105,116,101,100,32,75,105,110,103,100,111,109,32,111,102,32,71,114,101,97,116,32,66,114,105,116,97,105,110,32,97,110,100,32,78,111,114,116,104,101,114,110,32,73,114,101,108,97,110,100,85,110,105,116,101,100,32,82,101,112,117,98,108,105,99,32,111,102,32,84,97,110,122,97,110,105,97,85,110,105,116,101,100,32,83,116,97,116,101,115,32,86,105,114,103,105,110,32,73,115,108,97,110,100,115,85,110,105,116,101,100,32,83,116,97,116,101,115,32,111,102,32,65,109,101,114,105,99,97,85,114,117,103,117,97,121,85,122,98,101,107,105,115,116,97,110,86,97,110,117,97,116,117,86,101,110,101,122,117,101,108,97,32,40,66,111,108,105,118,97,114,105,97,110,32,82,101,112,117,98,108,105,99,32,111,102,41,86,105,101,116,32,78,97,109,87,97,108,108,105,115,32,97,110,100,32,70,117,116,117,110,97,32,73,115,108,97,110,100,115,89,101,109,101,110,90,97,109,98,105,97,90,105]},{"offsets":[0,7,17,36,41,68,87,106,111,128,136],"values":[68,114,111,117,103,104,116,69,97,114,116,104,113,117,97,107,101,69,120,116,114,101,109,101,32,116,101,109,112,101,114,97,116,117,114,101,70,108,111,111,100,71,108,97,99,105,97,108,32,108,97,107,101,32,111,117,116,98,117,114,115,116,32,102,108,111,111,100,77,97,115,115,32,109,111,118,101,109,101,110,116,32,40,100,114,121,41,77,97,115,115,32,109,111,118,101,109,101,110,116,32,40,119,101,116,41,83,116,111,114,109,86,111,108,99,97,110,105,99,32,97,99,116,105,118,105,116,121,87,105,108,100,102,105,114,101]},{"offsets":[],"values":[]},{"offsets":[],"values":[]},{"offsets":[],"values":[]}],"feature_segments":[0,219,229,229,229,229],"sorted_idx":[162,203,0,1,2,3,4,5,6,7,8,9,10,11,12,13,14,15,16,17,18,19,20,21,22,23,24,25,26,27,28,29,51,30,31,32,33,34,35,36,37,38,39,40,41,42,43,44,45,46,47,48,49,50,184,175,194,165,164,166,168,183,182,186,197,204,218,78,94,102,81,117,95,147,70,76,84,68,88,93,136,152,213,75,55,87,101,114,73,132,72,109,113,129,98,89,167,59,61,195,77,110,163,174,172,150,215,181,153,138,74,127,137,134,191,214,57,96,124,154,67,193,187,65,159,206,52,192,200,85,140,122,196,212,205,179,201,146,126,58,104,118,180,144,131,210,69,169,160,119,142,62,82,148,171,173,151,54,64,111,121,135,141,158,161,199,106,100,208,198,91,125,157,133,97,176,66,120,130,170,92,86,128,53,63,156,207,108,139,189,211,217,83,71,90,115,216,209,185,99,103,145,155,107,123,80,149,190,79,112,56,202,177,178,116,105,143,188,60,0,1,2,3,4,5,6,7,8,9]},"gbtree_model_param":{"num_parallel_tree":"1","num_trees":"104"},"iteration_indptr":[0,1,2,3,4,5,6,7,8,9,10,11,12,13,14,15,16,17,18,19,20,21,22,23,24,25,26,27,28,29,30,31,32,33,34,35,36,37,38,39,40,41,42,43,44,45,46,47,48,49,50,51,52,53,54,55,56,57,58,59,60,61,62,63,64,65,66,67,68,69,70,71,72,73,74,75,76,77,78,79,80,81,82,83,84,85,86,87,88,89,90,91,92,93,94,95,96,97,98,99,100,101,102,103,104],"tree_info":[0,0,0,0,0,0,0,0,0,0,0,0,0,0,0,0,0,0,0,0,0,0,0,0,0,0,0,0,0,0,0,0,0,0,0,0,0,0,0,0,0,0,0,0,0,0,0,0,0,0,0,0,0,0,0,0,0,0,0,0,0,0,0,0,0,0,0,0,0,0,0,0,0,0,0,0,0,0,0,0,0,0,0,0,0,0,0,0,0,0,0,0,0,0,0,0,0,0,0,0,0,0,0,0],"trees":[{"base_weights":[8.470432E-2,2.2343123E0,-8.8988316E-1,5.6599606E-2,1.9880188E0,-3.947689E-1,-3.3783994E0,2.1678126E0,1.0525769E0,1.848756E-1,-7.1673805E-1,-2.70527E0,-9.724086E-2,2.6197634E0,1.5307099E0,9.0599716E-2,1.5635955E0,-1.0715691E0,5.437782E-1,-8.278083E-1,-9.912708E-2,-3.0489686E0,-2.2091231E0,2.7143424E0,1.3866472E-1,8.758965E-1,2.731E0,1.2937567E-2,-9.4008815E-1,1.726386E0,6.425281E-3,1.7045212E-1,-2.0395646E-2,7.41705E-1,-9.839042E-1,-2.5184286E-1,-9.7358316E-1,4.110681E-2,-3.5127634E-1,-1.732258E-2,-4.922627E-2,-1.47499E-1,-2.7153103E0,2.3477125E0,4.773184E-2,2.035966E-2,-1.7359786E-2,-5.485927E-1,1.068779E0,2.9740374E0,-3.089958E-3,-1.3656299E-1,-2.4162754E-2,1.2240158E0,3.316535E-2,4.3362308E-1,-6.3620675E-3,6.420733E-1,2.81404E-2,-2.8861588E-1,-1.6070385E0,3.4168456E-2,-6.781699E-1,-1.33937E0,-4.49048E-1,6.06981E-1,-9.028123E-1,1.002538E-2,-5.319301E-1,-1.2565381E-3,-4.1605286E-2,3.831882E-2,1.8882047E-2,4.199519E-3,-2.2123618E-2,2.3872968E-2,4.0010473E-1,5.2474033E-2,1.8849096E0,1.2654496E-2,-1.56089E-2,2.087644E-2,5.3233188E-3,9.689304E-3,-2.0259526E-3,1.105619E0,2.5986338E-1,-9.801106E-3,-2.0988584E-2,-7.0047993E-3,-2.6233844E-2,-1.5547715E0,-4.855747E-2,-4.8437896E-1,-1.8721594E0,3.6229432E-1,-1.711236E0,-3.13164E-2,4.1200947E-2,-1.0195106E0,5.2712304E-3,-2.1229014E-3,-8.813867E-3,1.0700674E-2,3.2214818E-3,4.7320323E-3,3.0138988E-2,1.1118735E-2,3.850931E-2,-1.8659417E-2,1.0768355E-2,1.6008758E-3,-3.0067365E-3,-5.916931E-3,-3.244248E-2,5.134514E-3,-1.3396916E-2,6.972782E-3,-1.7454678E-2,-2.8790876E-2,-5.489066E-3,8.047065E-3,-2.0031612E-2,-9.697597E-3,-3.6921293E-2,1.3190186E-2,-2.7584815E-2,-8.462302E-3,-1.9736925E-2],"categories":[0,2,3,4,5,6,7,8,9,10,11,12,13,14,15,16,17,18,19,20,21,22,23,24,25,26,27,28,29,30,31,32,33,34,35,36,37,40,41,42,43,44,45,48,49,50,51,52,53,54,55,56,57,59,60,61,62,63,64,65,66,67,68,69,70,71,72,74,75,76,77,78,79,80,81,82,83,85,86,87,89,90,91,92,93,94,95,96,97,98,99,100,101,102,103,104,105,106,107,108,109,110,111,112,114,115,116,117,118,119,120,121,122,124,125,126,127,129,130,131,133,134,135,136,137,138,139,140,141,142,143,144,145,146,147,148,149,151,152,153,154,155,156,157,158,159,160,161,162,163,164,165,166,167,168,169,170,171,172,173,174,175,176,177,178,180,181,184,185,186,187,188,190,191,192,193,194,195,196,197,198,199,200,201,202,203,204,205,206,207,208,209,210,211,213,0,1,2,3,4,5,6,7,8,9,10,11,12,13,14,15,16,17,18,19,20,21,22,23,24,25,26,27,28,29,30,31,32,33,34,35,36,37,39,40,41,42,43,44,45,46,47,48,49,50,51,52,53,54,55,56,57,58,59,60,61,62,63,64,65,66,67,68,69,70,71,72,73,74,75,76,77,78,79,80,81,82,83,85,86,87,89,90,91,92,93,94,95,96,97,98,99,100,101,102,103,104,105,106,107,108,109,110,111,112,113,114,115,116,117,118,119,120,121,122,123,124,125,126,127,129,130,131,132,133,134,135,136,137,138,139,140,141,142,143,144,145,146,147,148,149,150,151,152,153,154,155,156,157,158,159,160,161,162,163,164,165,166,167,168,169,170,171,172,173,174,175,176,177,178,179,180,181,182,184,185,186,187,188,189,190,191,192,193,194,195,196,197,198,199,200,201,202,203,204,205,206,207,208,209,210,211,212,213,14,15,25,29,56,74,87,94,99,102,103,114,153,164,180,190,192,199,209,211,213,0,2,3,4,5,6,7,8,9,10,11,12,13,14,15,16,17,18,19,20,21,22,23,24,25,26,27,28,29,30,31,32,33,34,35,36,37,38,40,41,42,43,44,45,48,49,50,51,52,53,54,55,56,57,58,59,60,61,62,63,64,65,66,67,68,69,70,71,72,73,74,75,76,77,78,79,80,81,82,83,84,85,86,87,88,89,90,91,92,93,94,95,96,97,98,99,100,101,102,103,104,105,106,107,108,109,110,111,112,113,114,115,116,117,118,119,120,121,122,123,124,125,126,127,128,129,130,131,133,134,135,136,137,138,139,140,141,142,143,144,145,146,147,148,149,151,152,153,154,155,156,157,158,159,160,161,162,163,164,165,166,167,168,169,170,171,172,173,174,175,176,177,178,180,181,182,183,184,185,186,187,188,190,191,192,193,194,195,196,197,198,199,200,201,202,203,204,205,206,207,208,209,210,211,212,213,0,2,3,7,21,23,53,57,60,76,80,85,86,90,98,135,144,147,149,159,178,191,202,15,99,103,114,164,199,0,1,2,3,4,5,6,7,8,9,10,11,12,13,14,15,16,17,18,19,20,21,22,23,24,25,26,27,28,29,30,31,32,33,34,35,36,37,38,40,41,42,43,44,45,47,48,49,50,51,52,53,54,55,56,57,58,59,60,61,62,63,64,65,66,67,68,69,70,71,72,73,74,75,76,77,78,79,80,81,82,83,84,85,86,87,88,89,90,91,92,93,94,95,96,97,98,99,100,101,102,103,104,105,106,107,108,109,110,111,112,113,114,115,116,117,118,119,120,121,122,123,124,125,126,127,128,129,130,131,133,134,135,136,137,138,139,140,141,142,143,144,145,146,147,148,149,150,151,152,153,154,155,156,157,158,159,160,161,162,163,164,165,166,167,168,169,170,171,172,173,174,175,176,177,178,180,181,182,183,184,185,186,187,188,189,190,191,192,193,194,195,196,197,198,199,200,201,202,203,204,205,206,207,208,209,210,211,212,213,123,212,42,89,96,207,80,149,191,202,25,29,56,74,87,94,102,180,190,192,211,0,57,76,90,147,159,191,202,180,190,209,14,94,153,190,209,213,150,0,2,3,4,5,6,7,8,9,10,11,12,13,14,15,16,17,18,19,20,21,22,23,24,25,26,27,28,29,30,31,32,33,34,35,36,37,38,39,40,41,42,43,44,45,46,48,49,50,51,52,53,54,55,56,57,58,59,60,61,62,63,64,65,66,67,68,69,70,71,72,73,74,75,76,77,78,79,80,81,82,83,84,85,86,87,88,89,90,91,92,93,94,95,96,97,98,99,100,101,102,103,104,105,106,107,108,109,110,111,112,113,114,115,116,117,118,119,120,121,122,123,124,125,126,127,128,129,130,131,133,134,135,136,137,138,139,140,141,142,143,144,145,146,147,148,149,151,152,153,154,155,156,157,158,159,160,161,162,163,164,165,166,167,168,169,170,171,172,173,174,175,176,177,178,179,180,181,182,183,184,185,186,187,188,189,190,191,192,193,194,195,196,197,198,199,200,201,202,203,204,205,206,207,208,209,210,211,212,213,0,1,2,3,4,5,6,7,8,9,10,11,12,13,14,15,16,17,18,19,20,21,22,23,24,25,26,27,28,29,30,31,32,33,34,35,36,37,38,39,40,41,42,43,44,45,46,47,48,49,50,51,52,53,54,55,56,57,58,59,60,61,62,63,64,65,66,67,68,69,70,71,72,73,74,75,76,77,78,79,80,81,82,83,84,85,86,87,88,89,90,91,92,93,94,95,96,97,98,99,100,101,102,103,104,105,106,107,108,109,110,111,112,113,114,115,116,117,118,119,120,121,122,123,124,125,126,127,128,129,130,131,132,133,134,135,136,137,138,139,140,141,142,143,144,145,146,147,148,149,151,152,153,154,155,156,157,158,159,160,161,162,163,164,165,166,167,168,169,170,171,172,173,174,175,176,177,178,179,180,181,182,183,184,185,186,187,188,189,190,191,192,193,194,195,196,197,198,199,200,201,202,203,204,205,206,207,208,209,210,211,212,213,212,0,1,2,3,4,5,6,7,8,9,10,11,12,13,14,15,16,17,18,19,20,21,22,23,24,25,26,27,28,29,30,31,32,33,34,35,36,37,38,39,40,41,42,43,44,45,46,47,48,49,50,51,52,53,54,55,56,57,58,59,60,61,62,63,64,65,66,67,68,69,70,71,72,73,74,75,76,77,78,79,80,81,82,83,84,85,86,87,88,89,90,91,92,93,94,95,96,97,98,99,100,101,102,103,104,105,106,107,108,109,110,111,112,113,114,115,116,117,118,119,120,121,122,124,125,126,127,128,129,130,131,132,133,134,135,136,137,138,139,140,141,142,143,144,145,146,147,148,149,150,151,152,153,154,155,156,157,158,159,160,161,162,163,164,165,166,167,168,169,170,171,172,173,174,175,176,177,178,179,180,181,182,183,184,185,186,187,188,189,190,191,192,193,194,195,196,197,198,199,200,201,202,203,204,205,206,207,208,209,210,211,212,213,11,89,158,0,2,90,191,202,7,21,23,60,76,98,144,149,191,180,190,57,147,159,191,80],"categories_nodes":[0,1,2,4,5,6,13,15,17,20,21,35,41,42,47,48,49,51,53,55,60,63,64,68,92,97],"categories_segments":[0,195,404,425,631,654,660,870,872,876,880,891,899,902,908,909,1119,1332,1333,1546,1547,1549,1554,1563,1565,1569],"categories_sizes":[195,209,21,206,23,6,210,2,4,4,11,8,3,6,1,210,213,1,213,1,2,5,9,2,4,1],"default_left":[0,0,1,0,0,1,1,0,0,0,0,0,0,0,0,1,0,1,0,0,1,1,0,0,0,0,0,0,0,0,0,0,0,0,0,1,0,0,0,0,0,1,1,0,0,0,0,1,0,0,0,1,0,0,0,1,0,0,0,0,1,0,0,1,1,0,0,0,1,0,0,0,0,0,0,0,0,0,0,0,0,0,0,0,0,0,0,0,0,0,0,0,1,0,0,0,0,1,0,0,0,0,0,0,0,0,0,0,0,0,0,0,0,0,0,0,0,0,0,0,0,0,0,0,0,0,0,0,0],"id":0,"left_children":[1,3,5,-1,7,9,11,13,15,17,19,21,-1,23,25,27,29,31,33,35,37,39,41,43,45,47,49,-1,51,53,-1,55,-1,57,59,61,63,-1,65,-1,-1,67,69,71,-1,-1,-1,73,75,77,-1,79,-1,81,-1,83,-1,85,-1,87,89,-1,91,93,95,97,99,-1,101,-1,-1,-1,-1,-1,-1,-1,103,-1,105,-1,-1,-1,-1,-1,-1,107,109,-1,111,-1,-1,113,115,117,119,121,123,125,-1,127,-1,-1,-1,-1,-1,-1,-1,-1,-1,-1,-1,-1,-1,-1,-1,-1,-1,-1,-1,-1,-1,-1,-1,-1,-1,-1,-1,-1,-1],"loss_changes":[8.462656E2,4.4645264E1,3.4119006E2,0E0,1.6555115E1,4.361675E1,8.5917725E1,2.276825E1,9.690104E0,3.8461758E1,1.0207672E1,8.544922E-2,0E0,1.2060577E1,2.9832535E1,7.4927106E0,1.5970955E0,8.325127E0,2.0686144E1,1.0417885E1,1.8849003E1,1.0031784E1,2.0470856E1,3.358612E0,6.8253155E0,8.279577E0,1.0658424E1,0E0,2.1343586E0,3.525734E-1,0E0,9.960127E-1,0E0,5.8565216E0,3.0022464E0,3.1775635E1,1.8777237E1,0E0,1.2703797E1,0E0,0E0,1.9893821E0,6.872307E0,7.7581635E0,0E0,0E0,0E0,3.7565238E0,9.141502E0,2.547226E0,0E0,3.8262448E0,0E0,9.940605E-1,0E0,6.4133686E-1,0E0,9.634308E0,0E0,5.0887704E-1,6.701374E-2,0E0,1.31705675E1,2.5969444E1,4.4654835E1,1.3013251E1,2.5927315E0,0E0,3.1906605E-2,0E0,0E0,0E0,0E0,0E0,0E0,0E0,6.196847E-1,0E0,1.546072E0,0E0,0E0,0E0,0E0,0E0,0E0,1.1031944E1,2.5165815E1,0E0,1.22121E-1,0E0,0E0,7.0274353E0,5.672835E0,1.744515E1,5.902115E0,1.0025749E1,1.326738E1,1.5984647E1,0E0,1.3113337E0,0E0,0E0,0E0,0E0,0E0,0E0,0E0,0E0,0E0,0E0,0E0,0E0,0E0,0E0,0E0,0E0,0E0,0E0,0E0,0E0,0E0,0E0,0E0,0E0,0E0,0E0,0E0,0E0,0E0],"parents":[2147483647,0,0,1,1,2,2,4,4,5,5,6,6,7,7,8,8,9,9,10,10,11,11,13,13,14,14,15,15,16,16,17,17,18,18,19,19,20,20,21,21,22,22,23,23,24,24,25,25,26,26,28,28,29,29,31,31,33,33,34,34,35,35,36,36,38,38,41,41,42,42,43,43,47,47,48,48,49,49,51,51,53,53,55,55,57,57,59,59,60,60,62,62,63,63,64,64,65,65,66,66,68,68,76,76,78,78,85,85,86,86,88,88,91,91,92,92,93,93,94,94,95,95,96,96,97,97,99,99],"right_children":[2,4,6,-1,8,10,12,14,16,18,20,22,-1,24,26,28,30,32,34,36,38,40,42,44,46,48,50,-1,52,54,-1,56,-1,58,60,62,64,-1,66,-1,-1,68,70,72,-1,-1,-1,74,76,78,-1,80,-1,82,-1,84,-1,86,-1,88,90,-1,92,94,96,98,100,-1,102,-1,-1,-1,-1,-1,-1,-1,104,-1,106,-1,-1,-1,-1,-1,-1,108,110,-1,112,-1,-1,114,116,118,120,122,124,126,-1,128,-1,-1,-1,-1,-1,-1,-1,-1,-1,-1,-1,-1,-1,-1,-1,-1,-1,-1,-1,-1,-1,-1,-1,-1,-1,-1,-1,-1,-1],"split_conditions":[1E-45,1E-45,1E-45,5.6599606E-2,1E-45,1E-45,1E-45,2.016E3,2.012E3,2.004E3,9.9E1,2.012E3,-9.724086E-2,1E-45,2.023E3,1E-45,2.025E3,1E-45,2.023E3,2.004E3,1E-45,1E-45,2.015E3,2.013E3,2.003E3,2.017E3,3.12E2,1.2937567E-2,2.011E3,2.023E3,6.425281E-3,2.001E3,-2.0395646E-2,2.022E3,2.025E3,1E-45,2.019E3,4.110681E-2,2.013E3,-1.732258E-2,-4.922627E-2,1E-45,1E-45,2.01E3,4.773184E-2,2.035966E-2,-1.7359786E-2,1E-45,1E-45,1E-45,-3.089958E-3,1E-45,-2.4162754E-2,1E-45,3.316535E-2,1E-45,-6.3620675E-3,2.01E3,2.81404E-2,2E0,1E-45,3.4168456E-2,2.002E3,1E-45,1E-45,2.012E3,5.57E2,1.002538E-2,1E-45,-1.2565381E-3,-4.1605286E-2,3.831882E-2,1.8882047E-2,4.199519E-3,-2.2123618E-2,2.3872968E-2,2.02E3,5.2474033E-2,2E0,1.2654496E-2,-1.56089E-2,2.087644E-2,5.3233188E-3,9.689304E-3,-2.0259526E-3,2.009E3,2.013E3,-9.801106E-3,2.13E2,-7.0047993E-3,-2.6233844E-2,2.001E3,1E-45,2.011E3,2.017E3,2.025E3,2.022E3,1E-45,4.1200947E-2,2.022E3,5.2712304E-3,-2.1229014E-3,-8.813867E-3,1.0700674E-2,3.2214818E-3,4.7320323E-3,3.0138988E-2,1.1118735E-2,3.850931E-2,-1.8659417E-2,1.0768355E-2,1.6008758E-3,-3.0067365E-3,-5.916931E-3,-3.244248E-2,5.134514E-3,-1.3396916E-2,6.972782E-3,-1.7454678E-2,-2.8790876E-2,-5.489066E-3,8.047065E-3,-2.0031612E-2,-9.697597E-3,-3.6921293E-2,1.3190186E-2,-2.7584815E-2,-8.462302E-3,-1.9736925E-2],"split_indices":[0,0,0,0,0,0,0,3,3,3,4,3,0,0,3,0,3,0,3,3,0,0,3,3,3,3,4,0,3,3,0,3,0,3,3,0,3,0,3,0,0,0,0,3,0,0,0,0,0,0,0,0,0,0,0,0,0,3,0,4,0,0,3,0,0,3,4,0,0,0,0,0,0,0,0,0,3,0,4,0,0,0,0,0,0,3,3,0,4,0,0,3,0,3,3,3,3,0,0,3,0,0,0,0,0,0,0,0,0,0,0,0,0,0,0,0,0,0,0,0,0,0,0,0,0,0,0,0,0],"split_type":[1,1,1,0,1,1,1,0,0,0,0,0,0,1,0,1,0,1,0,0,1,1,0,0,0,0,0,0,0,0,0,0,0,0,0,1,0,0,0,0,0,1,1,0,0,0,0,1,1,1,0,1,0,1,0,1,0,0,0,0,1,0,0,1,1,0,0,0,1,0,0,0,0,0,0,0,0,0,0,0,0,0,0,0,0,0,0,0,0,0,0,0,1,0,0,0,0,1,0,0,0,0,0,0,0,0,0,0,0,0,0,0,0,0,0,0,0,0,0,0,0,0,0,0,0,0,0,0,0],"sum_hessian":[4.02E2,1.25E2,2.77E2,1.4E1,1.11E2,2.32E2,4.5E1,9.2E1,1.9E1,8.3E1,1.49E2,3.9E1,6E0,5.2E1,4E1,7E0,1.2E1,1.8E1,6.5E1,1.26E2,2.3E1,2E1,1.9E1,5E1,2E0,2.7E1,1.3E1,4E0,3E0,1E1,2E0,4E0,1.4E1,5.8E1,7E0,2.6E1,1E2,1E0,2.2E1,4E0,1.6E1,4E0,1.5E1,3.4E1,1.6E1,1E0,1E0,3E0,2.4E1,1.2E1,1E0,2E0,1E0,7E0,3E0,3E0,1E0,5.5E1,3E0,4E0,3E0,3E0,2.3E1,5.8E1,4.2E1,8E0,1.4E1,1E0,3E0,1E0,1.4E1,2.5E1,9E0,2E0,1E0,1.2E1,1.2E1,6E0,6E0,1E0,1E0,5E0,2E0,2E0,1E0,2.4E1,3.1E1,1E0,3E0,1E0,2E0,9E0,1.4E1,2.3E1,3.5E1,2.6E1,1.6E1,7E0,1E0,1.3E1,1E0,1E0,2E0,3E0,9E0,1E0,5E0,2.1E1,3E0,7E0,2.4E1,2E0,1E0,4E0,5E0,1E1,4E0,1E1,1.3E1,3.2E1,3E0,2.4E1,2E0,8E0,8E0,5E0,2E0,7E0,6E0],"tree_param":{"num_deleted":"0","num_feature":"5","num_nodes":"129","size_leaf_vector":"1"}},{"base_weights":[-7.478172E-2,1.8618184E0,-9.782515E-1,2.2693832E0,9.926561E-1,-3.6527476E-1,-2.7585855E0,1.8502858E0,2.6007967E0,7.6313853E-1,2.9822888E0,-1.3626163E-1,-7.681026E-1,-2.3504367E0,-6.037842E0,3.1568203E0,1.3269901E0,2.7630281E0,2.4716723E-1,1.5917486E0,4.22523E-1,4.860368E-2,1.3119605E-2,-9.6224256E-2,-1.3733827E0,-3.7964022E-1,-1.2025259E0,-2.3873456E0,-4.4766863E-4,-1.0520972E-2,-9.808843E-2,4.7630727E-2,1.22600915E-2,3.5811506E-2,7.4121267E-1,2.96387E0,1.8239466E0,-9.675784E-3,1.1203604E-2,2.4732113E0,4.4499454E-1,7.489069E-1,-2.6027193E-2,6.8669036E-2,-3.133331E-1,2.2942484E-3,-2.7939957E-2,6.911743E-2,-1.316992E0,-1.5414304E0,4.0575244E-2,-2.6916451E0,-1.9217091E0,-7.953239E-3,1.1538423E0,4.4641636E-2,1.6091444E0,1.8391233E-2,3.8643967E-2,4.0895313E-2,4.7726287E-3,1.0502635E-2,-1.1674959E-3,4.6628025E-1,1.2309484E0,-2.0664342E-1,3.9054635E-1,5.179849E-1,-5.095812E-1,-7.057598E-2,2.7697576E-2,-1.5808363E0,8.943415E-2,-2.3492303E0,-9.3928885E-1,-2.1487894E0,-3.833905E0,-1.1475808E-1,-2.4092975E0,2.426977E-2,-1.3886663E-3,2.2204622E-4,2.8899172E-2,1.1170326E0,-3.0858687E-1,2.7377741E-2,5.2339338E-2,2.6079196E-2,-3.602727E-1,5.3667873E-1,-3.195934E-2,4.1167483E-2,-1.0311494E-2,-1.6362275E0,-5.030902E-2,3.4235266E-1,-7.023224E-1,-1.2888531E-2,-3.69226E-2,1.5095279E-2,-1.316046E-2,-1.2592394E0,-8.023022E-2,1.0870098E0,-1.8853462E0,-1.3978612E0,-4.1946657E-2,-3.8175865E-3,-6.0590692E-2,-5.0006807E-1,8.158585E-3,-1.8113168E0,-5.33931E-2,1.792889E-3,1.9465905E-2,1.4259477E-2,-1.6182287E-2,1.9218737E-2,-1.8527733E-2,2.245315E-3,-1.0710088E-2,1.7036121E-2,4.084244E-3,-1.30931325E-2,-5.425317E-2,1.5843375E-2,-6.661394E-3,7.63067E-3,-1.9075425E-2,-4.883128E-3,-1.2429622E-2,-2.1049562E-3,-3.1191295E-2,-3.1889004E-3,2.3861956E-2,-5.6162607E-3,-3.0319609E-2,-1.4097133E-2,-2.6906999E-2,-2.3412178E-3,-9.679309E-3,8.502338E-3,-3.1307694E-2],"categories":[0,2,3,4,5,6,7,8,9,10,12,13,14,15,16,17,18,19,20,22,23,24,25,26,27,28,29,30,31,32,33,34,35,36,37,40,41,42,44,45,46,48,49,50,51,52,53,54,55,56,57,59,61,62,63,64,66,67,68,69,70,71,72,74,75,76,77,78,79,81,82,83,86,87,88,89,90,91,92,93,94,95,96,97,98,99,100,101,102,103,104,105,106,107,108,109,110,111,112,113,114,116,117,118,119,120,121,122,124,125,126,127,129,131,133,134,135,137,138,139,140,141,142,143,144,145,146,147,148,149,151,152,153,154,156,157,158,159,160,161,162,163,164,165,166,167,168,169,170,171,172,173,174,175,176,177,178,180,181,183,184,185,186,187,188,189,190,191,192,193,194,195,196,197,198,199,200,201,202,203,204,205,206,207,208,209,210,211,213,0,2,3,4,5,6,7,8,9,10,11,12,13,14,15,16,17,18,19,20,21,22,23,24,25,26,27,28,29,30,31,32,33,34,35,36,37,40,41,42,43,44,45,46,48,49,50,51,52,53,54,55,56,57,58,59,60,61,62,63,64,66,67,68,69,70,71,72,73,74,75,76,77,78,79,80,81,82,83,84,86,87,88,89,90,91,92,93,94,95,96,97,98,99,100,101,102,103,104,105,106,107,108,109,110,111,112,113,114,115,116,117,118,119,120,121,122,124,125,126,127,128,129,131,133,134,135,136,137,138,139,140,141,142,143,144,145,146,147,148,149,150,151,152,153,154,155,156,157,158,159,160,161,162,163,164,165,166,167,168,169,170,171,172,173,174,175,176,177,178,180,181,182,183,184,185,186,187,188,189,190,191,192,193,194,195,196,197,198,199,200,201,202,203,204,205,206,207,208,209,210,211,213,14,15,25,27,59,68,74,76,87,94,99,102,103,119,146,147,180,189,190,191,199,203,207,209,213,0,2,7,23,42,53,57,86,96,98,129,144,159,178,192,193,15,99,103,147,199,0,1,2,3,4,5,6,7,8,9,10,11,12,13,14,15,16,17,18,19,20,21,22,23,24,25,26,27,28,29,30,31,32,33,34,35,36,37,39,40,41,42,43,44,45,46,48,49,50,51,52,53,54,55,56,57,58,59,60,61,62,63,64,66,67,68,69,70,71,72,73,74,75,76,77,78,79,80,81,82,83,84,85,86,87,88,89,90,91,92,93,94,95,96,97,98,99,100,101,102,103,104,105,106,107,108,109,110,111,112,113,114,115,116,117,118,119,120,121,122,124,125,126,127,128,129,131,133,134,135,136,137,138,139,140,141,142,143,144,145,146,147,148,149,150,151,152,153,154,155,156,157,158,159,160,161,162,163,164,165,166,167,168,169,170,171,172,173,174,175,176,177,178,179,180,181,182,183,184,185,186,187,188,189,190,191,192,193,194,195,196,197,198,199,200,201,202,203,204,205,206,207,208,209,210,211,212,213,0,1,2,3,4,5,6,7,8,9,10,11,12,13,14,15,16,17,18,19,20,21,22,23,24,25,26,27,28,29,30,31,32,33,34,35,36,37,38,39,40,41,42,43,44,45,46,47,48,49,50,51,52,53,54,55,56,57,58,59,60,61,62,63,64,65,66,67,68,69,70,71,72,73,74,75,76,77,78,79,80,81,82,83,84,85,86,87,88,89,90,91,92,93,94,95,96,97,98,99,100,101,102,103,104,105,106,107,108,109,110,111,112,113,114,115,116,117,118,119,120,121,122,123,124,125,126,127,128,129,130,131,132,133,134,135,136,137,138,139,140,141,142,143,144,145,146,147,148,149,151,152,153,154,155,156,157,158,159,160,161,162,163,164,165,166,167,168,169,170,171,172,173,174,175,176,177,178,179,180,181,182,183,184,185,186,187,188,189,190,191,192,193,194,195,196,197,198,199,200,201,202,203,204,205,206,207,208,209,210,211,212,213,0,1,2,3,4,5,6,7,8,9,10,11,12,13,14,15,16,17,18,19,20,21,22,23,24,25,26,27,28,29,30,31,32,33,34,35,36,37,38,39,40,41,42,43,44,45,46,47,48,49,50,51,52,53,54,55,56,57,59,61,62,63,64,65,66,67,68,69,70,71,72,73,74,75,76,77,78,79,80,81,82,83,84,85,86,87,88,89,90,91,92,93,94,95,96,97,98,99,100,101,102,103,104,105,106,107,108,109,110,111,112,113,114,115,116,117,118,119,120,121,122,123,124,125,126,127,128,129,130,131,132,133,134,135,136,137,138,139,140,141,142,143,144,145,146,147,148,149,150,151,152,153,154,155,156,157,158,159,160,161,162,163,164,165,166,167,168,169,170,171,172,173,174,175,176,177,178,179,180,181,182,183,184,185,186,187,188,189,190,191,192,193,194,195,196,197,198,199,200,201,202,203,204,205,206,207,208,209,210,211,212,213,58,60,3,46,88,89,89,90,7,23,86,98,129,159,178,192,0,1,2,3,4,5,6,7,8,9,10,11,12,13,14,15,16,17,18,19,20,21,22,23,24,25,26,27,28,29,30,31,32,33,34,35,36,37,38,40,41,42,43,44,45,46,47,48,49,50,51,52,53,54,55,56,57,58,59,60,61,62,63,64,65,66,67,68,69,70,71,72,73,74,75,76,77,78,79,80,81,82,83,84,85,86,87,88,89,90,91,92,93,94,95,96,97,98,99,100,101,102,103,104,105,106,107,108,109,110,111,112,113,114,115,116,117,118,119,120,121,122,124,125,126,127,128,129,130,131,132,133,134,135,136,137,138,139,140,141,142,143,144,145,146,147,148,149,150,151,152,153,154,155,156,157,158,159,160,161,162,163,164,165,166,167,168,169,170,171,172,173,174,175,176,177,178,179,180,181,182,183,184,185,186,187,188,189,190,191,192,193,194,195,196,197,198,199,200,201,202,203,204,205,206,207,208,209,210,211,212,213,150,14,25,59,68,74,76,94,119,146,190,203,207,213,0,1,2,3,4,5,6,7,8,9,10,11,12,13,14,15,16,17,18,19,20,21,22,23,24,25,26,27,28,29,30,31,32,33,34,35,36,37,38,39,40,41,42,43,44,45,46,47,48,49,50,51,52,53,54,55,56,57,58,59,60,61,62,63,64,65,66,67,68,69,70,71,72,73,74,75,76,77,78,79,80,81,82,83,84,85,86,87,88,89,90,91,92,93,94,95,96,97,98,99,100,101,102,103,104,105,106,107,108,109,110,111,112,113,114,115,116,117,118,119,120,121,122,123,124,125,126,127,128,129,130,131,132,133,134,136,137,138,139,140,141,142,143,144,145,146,147,148,149,150,151,152,153,154,155,156,157,158,159,160,161,162,163,164,165,166,167,168,169,170,171,172,173,174,175,176,177,178,179,180,181,182,183,184,185,186,187,188,189,190,191,192,193,194,195,196,197,198,199,200,201,202,203,204,205,206,207,208,209,210,211,212,213,135,89,98,192,7,144,0,2,42,53,57,193,14,27,87,94,180,189,76,102,191,209,80,150,2,0,96,102,180,14,59,68,76,94,119,146,190,203,213],"categories_nodes":[0,1,2,5,6,7,10,19,20,23,24,25,35,40,52,65,66,67,71,72,73,74,75,76,84,95,96,101,109,111],"categories_segments":[0,189,392,417,433,438,646,859,1071,1073,1077,1079,1087,1299,1300,1313,1526,1527,1528,1530,1531,1532,1538,1544,1548,1550,1551,1552,1553,1555],"categories_sizes":[189,203,25,16,5,208,213,212,2,4,2,8,212,1,13,213,1,1,2,1,1,6,6,4,2,1,1,1,2,10],"default_left":[0,0,1,0,0,1,1,0,0,0,0,0,0,0,0,0,0,0,0,0,1,0,0,1,1,1,0,0,0,0,0,0,0,0,0,0,0,0,0,0,1,0,0,0,0,0,0,0,0,0,0,0,1,0,0,0,0,0,0,0,0,0,0,0,0,0,1,1,0,0,0,1,1,1,1,1,1,0,0,0,0,0,0,0,1,0,0,0,0,0,0,0,0,0,0,1,1,0,0,0,0,1,0,0,0,0,0,0,0,1,0,1,0,0,0,0,0,0,0,0,0,0,0,0,0,0,0,0,0,0,0,0,0,0,0,0,0,0,0,0,0,0,0],"id":1,"left_children":[1,3,5,7,9,11,13,15,17,19,21,23,25,27,29,31,33,35,37,39,41,-1,-1,43,45,47,49,51,-1,-1,-1,-1,-1,-1,53,55,57,-1,-1,59,61,63,-1,65,67,-1,-1,69,71,73,-1,75,77,-1,79,-1,81,-1,-1,-1,-1,-1,-1,83,85,87,89,91,93,95,-1,97,99,101,103,105,107,109,111,-1,-1,-1,-1,113,115,117,-1,-1,119,121,-1,-1,-1,123,125,127,129,-1,-1,-1,-1,131,-1,133,135,137,-1,-1,-1,139,-1,141,-1,-1,-1,-1,-1,-1,-1,-1,-1,-1,-1,-1,-1,-1,-1,-1,-1,-1,-1,-1,-1,-1,-1,-1,-1,-1,-1,-1,-1,-1,-1],"loss_changes":[6.929369E2,4.23815E1,2.9364426E2,6.993866E0,1.6903645E1,1.8530416E1,7.815973E1,2.3842773E1,1.6499542E1,1.0334711E1,1.4844894E-1,6.3068867E0,1.1862743E1,5.3191223E0,2.3396378E1,8.889923E-1,1.9151695E1,2.5155334E0,2.466055E0,1.0018467E1,2.2431526E1,0E0,0E0,4.56809E0,3.7644124E0,1.691678E1,5.060982E1,3.6123657E0,0E0,0E0,0E0,0E0,0E0,0E0,1.2370787E1,8.92395E-1,1.2778931E0,0E0,0E0,3.7183495E0,9.526576E-1,2.968214E0,0E0,6.549733E0,9.236909E0,0E0,0E0,7.376748E0,4.9653873E0,1.3358505E1,0E0,1.3464615E1,2.4392883E1,0E0,1.1402477E1,0E0,3.1135244E0,0E0,0E0,0E0,0E0,0E0,0E0,9.421141E0,2.5876278E1,1.3033061E1,1.4139412E1,3.3727314E1,2.3202362E1,7.2838297E0,0E0,5.114332E0,3.8321524E0,3.8530838E1,4.0389282E1,1.0764908E1,1.1993027E1,2.1181293E0,1.0301048E1,0E0,0E0,0E0,0E0,2.1417065E0,1.0606315E1,1.3698426E1,0E0,0E0,7.611333E0,5.057209E0,0E0,0E0,0E0,1.6711555E1,1.6109991E1,5.9847746E0,3.4636784E-1,0E0,0E0,0E0,0E0,1.0747814E1,0E0,5.5619774E0,3.7233963E0,1.1263199E0,0E0,0E0,0E0,1.7990899E-1,0E0,1.5948719E1,0E0,0E0,0E0,0E0,0E0,0E0,0E0,0E0,0E0,0E0,0E0,0E0,0E0,0E0,0E0,0E0,0E0,0E0,0E0,0E0,0E0,0E0,0E0,0E0,0E0,0E0,0E0,0E0,0E0,0E0,0E0],"parents":[2147483647,0,0,1,1,2,2,3,3,4,4,5,5,6,6,7,7,8,8,9,9,10,10,11,11,12,12,13,13,14,14,15,15,16,16,17,17,18,18,19,19,20,20,23,23,24,24,25,25,26,26,27,27,34,34,35,35,36,36,39,39,40,40,41,41,43,43,44,44,47,47,48,48,49,49,51,51,52,52,54,54,56,56,63,63,64,64,65,65,66,66,67,67,68,68,69,69,71,71,72,72,73,73,74,74,75,75,76,76,77,77,78,78,83,83,84,84,85,85,88,88,89,89,93,93,94,94,95,95,96,96,101,101,103,103,104,104,105,105,109,109,111,111],"right_children":[2,4,6,8,10,12,14,16,18,20,22,24,26,28,30,32,34,36,38,40,42,-1,-1,44,46,48,50,52,-1,-1,-1,-1,-1,-1,54,56,58,-1,-1,60,62,64,-1,66,68,-1,-1,70,72,74,-1,76,78,-1,80,-1,82,-1,-1,-1,-1,-1,-1,84,86,88,90,92,94,96,-1,98,100,102,104,106,108,110,112,-1,-1,-1,-1,114,116,118,-1,-1,120,122,-1,-1,-1,124,126,128,130,-1,-1,-1,-1,132,-1,134,136,138,-1,-1,-1,140,-1,142,-1,-1,-1,-1,-1,-1,-1,-1,-1,-1,-1,-1,-1,-1,-1,-1,-1,-1,-1,-1,-1,-1,-1,-1,-1,-1,-1,-1,-1,-1,-1],"split_conditions":[1E-45,1E-45,1E-45,7E0,1.2E1,1E-45,1E-45,1E-45,2.5E1,5E0,1E-45,1.13E2,6E0,1.69E2,2E0,5E0,3E0,1.2E1,9E0,1E-45,1E-45,4.860368E-2,1.3119605E-2,1E-45,1E-45,1E-45,1.13E2,8E0,-4.4766863E-4,-1.0520972E-2,-9.808843E-2,4.7630727E-2,1.22600915E-2,3.5811506E-2,4E0,1E-45,2E0,-9.675784E-3,1.1203604E-2,5.5E0,1E-45,1E1,-2.6027193E-2,8E0,2E0,2.2942484E-3,-2.7939957E-2,5E0,5E0,8E0,4.0575244E-2,7E0,1E-45,-7.953239E-3,6E0,4.4641636E-2,1E1,1.8391233E-2,3.8643967E-2,4.0895313E-2,4.7726287E-3,1.0502635E-2,-1.1674959E-3,8E0,5.5E0,1E-45,1E-45,1E-45,6E0,4E0,2.7697576E-2,1E-45,1E-45,1E-45,1E-45,1E-45,1E-45,1.1E1,1.2E1,2.426977E-2,-1.3886663E-3,2.2204622E-4,2.8899172E-2,2E0,1E-45,1.1E1,5.2339338E-2,2.6079196E-2,3E0,9E0,-3.195934E-2,4.1167483E-2,-1.0311494E-2,5E0,8E0,1E-45,1E-45,-1.2888531E-2,-3.69226E-2,1.5095279E-2,-1.316046E-2,1E-45,-8.023022E-2,1E1,9E0,1.4E1,-4.1946657E-2,-3.8175865E-3,-6.0590692E-2,1E-45,8.158585E-3,1E-45,-5.33931E-2,1.792889E-3,1.9465905E-2,1.4259477E-2,-1.6182287E-2,1.9218737E-2,-1.8527733E-2,2.245315E-3,-1.0710088E-2,1.7036121E-2,4.084244E-3,-1.30931325E-2,-5.425317E-2,1.5843375E-2,-6.661394E-3,7.63067E-3,-1.9075425E-2,-4.883128E-3,-1.2429622E-2,-2.1049562E-3,-3.1191295E-2,-3.1889004E-3,2.3861956E-2,-5.6162607E-3,-3.0319609E-2,-1.4097133E-2,-2.6906999E-2,-2.3412178E-3,-9.679309E-3,8.502338E-3,-3.1307694E-2],"split_indices":[0,0,0,2,2,0,0,0,4,2,0,4,2,4,2,2,2,2,2,0,0,0,0,0,0,0,4,2,0,0,0,0,0,0,2,0,4,0,0,4,0,2,0,2,2,0,0,2,2,2,0,2,0,0,2,0,2,0,0,0,0,0,0,2,4,0,0,0,2,2,0,0,0,0,0,0,0,2,2,0,0,0,0,4,0,2,0,0,2,2,0,0,0,2,2,0,0,0,0,0,0,0,0,2,2,4,0,0,0,0,0,0,0,0,0,0,0,0,0,0,0,0,0,0,0,0,0,0,0,0,0,0,0,0,0,0,0,0,0,0,0,0,0],"split_type":[1,1,1,0,0,1,1,1,0,0,1,0,0,0,0,0,0,0,0,1,1,0,0,1,1,1,0,0,0,0,0,0,0,0,0,1,0,0,0,0,1,0,0,0,0,0,0,0,0,0,0,0,1,0,0,0,0,0,0,0,0,0,0,0,0,1,1,1,0,0,0,1,1,1,1,1,1,0,0,0,0,0,0,0,1,0,0,0,0,0,0,0,0,0,0,1,1,0,0,0,0,1,0,0,0,0,0,0,0,1,0,1,0,0,0,0,0,0,0,0,0,0,0,0,0,0,0,0,0,0,0,0,0,0,0,0,0,0,0,0,0,0,0],"sum_hessian":[3.94E2,1.25E2,2.69E2,8.4E1,4.1E1,2.01E2,6.8E1,4E1,4.4E1,3.8E1,3E0,1.29E2,7.2E1,6.2E1,6E0,1E1,3E1,4.1E1,3E0,1E1,2.8E1,2E0,1E0,1.26E2,3E0,3.9E1,3.3E1,6.1E1,1E0,1E0,5E0,9E0,1E0,9E0,2.1E1,3.2E1,9E0,1E0,2E0,5E0,5E0,2.5E1,3E0,7.2E1,5.4E1,1E0,2E0,2.7E1,1.2E1,3.1E1,2E0,3.4E1,2.7E1,5E0,1.6E1,2.8E1,4E0,7E0,2E0,4E0,1E0,3E0,2E0,1.7E1,8E0,3.9E1,3.3E1,1E1,4.4E1,2.6E1,1E0,1E1,2E0,1.2E1,1.9E1,2.5E1,9E0,6E0,2.1E1,1.1E1,5E0,1E0,3E0,9E0,8E0,6E0,2E0,2E0,3.7E1,3.2E1,1E0,3E0,7E0,1.2E1,3.2E1,1.6E1,1E1,7E0,3E0,1E0,1E0,1E1,2E0,6E0,1.3E1,1.4E1,1.1E1,1E0,8E0,4E0,2E0,1.6E1,5E0,2E0,7E0,3E0,5E0,3E0,3E0,1.6E1,2.1E1,8E0,2.4E1,1E1,2E0,8E0,2.4E1,1.5E1,1E0,4E0,6E0,5E0,5E0,2E0,4E0,2E0,1.1E1,9E0,5E0,2E0,2E0,2E0,1.4E1],"tree_param":{"num_deleted":"0","num_feature":"5","num_nodes":"143","size_leaf_vector":"1"}},{"base_weights":[9.606552E-2,1.2495708E0,-1.2281541E0,2.0953999E0,6.46049E-1,-6.2918824E-1,-3.1636426E0,2.7130634E-1,2.4121826E0,1.7360274E0,5.2458185E-1,1.7065495E-1,-9.937631E-1,-2.4840512E0,-7.088473E-2,1.450729E0,-3.0890472E-2,3.8205726E0,1.8912611E0,5.0522745E-2,4.146601E-1,6.596444E-2,1.0613067E0,1.0848982E0,-1.026394E0,8.613311E-1,-1.0828137E0,-2.6709216E0,-4.6151042E-1,5.6606005E-3,2.1990292E-2,3.9659052E0,8.686665E-3,-5.987215E-2,1.9646341E0,8.942264E-1,-2.1217935E-2,1.0314785E0,-4.537252E-1,1.3502431E0,-1.9247427E0,-1.0755631E-2,1.2685245E0,2.894702E-1,-1.4843135E0,-4.3140426E-3,1.7685387E-2,-1.2952576E0,-6.1614335E-1,-2.366132E0,-5.8563534E-2,-9.972287E-3,-2.2267574E-3,2.0297046E0,6.0832385E-2,-2.7424064E-2,2.612879E-2,2.0280333E0,2.1083657E-1,2.7784003E-2,4.011267E-1,7.2506356E-1,1.4770718E0,2.0965159E-1,-2.5311582E0,1.5042324E0,-2.107165E-2,-3.2584634E0,2.4591658E-2,2.7138336E0,1.0137767E0,1.5146301E0,-2.0776812E-2,-1.1734036E-2,-1.8410691E0,1.3264678E-1,-1.5671763E0,1.0452337E0,-1.0566832E0,-1.061404E0,-2.7697165E0,3.3937015E-2,7.6419883E-3,4.4307593E-2,1.851601E0,-3.0103195E-3,7.5715585E-3,9.420655E-3,1.118021E-1,9.5298064E-1,7.863321E-2,2.4002546E-2,1.2043534E-3,-1.1452944E0,5.663812E-1,-6.172433E-2,-1.170412E0,-6.173007E-2,1.6967092E0,-1.0859767E-2,-5.5421136E-2,5.178205E-2,6.9290292E-3,-1.4069629E-1,1.3616039E0,2.9205931E-2,9.656055E-3,-2.8826805E-2,-4.181858E-3,6.693322E-1,-6.452422E-1,-2.250482E0,-1.2641823E0,2.7306892E-2,5.8832884E-1,-4.9179572E-1,-1.6276617E0,-2.3974035E-2,4.9408308E-1,-3.2285268E0,-1.9880537E0,4.6492796E-3,2.8103163E-2,-3.7302967E-4,2.398666E-3,1.5567633E-2,-2.2432879E-3,1.3681643E-2,-5.4231957E-3,2.1830596E-2,-2.65481E-2,1.3645381E-2,-8.645809E-3,-3.6327127E-2,6.7863157E-3,8.305541E-3,-4.3905913E-3,4.295316E-2,2.0075481E-2,-2.6285497E-2,8.0791395E-3,2.7450735E-2,1.14239445E-2,1.8579146E-2,-8.440278E-3,-9.0729684E-4,-1.1178995E-2,-9.769459E-3,-3.5196997E-2,-9.645129E-3,-2.5134522E-2,1.2390973E-2,4.492458E-4,2.6809689E-2,-1.4977597E-2,-4.2304873E-2,-3.9819214E-3,-2.0907088E-3,1.2779703E-2,-1.0190176E-2,-4.9182333E-2,2.5603916E-3,-3.6801443E-2],"categories":[1,2,3,14,42,53,59,68,74,76,78,86,87,88,90,94,96,98,99,135,140,149,159,164,178,190,191,192,193,196,199,202,203,207,209,211,212,213,0,1,2,3,4,5,6,7,8,9,10,11,12,13,14,15,16,17,18,19,20,21,22,23,24,25,26,27,28,29,30,31,32,33,34,35,36,37,40,41,42,43,44,45,48,49,50,51,52,53,54,55,56,57,58,59,60,61,62,63,64,65,66,67,68,69,70,71,72,73,74,75,76,77,78,79,81,82,83,85,86,87,88,89,90,91,92,93,94,95,96,97,98,99,100,101,102,103,104,105,106,107,108,109,110,111,112,113,114,115,116,117,118,119,120,121,122,124,125,126,127,129,130,131,133,134,135,136,137,138,139,140,141,142,143,144,145,146,147,148,149,150,151,152,153,154,155,156,157,158,159,160,161,162,163,164,165,166,167,168,169,170,171,172,173,174,175,176,177,178,180,181,182,184,185,186,187,188,190,191,192,193,194,195,196,197,198,199,200,201,202,203,204,205,206,207,208,209,210,211,212,213,2,14,59,74,78,87,94,98,99,140,164,190,199,207,209,211,213,38,80,84,132,0,1,2,3,4,5,6,7,8,9,10,11,12,13,14,15,16,17,18,19,20,21,22,23,24,25,26,27,28,29,30,31,32,33,34,35,36,37,39,40,41,42,43,44,45,46,47,48,49,50,51,52,53,54,55,56,57,58,59,60,61,62,63,64,65,66,67,68,69,70,71,72,73,74,75,76,77,78,79,81,82,83,85,86,87,88,89,90,91,92,93,94,95,96,97,98,99,100,101,102,103,104,105,106,107,108,109,110,111,112,113,114,115,116,117,118,119,120,121,122,123,124,125,126,127,129,130,131,133,134,135,136,137,138,139,140,141,142,143,144,145,146,147,148,149,150,151,152,153,154,155,156,157,158,159,160,161,162,163,164,165,166,167,168,169,170,171,172,173,174,175,176,177,178,179,180,181,182,184,185,186,187,188,190,191,192,193,194,195,196,197,198,199,200,201,202,203,204,205,206,207,208,209,210,211,212,213,76,159,178,191,192,202,212,1,3,42,53,68,76,86,88,90,96,135,149,191,193,196,202,203,0,1,2,3,4,5,6,7,8,9,10,12,13,14,15,16,17,18,19,20,21,22,23,24,25,26,27,28,29,30,31,32,33,34,35,36,37,38,39,40,41,42,44,45,46,47,48,49,50,51,52,53,54,55,56,57,58,59,60,61,62,63,64,65,66,67,68,69,70,71,72,74,75,76,77,78,79,80,81,82,83,84,86,87,88,89,90,91,92,93,94,95,96,97,98,99,100,101,103,104,105,106,107,108,109,110,111,112,113,114,115,116,117,118,119,120,121,122,123,124,125,126,127,128,129,130,131,132,133,134,135,137,138,139,140,141,142,143,145,146,147,148,149,150,151,152,153,154,156,157,159,160,161,162,163,164,165,166,167,168,169,170,172,173,174,175,176,177,178,179,180,181,182,183,184,185,186,187,188,189,190,191,192,193,194,195,196,197,198,199,200,201,202,203,204,205,206,207,208,209,210,211,212,213,60,144,191,212,159,192,202,1,42,53,86,88,90,96,191,196,202,203,42,53,68,76,88,90,135,149,193,202,2,14,59,87,94,98,140,190,211,0,1,2,3,4,5,6,7,8,9,10,11,12,13,14,15,16,17,18,19,20,21,22,23,24,25,26,27,28,29,30,31,32,33,34,35,36,37,39,40,41,42,43,44,45,46,47,48,49,50,51,52,53,54,55,56,57,58,59,60,61,62,63,64,65,66,67,68,69,70,71,72,73,74,75,76,77,78,79,80,81,82,83,84,85,86,87,88,89,90,91,92,93,94,95,96,97,98,99,100,101,102,103,104,105,106,107,108,109,110,111,112,113,114,115,116,117,118,119,120,121,122,123,124,125,126,127,128,129,130,131,132,133,134,135,136,137,138,139,140,141,142,143,144,145,146,147,148,149,150,151,152,153,154,155,156,157,158,159,160,161,162,163,164,165,166,167,168,169,170,171,172,173,174,175,176,177,178,179,180,181,182,184,185,186,187,188,189,190,191,192,193,194,195,196,197,198,199,200,201,202,203,204,205,206,207,208,209,210,211,212,213,0,1,2,3,4,5,6,7,8,9,10,11,12,13,14,15,16,17,18,19,20,21,22,23,24,25,26,27,28,29,30,31,32,33,34,35,36,37,38,39,40,41,42,43,44,45,46,47,48,49,50,51,52,53,54,55,56,57,58,59,60,61,62,63,64,65,66,67,68,69,70,71,72,73,74,75,76,77,78,79,80,81,82,83,84,85,86,87,88,89,90,91,92,93,94,95,96,97,98,99,100,101,102,103,104,105,106,107,108,109,110,111,112,113,114,115,116,117,118,119,120,121,122,123,124,125,126,127,128,129,130,131,132,133,134,135,137,138,139,140,141,142,143,144,145,146,147,148,149,150,151,152,153,154,155,156,157,159,160,161,162,163,164,165,166,167,168,169,170,171,172,173,174,175,176,177,178,179,180,181,182,183,184,185,186,187,188,189,190,191,192,193,194,195,196,197,198,199,200,201,202,203,204,205,206,207,208,209,210,211,212,213,0,1,2,3,4,5,6,7,8,9,10,11,12,13,14,15,16,17,18,19,20,21,22,23,24,25,26,27,28,29,30,31,32,33,34,35,36,37,38,39,40,41,42,43,44,45,46,47,48,49,50,51,52,53,54,55,56,57,58,59,60,61,62,63,64,65,66,67,68,69,70,71,72,73,74,75,76,77,78,79,80,81,82,83,84,85,86,87,88,89,90,91,92,93,94,95,96,97,98,99,100,101,103,104,105,106,107,108,109,110,111,112,113,114,115,116,117,118,119,120,121,122,123,124,125,126,127,128,129,130,131,132,133,134,135,136,137,138,139,140,141,142,143,145,146,147,148,149,150,151,152,153,154,155,156,157,158,159,160,161,162,163,164,165,166,167,168,169,170,172,173,174,175,176,177,178,179,180,181,182,183,184,185,186,187,188,189,190,191,192,193,194,195,196,197,198,199,200,201,202,203,204,205,206,207,208,209,210,211,212,213,0,1,2,3,4,5,6,7,8,9,10,11,12,13,14,15,16,17,18,19,20,21,22,23,24,25,26,27,28,29,30,31,32,33,34,35,36,37,38,39,40,41,42,43,44,45,46,47,48,49,50,51,52,53,54,55,56,57,58,59,60,61,62,63,64,65,66,67,68,69,70,71,72,73,74,75,76,77,78,79,80,81,82,83,84,85,86,87,89,90,91,92,93,94,95,96,97,98,99,100,101,102,103,104,105,106,107,108,109,110,111,112,113,114,115,116,117,118,119,120,121,122,123,124,125,126,127,128,129,130,131,132,133,134,135,136,137,138,139,140,141,142,143,144,145,146,147,148,149,150,151,152,153,154,155,156,157,158,159,160,161,162,163,164,165,166,167,168,169,170,171,172,173,174,175,176,177,178,179,180,181,182,183,184,185,186,187,188,189,190,191,192,193,194,195,196,197,198,199,200,201,202,203,204,205,206,207,208,209,210,211,212,213,0,2,3,4,5,6,7,8,9,10,11,12,13,14,15,16,17,18,19,20,21,22,23,24,25,26,27,28,29,30,31,32,33,34,35,36,37,38,39,40,41,42,43,44,45,46,47,48,49,50,51,52,53,54,55,56,57,58,59,60,61,62,63,64,65,66,67,68,69,70,71,72,73,74,75,76,77,78,79,80,81,82,83,84,85,86,87,88,89,90,91,92,93,94,95,96,97,98,99,100,101,102,103,104,105,106,107,108,109,110,111,112,113,114,115,116,117,118,119,120,121,122,123,124,125,126,127,128,129,130,131,132,133,134,135,136,137,138,139,140,141,142,143,144,145,146,147,148,149,150,151,152,153,154,155,156,157,158,159,160,161,162,163,164,165,166,167,168,169,170,171,172,173,174,175,176,177,178,179,180,181,182,183,184,185,186,187,188,189,190,191,192,193,194,195,196,197,198,199,200,201,202,203,204,205,206,207,208,209,210,211,212,213,102,85,144,0,1,2,3,4,5,6,7,8,9,10,11,12,13,14,15,16,17,18,19,20,21,22,23,24,25,26,27,28,29,30,31,32,33,34,35,36,37,38,39,40,41,42,43,44,45,46,47,48,49,50,51,52,53,54,55,56,57,58,59,60,61,62,63,64,65,66,67,68,69,70,71,72,73,74,75,76,77,78,79,80,81,82,83,84,85,86,87,88,90,91,92,93,94,95,96,97,98,99,100,101,102,103,104,105,106,107,108,109,110,111,112,115,116,117,118,119,120,121,122,123,124,125,126,127,128,129,131,132,133,134,135,136,137,138,139,140,141,142,143,144,145,146,147,148,149,150,151,152,153,154,155,156,157,158,159,160,161,162,163,164,165,166,167,168,169,170,171,172,173,174,175,176,177,178,179,180,181,182,183,184,185,186,187,188,189,190,191,192,193,194,195,196,197,198,199,200,201,202,203,204,205,206,207,208,209,210,211,212,213,1,53,88,96,191,196,203,42,53,76,90,149,2,59,87,94,190,211,2,14,98,140,190],"categories_nodes":[0,1,2,7,8,11,12,21,22,43,44,47,48,49,53,60,62,69,77,89,90,94,112,115,119,120],"categories_segments":[0,38,240,257,261,468,475,492,696,698,700,703,714,724,733,945,1157,1368,1581,1794,1795,1797,2007,2014,2019,2025],"categories_sizes":[38,202,17,4,207,7,17,204,2,2,3,11,10,9,212,212,211,213,213,1,2,210,7,5,6,5],"default_left":[1,0,1,0,0,0,0,1,0,0,0,1,1,0,0,0,0,0,0,0,0,0,1,0,0,0,0,0,0,0,0,0,0,0,0,0,0,0,0,0,0,0,0,1,1,0,0,1,1,1,0,0,0,0,0,0,0,0,0,0,0,0,0,0,0,0,0,0,0,0,0,0,0,0,0,0,0,0,0,0,0,0,0,0,0,0,0,0,0,1,1,0,0,0,0,0,0,0,0,0,0,0,0,0,0,0,0,0,0,0,0,0,1,0,0,1,0,0,0,1,1,0,0,0,0,0,0,0,0,0,0,0,0,0,0,0,0,0,0,0,0,0,0,0,0,0,0,0,0,0,0,0,0,0,0,0,0,0,0,0,0,0,0],"id":2,"left_children":[1,3,5,7,9,11,13,15,17,19,21,23,25,27,-1,29,-1,31,33,-1,35,37,39,41,43,45,47,49,51,-1,-1,53,-1,55,57,59,-1,61,63,65,67,-1,69,71,73,-1,-1,75,77,79,-1,-1,-1,81,-1,-1,-1,83,85,-1,87,89,91,93,95,97,-1,99,-1,101,103,105,-1,-1,107,109,111,113,115,117,119,-1,-1,-1,121,-1,-1,-1,123,125,127,-1,-1,129,131,-1,133,135,137,-1,-1,-1,-1,139,141,-1,-1,-1,-1,143,145,147,149,-1,151,153,155,-1,157,159,161,-1,-1,-1,-1,-1,-1,-1,-1,-1,-1,-1,-1,-1,-1,-1,-1,-1,-1,-1,-1,-1,-1,-1,-1,-1,-1,-1,-1,-1,-1,-1,-1,-1,-1,-1,-1,-1,-1,-1,-1,-1,-1],"loss_changes":[6.003124E2,1.0584631E2,2.1015979E2,4.9617737E1,1.5506485E1,4.1285572E1,3.8964874E1,4.295219E1,4.7065186E1,2.6565437E1,2.7745096E1,5.0361263E1,1.6956795E1,1.1239792E1,0E0,1.8441963E-1,0E0,6.498047E0,8.134598E0,0E0,8.550517E0,3.15776E1,4.746332E1,9.686005E0,1.2480862E1,2.4839613E0,8.422073E0,3.0983276E0,1.7569911E-1,0E0,0E0,2.1911621E-1,0E0,1.3784447E1,5.57666E0,2.7900577E0,0E0,1.9328308E0,5.7033615E1,2.297705E1,2.9761686E1,0E0,6.0853195E0,1.4899354E1,2.091442E0,0E0,0E0,2.4669136E1,2.3793468E1,1.1277557E1,0E0,0E0,0E0,6.929951E-1,0E0,0E0,0E0,3.8903046E0,5.0497323E-1,0E0,3.6453086E-1,2.1350517E0,1.9475021E0,1.6115856E1,1.8783897E1,1.396965E1,0E0,2.9612503E0,0E0,4.1477947E0,9.025827E0,3.695612E-1,0E0,0E0,1.6212215E0,5.02418E0,8.127975E0,1.598598E0,7.262991E0,8.298116E0,7.542114E-1,0E0,0E0,0E0,6.3393707E0,0E0,0E0,0E0,3.431833E-2,1.7092438E0,2.3344076E0,0E0,0E0,1.57297735E1,1.2077335E1,0E0,1.6672998E1,1.103749E0,1.1867142E1,0E0,0E0,0E0,0E0,8.093284E0,3.7370987E0,0E0,0E0,0E0,0E0,6.188545E0,3.293407E-1,2.828247E0,9.946899E0,0E0,8.7855554E-1,1.9921167E1,2.0364893E1,0E0,8.7996405E-1,2.6270523E0,1.2657871E1,0E0,0E0,0E0,0E0,0E0,0E0,0E0,0E0,0E0,0E0,0E0,0E0,0E0,0E0,0E0,0E0,0E0,0E0,0E0,0E0,0E0,0E0,0E0,0E0,0E0,0E0,0E0,0E0,0E0,0E0,0E0,0E0,0E0,0E0,0E0,0E0,0E0,0E0,0E0,0E0,0E0,0E0],"parents":[2147483647,0,0,1,1,2,2,3,3,4,4,5,5,6,6,7,7,8,8,9,9,10,10,11,11,12,12,13,13,15,15,17,17,18,18,20,20,21,21,22,22,23,23,24,24,25,25,26,26,27,27,28,28,31,31,33,33,34,34,35,35,37,37,38,38,39,39,40,40,42,42,43,43,44,44,47,47,48,48,49,49,53,53,57,57,58,58,60,60,61,61,62,62,63,63,64,64,65,65,67,67,69,69,70,70,71,71,74,74,75,75,76,76,77,77,78,78,79,79,80,80,84,84,88,88,89,89,90,90,93,93,94,94,96,96,97,97,98,98,103,103,104,104,109,109,110,110,111,111,112,112,114,114,115,115,116,116,118,118,119,119,120,120],"right_children":[2,4,6,8,10,12,14,16,18,20,22,24,26,28,-1,30,-1,32,34,-1,36,38,40,42,44,46,48,50,52,-1,-1,54,-1,56,58,60,-1,62,64,66,68,-1,70,72,74,-1,-1,76,78,80,-1,-1,-1,82,-1,-1,-1,84,86,-1,88,90,92,94,96,98,-1,100,-1,102,104,106,-1,-1,108,110,112,114,116,118,120,-1,-1,-1,122,-1,-1,-1,124,126,128,-1,-1,130,132,-1,134,136,138,-1,-1,-1,-1,140,142,-1,-1,-1,-1,144,146,148,150,-1,152,154,156,-1,158,160,162,-1,-1,-1,-1,-1,-1,-1,-1,-1,-1,-1,-1,-1,-1,-1,-1,-1,-1,-1,-1,-1,-1,-1,-1,-1,-1,-1,-1,-1,-1,-1,-1,-1,-1,-1,-1,-1,-1,-1,-1,-1,-1],"split_conditions":[1E-45,1E-45,1E-45,2E0,2.002E3,4E0,1.1E1,1E-45,1E-45,6E0,2.017E3,1E-45,1E-45,1E1,-7.088473E-2,2.001E3,-3.0890472E-2,2.024E3,2.001E3,5.0522745E-2,2.001E3,1E-45,1E-45,2.001E3,2.005E3,5E0,1E1,2.025E3,2.003E3,5.6606005E-3,2.1990292E-2,2.008E3,8.686665E-3,7E0,2.024E3,7E0,-2.1217935E-2,1E1,2.011E3,2.026E3,7E0,-1.0755631E-2,2.002E3,1E-45,1E-45,-4.3140426E-3,1.7685387E-2,1E-45,1E-45,1E-45,-5.8563534E-2,-9.972287E-3,-2.2267574E-3,1E-45,6.0832385E-2,-2.7424064E-2,2.612879E-2,3E0,4E0,2.7784003E-2,1E-45,6E0,1E-45,2.004E3,2.012E3,2E0,-2.107165E-2,4E0,2.4591658E-2,1E-45,2.006E3,3E0,-2.0776812E-2,-1.1734036E-2,2.024E3,8E0,2.007E3,1E-45,2.014E3,8E0,2.012E3,3.3937015E-2,7.6419883E-3,4.4307593E-2,4E0,-3.0103195E-3,7.5715585E-3,9.420655E-3,8E0,1E-45,1E-45,2.4002546E-2,1.2043534E-3,4E0,1E-45,-6.172433E-2,6E0,2.019E3,2.019E3,-1.0859767E-2,-5.5421136E-2,5.178205E-2,6.9290292E-3,2E0,2.016E3,2.9205931E-2,9.656055E-3,-2.8826805E-2,-4.181858E-3,2.015E3,9E0,2.001E3,1E-45,2.7306892E-2,1.1E1,1E-45,2.018E3,-2.3974035E-2,9E0,1E-45,1E-45,4.6492796E-3,2.8103163E-2,-3.7302967E-4,2.398666E-3,1.5567633E-2,-2.2432879E-3,1.3681643E-2,-5.4231957E-3,2.1830596E-2,-2.65481E-2,1.3645381E-2,-8.645809E-3,-3.6327127E-2,6.7863157E-3,8.305541E-3,-4.3905913E-3,4.295316E-2,2.0075481E-2,-2.6285497E-2,8.0791395E-3,2.7450735E-2,1.14239445E-2,1.8579146E-2,-8.440278E-3,-9.0729684E-4,-1.1178995E-2,-9.769459E-3,-3.5196997E-2,-9.645129E-3,-2.5134522E-2,1.2390973E-2,4.492458E-4,2.6809689E-2,-1.4977597E-2,-4.2304873E-2,-3.9819214E-3,-2.0907088E-3,1.2779703E-2,-1.0190176E-2,-4.9182333E-2,2.5603916E-3,-3.6801443E-2],"split_indices":[0,0,0,2,3,2,2,0,0,2,3,0,0,2,0,3,0,3,3,0,3,0,0,3,3,2,2,3,3,0,0,3,0,2,3,2,0,2,3,3,2,0,3,0,0,0,0,0,0,0,0,0,0,0,0,0,0,2,2,0,0,2,0,3,3,2,0,2,0,0,3,2,0,0,3,2,3,0,3,2,3,0,0,0,2,0,0,0,2,0,0,0,0,2,0,0,2,3,3,0,0,0,0,2,3,0,0,0,0,3,2,3,0,0,2,0,3,0,2,0,0,0,0,0,0,0,0,0,0,0,0,0,0,0,0,0,0,0,0,0,0,0,0,0,0,0,0,0,0,0,0,0,0,0,0,0,0,0,0,0,0,0,0],"split_type":[1,1,1,0,0,0,0,1,1,0,0,1,1,0,0,0,0,0,0,0,0,1,1,0,0,0,0,0,0,0,0,0,0,0,0,0,0,0,0,0,0,0,0,1,1,0,0,1,1,1,0,0,0,1,0,0,0,0,0,0,1,0,1,0,0,0,0,0,0,1,0,0,0,0,0,0,0,1,0,0,0,0,0,0,0,0,0,0,0,1,1,0,0,0,1,0,0,0,0,0,0,0,0,0,0,0,0,0,0,0,0,0,1,0,0,1,0,0,0,1,1,0,0,0,0,0,0,0,0,0,0,0,0,0,0,0,0,0,0,0,0,0,0,0,0,0,0,0,0,0,0,0,0,0,0,0,0,0,0,0,0,0,0],"sum_hessian":[3.91E2,2.09E2,1.82E2,8.6E1,1.23E2,1.4E2,4.2E1,1.3E1,7.3E1,1.1E1,1.12E2,4.4E1,9.6E1,3.2E1,1E1,9E0,4E0,1.8E1,5.5E1,4E0,7E0,6.1E1,5.1E1,2.5E1,1.9E1,4E0,9.2E1,2.9E1,3E0,1E0,8E0,1.7E1,1E0,2E0,5.3E1,6E0,1E0,2.1E1,4E1,4.7E1,4E0,2E0,2.3E1,5E0,1.4E1,1E0,3E0,6.2E1,3E1,2.6E1,3E0,1E0,2E0,3E0,1.4E1,1E0,1E0,5.1E1,2E0,1E0,5E0,1.4E1,7E0,3.1E1,9E0,4.5E1,2E0,3E0,1E0,2E0,2.1E1,3E0,2E0,6E0,8E0,1E1,5.2E1,6E0,2.4E1,7E0,1.9E1,2E0,1E0,5E0,4.6E1,1E0,1E0,2E0,3E0,1E1,4E0,6E0,1E0,6E0,2.5E1,3E0,6E0,5E0,4E1,1E0,2E0,1E0,1E0,5E0,1.6E1,1E0,2E0,7E0,1E0,6E0,4E0,1.4E1,3.8E1,1E0,5E0,1.3E1,1.1E1,5E0,2E0,1E1,9E0,3E0,4.3E1,1E0,2E0,9E0,1E0,1E0,3E0,1E0,5E0,1.9E1,6E0,3E0,3E0,1E0,4E0,6E0,3.4E1,1E0,4E0,7E0,9E0,4E0,2E0,1E0,3E0,2E0,1.2E1,1.8E1,2E1,3E0,2E0,2E0,1.1E1,5E0,6E0,1E0,1E0,1E0,9E0,2E0,7E0],"tree_param":{"num_deleted":"0","num_feature":"5","num_nodes":"163","size_leaf_vector":"1"}},{"base_weights":[3.0035123E-1,1.4425308E0,-1.0931262E0,2.037068E0,6.347881E-1,-4.0815082E-1,-2.4905233E0,5.513833E-2,1.886145E0,6.9719666E-1,-2.209951E-2,-3.1966662E-1,-2.0950623E0,-1.9872853E0,-7.386419E-2,4.0859077E-2,1.6199269E0,4.1914767E-1,1.0959228E0,-2.858305E-2,-8.151822E-1,-6.8695513E-3,-2.3235538E0,-2.3963062E-1,-2.1681075E0,5.3509665E-1,1.9352131E0,8.8118345E-1,-4.7967777E-1,-4.030885E-1,1.389584E0,-4.5450467E-1,8.079779E-1,-1.5142208E0,-4.0139598E-1,-3.817055E-2,-7.4385144E-3,8.7862587E-1,-2.38084E-2,-2.3859038E0,-1.1236706E0,2.8043098E0,-8.621043E-1,2.932982E0,1.4277294E0,2.2438526E0,5.011017E-1,-2.580428E0,3.9260083E-1,1.2099129E0,-1.2902716E0,2.1489832E0,4.9587327E-1,7.6291494E-2,-7.994148E-1,1.2089193E0,-8.368026E-2,-8.3684236E-1,-3.267581E-2,1.4784143E0,-7.613022E-1,1.5384453E-2,2.2675784E-3,-2.4425416E0,-2.0934874E-3,-2.317449E-2,-3.9930906E-2,2.4950981E-1,3.4986084E0,1.7174995E-2,-1.4745748E0,3.2785676E0,-8.350322E-3,4.9802864E-1,2.4528913E0,5.3717557E-2,6.105458E-1,8.8221663E-1,-7.048809E-1,-1.4548076E0,-5.919445E-2,-2.8579503E-1,6.652716E-1,2.4459697E-2,1.715561E-3,1.8478453E-3,-2.4185373E-2,2.4609716E0,-2.0500591E-2,1.416106E-1,4.1896507E-2,-7.235151E-1,5.278744E-1,-2.2992688E-1,-1.5702498E0,3.2259613E-2,5.086199E-1,-5.417444E-1,9.004591E-3,-3.7375966E-1,-1.5623657E-2,-6.7790053E-3,3.004285E-2,3.5963237E-2,-1.0008166E0,-1.8680416E0,-2.7913015E0,5.950924E-3,-2.8000975E-1,-3.9185962E-4,5.7897554E-3,5.7034303E-2,5.504521E-3,-1.3536332E-2,-3.9948106E-2,5.1200934E-2,2.3733683E-2,-2.1693693E-2,9.055875E-3,1.671639E-2,3.7247054E-2,1.7389612E-2,-1.2764975E-2,-7.3191747E-3,1.9811569E-2,8.682303E-3,-2.3211863E-2,-2.5408335E-2,-9.562011E-3,2.1570951E-3,-9.0269735E-3,1.9229092E-2,3.5785672E-3,4.433022E-2,7.1875514E-3,1.1339399E-2,-1.3792992E-2,6.872166E-3,-1.734944E-2,2.0124452E-2,-1.5733002E-3,-8.968556E-3,1.4304264E-2,-3.6951177E-2,-9.088306E-3,1.2635216E-2,-2.6107717E-3,-3.0837802E-3,-1.5730748E-2,-1.814179E-2,2.3326303E-3,-9.814213E-3,-3.0028487E-2,-4.7073152E-2,-1.926599E-2,-1.6841294E-2,-4.3225173E-2,-5.7456633E-3,-9.851498E-4],"categories":[1,2,3,4,5,6,7,8,9,10,12,13,14,15,16,17,18,19,20,21,22,23,24,25,26,27,28,29,30,31,32,33,34,35,36,37,40,41,42,44,45,46,48,49,50,51,52,53,54,55,56,57,58,59,61,62,63,64,66,67,68,69,70,71,72,74,75,76,77,78,79,81,82,83,86,87,90,92,93,94,95,96,97,98,99,100,101,102,103,104,105,106,107,108,109,110,111,112,115,116,117,118,119,120,121,122,124,125,126,127,129,130,131,133,134,137,138,139,140,141,142,143,145,146,148,149,151,152,153,154,156,157,158,159,160,161,162,163,164,165,166,168,169,170,172,173,174,175,176,177,178,180,181,184,185,186,187,188,190,191,192,193,194,195,196,197,198,199,200,201,202,203,204,205,206,208,209,210,211,212,213,0,1,2,3,4,5,6,7,8,9,10,11,12,13,14,15,16,17,18,19,20,21,22,23,24,25,26,27,28,29,30,31,32,33,34,35,36,37,40,41,42,43,44,45,46,48,49,50,51,52,53,54,55,56,57,58,59,61,62,63,64,66,67,68,69,70,71,72,73,74,75,76,77,78,79,81,82,83,85,86,87,88,89,90,91,92,93,94,95,96,97,98,99,100,101,102,103,104,105,106,107,108,109,110,111,112,113,114,115,116,117,118,119,120,121,122,124,125,126,127,129,130,131,133,134,135,136,137,138,139,140,141,142,143,144,145,146,147,148,149,151,152,153,154,156,157,158,159,160,161,162,163,164,165,166,167,168,169,170,172,173,174,175,176,177,178,180,181,182,184,185,186,187,188,190,191,192,193,194,195,196,197,198,199,200,201,202,203,204,205,206,207,208,209,210,211,212,213,14,27,58,74,87,94,99,140,146,153,158,164,180,190,191,192,196,209,213,0,1,2,3,4,5,6,7,8,9,10,11,12,13,14,15,16,17,18,19,20,21,22,23,24,25,26,27,28,29,30,31,32,33,34,35,36,37,38,39,40,41,42,43,44,45,46,48,49,50,51,52,53,54,55,56,57,58,59,60,61,62,63,64,65,66,67,68,69,70,71,72,73,74,75,76,77,78,79,80,81,82,83,85,86,87,88,89,90,91,92,93,94,95,96,97,98,99,100,101,102,103,104,105,106,107,108,109,110,111,112,113,114,115,116,117,118,119,120,121,122,123,124,125,126,127,129,130,131,132,133,134,135,136,137,138,139,140,141,142,143,144,145,146,147,148,149,150,151,152,153,154,155,156,157,158,159,160,161,162,163,164,165,166,167,168,169,170,171,172,173,174,175,176,177,178,179,180,181,182,184,185,186,187,188,190,191,192,193,194,195,196,197,198,199,200,201,202,203,204,205,206,207,208,209,210,211,212,213,2,7,42,46,68,76,130,149,159,193,212,96,149,202,14,87,89,0,1,2,3,4,5,6,7,8,9,10,11,12,13,14,15,16,17,18,19,20,21,22,23,24,25,26,27,28,29,30,31,32,33,34,35,36,37,38,39,40,41,42,43,44,45,46,47,48,49,50,51,52,53,54,55,56,57,58,59,60,61,62,63,64,65,66,67,68,69,70,71,72,73,74,75,76,77,78,79,80,81,82,83,84,85,86,87,88,90,91,92,93,94,95,96,97,98,99,100,101,102,103,104,105,106,107,108,109,110,111,112,113,114,115,116,117,118,119,120,121,122,123,124,125,126,127,128,129,130,131,132,133,134,135,136,137,138,139,140,141,142,143,145,146,147,148,149,150,151,152,153,154,155,156,157,158,159,160,161,162,163,164,165,166,167,168,169,170,171,172,173,174,175,176,177,178,179,180,181,182,183,184,185,186,187,188,189,190,191,192,193,194,195,196,197,198,199,200,201,202,203,204,205,206,208,209,210,211,212,213,0,1,2,3,4,5,6,7,8,9,10,11,12,13,14,15,16,17,18,19,20,21,22,23,24,25,26,27,28,29,30,31,32,33,34,35,36,37,38,39,40,41,42,43,44,45,46,47,48,49,50,51,52,53,54,55,56,57,58,59,60,61,62,63,64,65,66,67,68,69,70,71,72,73,74,75,76,77,78,79,80,81,82,83,84,85,86,87,88,89,91,92,93,94,95,97,98,99,100,101,103,104,105,106,107,108,109,110,111,112,113,114,115,116,117,118,119,120,121,122,123,124,125,126,127,128,129,130,131,132,133,134,135,136,137,138,139,140,141,142,143,144,145,146,147,148,149,150,151,152,153,154,155,156,157,158,159,160,161,162,163,164,165,166,167,168,169,170,171,172,173,174,175,176,177,178,179,180,181,182,183,184,185,186,187,188,189,190,191,192,193,194,195,196,197,198,199,200,201,202,203,204,205,206,207,208,209,210,211,212,213,46,76,212,2,7,68,76,130,149,159,193,0,1,2,3,4,5,6,7,8,9,10,11,12,13,14,15,16,17,18,19,20,21,22,23,24,25,26,27,28,29,30,31,32,33,34,35,36,37,38,39,40,41,42,43,44,45,46,47,48,49,50,51,52,53,54,55,56,57,58,59,60,61,62,63,64,65,66,67,68,69,70,71,72,73,74,75,76,77,78,79,80,81,82,83,84,85,86,87,88,89,90,91,92,93,94,95,96,97,98,99,100,101,102,103,104,105,106,107,108,109,110,111,112,113,114,115,116,117,118,119,120,121,122,123,124,125,126,127,128,129,130,131,132,133,134,135,136,137,138,139,140,141,142,143,144,145,146,147,148,149,150,151,152,153,154,155,156,157,159,160,161,162,163,164,165,166,167,168,169,170,171,172,173,174,175,176,177,178,179,180,181,182,183,184,185,186,187,188,189,190,191,192,193,194,195,196,197,198,199,200,201,202,203,204,205,206,207,208,210,211,212,213,158,190,213,39,123,150,0,1,2,3,4,5,6,7,8,9,10,11,12,13,14,15,16,17,18,19,20,21,22,23,24,25,26,27,28,29,30,31,32,33,34,35,36,37,38,39,40,41,42,43,44,45,46,47,48,49,50,51,52,53,54,55,56,57,58,59,60,61,62,63,64,65,66,67,68,69,70,71,72,73,74,75,76,77,78,79,80,81,82,83,84,85,86,87,90,91,92,93,94,95,96,97,98,99,100,101,102,103,104,105,106,107,108,109,110,111,112,113,114,115,116,117,118,119,120,121,122,123,124,125,126,127,128,129,130,131,132,133,134,135,136,137,138,139,140,141,142,143,145,146,147,148,149,150,151,152,153,154,155,156,157,158,159,160,161,162,163,164,165,166,167,168,169,170,171,172,173,174,175,176,177,178,179,180,181,182,183,184,185,186,187,188,189,190,191,192,193,194,195,196,197,198,199,200,201,202,203,204,205,206,207,208,209,210,211,212,213,0,88,144,144,0,1,2,3,4,5,6,7,8,9,10,11,12,13,14,15,16,17,18,19,20,21,22,23,24,25,26,27,28,29,30,31,32,33,34,35,36,37,38,39,40,41,42,43,44,45,46,47,48,49,50,51,52,53,54,55,56,57,58,59,60,61,62,63,64,65,66,67,68,69,70,71,72,73,74,75,76,77,78,79,80,81,82,83,84,85,86,87,88,89,90,91,92,93,94,95,96,97,98,99,100,101,102,103,104,105,106,107,108,109,110,111,112,113,114,115,116,117,118,119,120,121,122,123,124,125,126,127,128,129,130,131,132,133,134,135,136,137,138,139,140,141,142,143,145,146,147,148,149,150,151,152,153,154,155,156,157,158,159,160,161,162,163,164,165,166,167,168,169,170,171,172,173,174,175,176,177,178,179,180,181,182,183,184,185,186,187,188,189,190,191,192,193,194,195,196,197,198,199,200,201,202,203,204,205,206,207,208,209,210,211,212,213,90,7,42,159,14,58,140,158,180,190,191,87,191,192,123,150,0,1,2,3,4,5,6,7,8,9,10,11,12,13,14,15,16,17,18,19,20,21,22,23,24,25,26,27,28,29,30,31,32,33,34,35,36,37,40,41,42,43,44,45,46,47,48,49,50,51,52,53,54,55,56,57,58,59,60,61,62,63,64,65,66,67,68,69,70,71,72,73,74,75,76,77,78,79,80,81,82,83,84,85,86,87,88,89,90,91,92,93,94,95,96,97,98,99,100,101,102,103,104,105,106,107,108,109,110,111,112,113,114,115,116,117,118,119,120,121,122,123,124,125,126,127,128,129,130,131,133,134,135,136,137,138,139,140,141,142,143,144,145,146,147,148,149,151,152,153,154,155,156,157,158,159,160,161,162,163,164,165,166,167,168,169,170,171,172,173,174,175,176,177,178,179,180,181,182,183,184,185,186,187,188,189,190,191,192,193,194,195,196,197,198,199,200,201,202,203,204,205,206,207,208,209,210,211,212,213,207,1,2,3,4,5,6,7,8,9,10,11,12,13,14,15,16,17,18,19,20,21,22,23,24,25,26,27,28,29,30,31,32,33,34,35,36,37,38,39,40,41,42,43,44,45,46,47,48,49,50,51,52,53,54,55,56,57,58,59,60,61,62,63,64,65,66,67,68,69,70,71,72,73,74,75,76,77,78,79,80,81,82,83,84,85,86,87,88,89,90,91,92,93,94,95,96,97,98,99,100,101,102,103,104,105,106,107,108,109,110,111,112,113,114,115,116,117,118,119,120,121,122,123,124,125,126,127,128,129,130,131,132,133,134,136,137,138,139,140,141,142,143,144,145,146,147,148,149,150,151,152,153,154,155,156,157,158,159,160,161,162,163,164,165,166,167,168,169,170,171,172,173,174,175,176,177,178,179,180,181,182,183,184,185,186,187,188,189,190,191,192,193,194,195,196,197,198,199,200,201,202,203,204,205,206,207,208,209,210,211,212,213,90,202,96,21],"categories_nodes":[0,1,2,3,11,12,23,29,30,32,33,34,37,40,42,45,46,47,49,54,57,63,65,70,71,76,82,91,96,97],"categories_segments":[0,181,379,398,607,618,621,623,624,835,1046,1049,1057,1269,1272,1275,1486,1489,1490,1703,1704,1707,1714,1717,1719,1929,1930,2142,2144,2145],"categories_sizes":[181,198,19,209,11,3,2,1,211,211,3,8,212,3,3,211,3,1,213,1,3,7,3,2,210,1,212,2,1,1],"default_left":[0,0,1,0,0,0,0,0,0,0,0,1,1,0,0,0,0,0,0,0,0,0,0,1,0,0,0,0,0,1,0,0,0,1,1,0,0,0,0,0,1,0,1,0,0,0,1,1,0,0,0,0,0,0,1,0,0,1,0,0,0,0,0,1,0,1,0,0,0,0,1,0,0,0,0,0,1,0,0,0,0,0,0,0,0,0,0,0,0,0,0,1,0,0,0,0,1,1,0,0,0,0,0,0,0,0,0,0,0,0,0,0,0,0,0,0,0,0,0,0,0,0,0,0,0,0,0,0,0,0,0,0,0,0,0,0,0,0,0,0,0,0,0,0,0,0,0,0,0,0,0,0,0,0,0,0,0,0,0],"id":3,"left_children":[1,3,5,7,9,11,13,-1,15,17,-1,19,21,23,-1,-1,25,27,29,31,33,-1,35,37,39,41,43,45,47,49,51,53,55,57,59,-1,-1,61,-1,63,65,67,69,71,73,75,77,79,81,83,85,87,89,91,93,95,97,99,-1,101,103,-1,-1,105,-1,107,-1,109,111,-1,113,115,-1,117,119,-1,121,123,125,127,-1,129,131,-1,-1,-1,-1,133,-1,135,-1,137,139,141,143,-1,145,147,-1,149,-1,-1,-1,-1,151,153,155,-1,157,-1,-1,-1,-1,-1,-1,-1,-1,-1,-1,-1,-1,-1,-1,-1,-1,-1,-1,-1,-1,-1,-1,-1,-1,-1,-1,-1,-1,-1,-1,-1,-1,-1,-1,-1,-1,-1,-1,-1,-1,-1,-1,-1,-1,-1,-1,-1,-1,-1,-1],"loss_changes":[6.461754E2,1.0579883E2,1.7414793E2,2.7290771E1,1.4051662E1,1.7839142E1,6.925961E1,0E0,2.5658386E1,9.961994E0,0E0,1.7140839E1,1.112524E0,1.5913239E1,0E0,0E0,3.179953E1,2.4094189E1,1.7287777E1,2.7446743E1,1.211931E1,0E0,1.5547447E0,1.0918447E1,8.01033E0,7.534018E1,3.32825E1,1.8556782E1,3.7661865E1,1.1578311E1,2.065224E1,9.397914E0,9.396231E0,6.24741E0,2.0745625E1,0E0,0E0,3.7495947E-1,0E0,4.4680786E0,1.8038456E1,1.5091217E1,2.0616428E1,3.102652E1,4.7386192E1,1.7073116E1,1.4870016E1,4.3206596E0,2.964812E0,1.3889227E0,2.9567995E0,2.2434738E1,1.32435255E1,7.966685E0,1.3247374E1,1.181831E1,3.2570822E0,7.362857E-1,0E0,6.869358E0,2.198499E1,0E0,0E0,2.1991577E0,0E0,8.990067E-1,0E0,1.3701013E-1,8.437477E0,0E0,5.7318363E0,3.9106903E0,0E0,8.224656E0,1.0325317E0,0E0,5.5178285E0,1.7087399E1,1.0425579E1,4.702282E-2,0E0,8.3392E-1,2.7343364E0,0E0,0E0,0E0,0E0,1.7707504E1,0E0,1.13681555E1,0E0,5.175541E0,7.887733E0,9.71401E0,1.0506424E1,0E0,3.1994488E0,8.4689784E-1,0E0,2.5706055E0,0E0,0E0,0E0,0E0,6.895941E0,8.2690735E0,3.5148468E0,0E0,9.808302E-2,0E0,0E0,0E0,0E0,0E0,0E0,0E0,0E0,0E0,0E0,0E0,0E0,0E0,0E0,0E0,0E0,0E0,0E0,0E0,0E0,0E0,0E0,0E0,0E0,0E0,0E0,0E0,0E0,0E0,0E0,0E0,0E0,0E0,0E0,0E0,0E0,0E0,0E0,0E0,0E0,0E0,0E0,0E0,0E0,0E0,0E0,0E0,0E0,0E0,0E0],"parents":[2147483647,0,0,1,1,2,2,3,3,4,4,5,5,6,6,8,8,9,9,11,11,12,12,13,13,16,16,17,17,18,18,19,19,20,20,22,22,23,23,24,24,25,25,26,26,27,27,28,28,29,29,30,30,31,31,32,32,33,33,34,34,37,37,39,39,40,40,41,41,42,42,43,43,44,44,45,45,46,46,47,47,48,48,49,49,50,50,51,51,52,52,53,53,54,54,55,55,56,56,57,57,59,59,60,60,63,63,65,65,67,67,68,68,70,70,71,71,73,73,74,74,76,76,77,77,78,78,79,79,81,81,82,82,87,87,89,89,91,91,92,92,93,93,94,94,96,96,97,97,99,99,104,104,105,105,106,106,108,108],"right_children":[2,4,6,8,10,12,14,-1,16,18,-1,20,22,24,-1,-1,26,28,30,32,34,-1,36,38,40,42,44,46,48,50,52,54,56,58,60,-1,-1,62,-1,64,66,68,70,72,74,76,78,80,82,84,86,88,90,92,94,96,98,100,-1,102,104,-1,-1,106,-1,108,-1,110,112,-1,114,116,-1,118,120,-1,122,124,126,128,-1,130,132,-1,-1,-1,-1,134,-1,136,-1,138,140,142,144,-1,146,148,-1,150,-1,-1,-1,-1,152,154,156,-1,158,-1,-1,-1,-1,-1,-1,-1,-1,-1,-1,-1,-1,-1,-1,-1,-1,-1,-1,-1,-1,-1,-1,-1,-1,-1,-1,-1,-1,-1,-1,-1,-1,-1,-1,-1,-1,-1,-1,-1,-1,-1,-1,-1,-1,-1,-1,-1,-1,-1,-1],"split_conditions":[1E-45,1E-45,1E-45,1E-45,2.026E3,2.025E3,1.1E1,5.513833E-2,2.006E3,9E0,-2.209951E-2,1E-45,1E-45,2.001E3,-7.386419E-2,4.0859077E-2,2.012E3,6E0,2.003E3,2.015E3,2.007E3,-6.8695513E-3,8E0,1E-45,2.023E3,6E0,2.016E3,2.003E3,7E0,1E-45,1E-45,2.004E3,1E-45,1E-45,1E-45,-3.817055E-2,-7.4385144E-3,1E-45,-2.38084E-2,1E1,1E-45,2E0,1E-45,1.2E1,9E0,1E-45,1E-45,1E-45,2.005E3,1E-45,2.001E3,2.023E3,2.024E3,2.002E3,1E-45,5E0,2.022E3,1E-45,-3.267581E-2,2.009E3,2.008E3,1.5384453E-2,2.2675784E-3,1E-45,-2.0934874E-3,1E-45,-3.9930906E-2,2.01E3,2.011E3,1.7174995E-2,1E-45,1E-45,-8.350322E-3,2.017E3,2.017E3,5.3717557E-2,1E-45,2E0,2.014E3,2.012E3,-5.919445E-2,2.001E3,1E-45,2.4459697E-2,1.715561E-3,1.8478453E-3,-2.4185373E-2,1.2E1,-2.0500591E-2,2.01E3,4.1896507E-2,1E-45,2.003E3,8E0,2.01E3,3.2259613E-2,1E-45,1E-45,9.004591E-3,4E0,-1.5623657E-2,-6.7790053E-3,3.004285E-2,3.5963237E-2,2.022E3,2.004E3,2.004E3,5.950924E-3,4E0,-3.9185962E-4,5.7897554E-3,5.7034303E-2,5.504521E-3,-1.3536332E-2,-3.9948106E-2,5.1200934E-2,2.3733683E-2,-2.1693693E-2,9.055875E-3,1.671639E-2,3.7247054E-2,1.7389612E-2,-1.2764975E-2,-7.3191747E-3,1.9811569E-2,8.682303E-3,-2.3211863E-2,-2.5408335E-2,-9.562011E-3,2.1570951E-3,-9.0269735E-3,1.9229092E-2,3.5785672E-3,4.433022E-2,7.1875514E-3,1.1339399E-2,-1.3792992E-2,6.872166E-3,-1.734944E-2,2.0124452E-2,-1.5733002E-3,-8.968556E-3,1.4304264E-2,-3.6951177E-2,-9.088306E-3,1.2635216E-2,-2.6107717E-3,-3.0837802E-3,-1.5730748E-2,-1.814179E-2,2.3326303E-3,-9.814213E-3,-3.0028487E-2,-4.7073152E-2,-1.926599E-2,-1.6841294E-2,-4.3225173E-2,-5.7456633E-3,-9.851498E-4],"split_indices":[0,0,0,0,3,3,2,0,3,2,0,0,0,3,0,0,3,2,3,3,3,0,2,0,3,2,3,3,2,0,0,3,0,0,0,0,0,0,0,2,0,2,0,2,2,0,0,0,3,0,3,3,3,3,0,2,3,0,0,3,3,0,0,0,0,0,0,3,3,0,0,0,0,3,3,0,0,2,3,3,0,3,0,0,0,0,0,2,0,3,0,0,3,2,3,0,0,0,0,2,0,0,0,0,3,3,3,0,2,0,0,0,0,0,0,0,0,0,0,0,0,0,0,0,0,0,0,0,0,0,0,0,0,0,0,0,0,0,0,0,0,0,0,0,0,0,0,0,0,0,0,0,0,0,0,0,0,0,0],"split_type":[1,1,1,1,0,0,0,0,0,0,0,1,1,0,0,0,0,0,0,0,0,0,0,1,0,0,0,0,0,1,1,0,1,1,1,0,0,1,0,0,1,0,1,0,0,1,1,1,0,1,0,0,0,0,1,0,0,1,0,0,0,0,0,1,0,1,0,0,0,0,1,1,0,0,0,0,1,0,0,0,0,0,1,0,0,0,0,0,0,0,0,1,0,0,0,0,1,1,0,0,0,0,0,0,0,0,0,0,0,0,0,0,0,0,0,0,0,0,0,0,0,0,0,0,0,0,0,0,0,0,0,0,0,0,0,0,0,0,0,0,0,0,0,0,0,0,0,0,0,0,0,0,0,0,0,0,0,0,0],"sum_hessian":[4.04E2,2.22E2,1.82E2,1.27E2,9.5E1,1.23E2,5.9E1,8E0,1.19E2,9.3E1,2E0,1.18E2,5E0,5.1E1,8E0,2.4E1,9.5E1,5.6E1,3.7E1,7.5E1,4.3E1,1E0,4E0,5E0,4.6E1,2.2E1,7.3E1,3.7E1,1.9E1,6E0,3.1E1,5E1,2.5E1,1.5E1,2.8E1,3E0,1E0,3E0,2E0,3.7E1,9E0,8E0,1.4E1,2.3E1,5E1,7E0,3E1,5E0,1.4E1,2E0,4E0,1.6E1,1.5E1,2E1,3E1,1.7E1,8E0,9E0,6E0,4E0,2.4E1,2E0,1E0,3.6E1,1E0,6E0,3E0,2E0,6E0,3E0,1.1E1,2.1E1,2E0,2.7E1,2.3E1,3E0,4E0,2.3E1,7E0,4E0,1E0,4E0,1E1,1E0,1E0,1E0,3E0,1.5E1,1E0,1.4E1,1E0,7E0,1.3E1,1.8E1,1.2E1,6E0,1.1E1,5E0,3E0,4E0,5E0,1E0,3E0,1E0,2.3E1,1.6E1,2E1,2E0,4E0,1E0,1E0,5E0,1E0,9E0,2E0,1.7E1,4E0,1E0,2.6E1,3E0,2E1,3E0,1E0,6E0,1.7E1,3E0,4E0,2E0,2E0,2E0,2E0,3E0,7E0,1.1E1,4E0,9E0,5E0,2E0,5E0,5E0,8E0,1.4E1,4E0,5E0,7E0,7E0,4E0,4E0,1E0,1E0,3E0,1.9E1,4E0,3E0,1.3E1,3E0,1.7E1,2E0,2E0],"tree_param":{"num_deleted":"0","num_feature":"5","num_nodes":"159","size_leaf_vector":"1"}},{"base_weights":[2.7154693E-2,8.597051E-1,-1.8224216E0,1.8208045E0,1.6081241E-1,-1.1917443E0,-3.9973326E0,5.3138718E-2,1.5860102E0,5.3593296E-1,-1.0029023E-1,-1.2889646E0,8.3545667E-1,-2.9685738E0,-5.7250085E0,2.1960814E0,1.3403785E0,7.107949E-1,-1.0144651E0,1.0914791E0,-3.775832E-1,-9.33402E-1,-1.9585102E0,1.0531988E0,-2.5608868E-4,-1.1513411E-2,-3.1769438E0,-4.1111108E-2,-9.644744E-2,3.532823E-2,5.404872E-1,-9.997921E-2,1.8222518E0,-6.2317133E-2,1.139681E0,2.5963497E-1,-2.9349392E-2,1.8405489E0,-4.7124423E-2,-6.935626E-1,1.0938643E0,-6.727611E-1,-1.1420634E0,-2.4836054E0,-1.3799844E0,2.0335265E-2,6.696406E-3,-3.8967667E0,-2.283391E0,2.578956E-1,1.2049084E-2,-1.2003171E-2,-1.2775051E-2,1.4938343E0,2.211583E0,1.1078409E0,-9.5764506E-1,2.3931193E0,7.794491E-1,1.2601355E-2,-2.362992E-1,3.341741E-2,1.074466E0,1.9281387E-4,-1.1098207E0,1.7743765E0,-1.0510103E0,1.1021454E0,-9.8821384E-1,-1.7007294E-1,-2.0468738E0,-1.2747701E0,-4.2698972E-2,-7.054431E-1,-3.6043253E-2,-6.276452E-2,-5.131257E-3,1.3474005E-3,-3.6891192E-2,9.207164E-3,-1.1787196E-3,3.551056E-3,-3.8799797E-3,1.6783801E0,1.0156353E0,2.870874E0,1.7712351E0,2.7188089E-2,2.7548957E-1,1.4398997E-3,-1.2848729E0,1.1154108E-2,4.630098E-2,-9.418184E-3,1.0158513E0,-6.3228603E-3,1.210763E-3,1.7267939E-2,1.5488836E-3,8.376707E-1,-6.1397046E-1,-8.982965E-1,-2.410831E0,4.3375727E-2,1.6819611E-2,-1.566569E-1,-2.6927628E-2,-2.0788185E-2,3.026394E-2,-5.5667835E-1,-1.7414832E0,-1.0828025E0,9.920981E-1,-1.1751018E0,-3.6627866E-2,-3.2216543E-4,-2.1933839E-2,4.982841E-2,-2.5568344E-2,1.8997742E-2,3.5799194E-2,1.5704232E-4,2.9113123E-2,2.507915E-2,5.1462386E-2,1.3147277E-2,2.8349578E-2,9.373212E-3,-4.5510274E-3,-3.4234107E-2,-6.910934E-3,1.6751273E-2,-1.9974178E-2,8.520219E-4,1.4482205E-2,-2.9877407E-2,-1.1097296E-3,1.5214055E-3,-1.5339947E-2,-2.6410413E-3,-4.2142745E-2,5.421829E-4,-3.9312984E-3,1.4691967E-4,-1.6220817E-2,-1.048924E-2,-3.4721065E-2,6.3203964E-3,-2.5921514E-2,3.8375475E-2,-7.806456E-3,-2.0050578E-2,-5.093788E-3,6.537493E-3,-4.0801405E-3],"categories":[0,2,7,14,15,21,23,25,27,42,53,56,57,58,68,74,76,78,86,87,98,99,102,144,146,147,149,159,164,180,190,191,192,193,207,209,211,212,0,1,2,3,4,5,6,7,8,9,10,11,12,13,14,15,16,17,18,19,20,21,22,23,24,25,26,27,28,29,30,31,32,33,34,35,36,37,40,41,42,43,44,45,46,48,49,50,51,52,53,54,55,56,57,58,59,61,62,63,64,66,67,68,69,70,71,72,73,74,75,76,77,78,79,81,82,83,85,86,87,88,89,90,91,92,93,94,95,96,97,98,99,100,101,102,103,104,105,106,107,108,109,110,111,112,113,114,116,117,118,119,120,121,122,123,124,125,126,127,129,130,131,132,133,134,136,137,138,139,140,141,142,143,144,145,146,147,148,149,151,152,153,154,155,156,157,158,159,160,161,162,163,164,165,166,167,168,169,170,171,172,173,174,175,176,177,178,179,180,181,182,184,185,186,187,188,190,191,192,193,194,195,196,197,198,199,200,201,202,203,204,205,206,207,208,209,210,211,212,213,14,15,56,78,99,147,164,180,190,192,207,211,0,1,2,3,4,5,6,7,8,9,10,11,12,13,14,15,16,17,18,19,20,21,22,23,24,25,26,27,28,29,30,31,32,33,34,35,36,37,39,40,41,42,43,44,45,46,48,49,50,51,52,53,54,55,56,57,58,59,60,61,62,63,64,65,66,67,68,69,70,71,72,73,74,75,76,77,78,79,80,81,82,83,85,86,87,88,89,90,91,92,93,94,95,96,97,98,99,100,101,102,103,104,105,106,107,108,109,110,111,112,113,114,115,116,117,118,119,120,121,122,123,124,125,126,127,129,130,131,132,133,134,136,137,138,139,140,141,142,143,144,145,146,147,148,149,150,151,152,153,154,155,156,157,158,159,160,161,162,163,164,165,166,167,168,169,170,171,172,173,174,175,176,177,178,179,180,181,182,184,185,186,187,188,189,190,191,192,193,194,195,196,197,198,199,200,201,202,203,204,205,206,207,208,209,210,211,212,213,0,1,2,3,4,5,6,7,8,9,10,11,12,13,14,15,16,17,18,19,20,21,22,23,24,25,26,27,28,29,30,31,32,33,34,35,36,37,38,39,40,41,42,44,45,47,48,49,50,51,52,53,54,55,56,57,58,59,60,61,62,63,64,65,66,67,68,69,70,71,72,74,75,76,77,78,79,80,81,82,83,84,85,86,87,88,90,92,93,94,95,96,97,98,99,100,101,102,103,104,105,106,107,108,109,110,111,112,113,114,115,116,117,118,119,120,121,122,124,125,126,127,128,129,130,131,132,133,134,135,137,138,139,140,141,142,143,144,145,146,147,148,149,150,151,152,153,154,155,156,157,159,160,161,162,163,164,165,166,167,168,169,170,171,172,173,174,175,176,177,178,179,180,181,182,183,184,185,186,187,188,189,190,191,192,193,194,195,196,197,198,199,200,201,202,203,204,205,206,207,208,209,210,211,212,213,2,21,25,27,74,87,146,149,209,212,191,14,147,180,190,192,211,14,15,99,164,207,0,1,2,3,4,5,6,7,8,9,10,11,12,13,14,15,16,17,18,19,20,21,22,23,24,25,26,27,28,29,30,31,32,33,34,35,36,37,38,40,41,42,43,44,45,46,47,48,49,50,51,52,53,54,55,56,57,58,59,61,62,63,64,66,67,68,69,70,71,72,73,74,75,76,77,78,79,81,82,83,84,85,86,87,88,89,90,91,92,93,94,95,96,97,98,99,100,101,102,103,104,105,106,107,108,109,110,111,112,113,114,115,116,117,118,119,120,121,122,123,124,125,126,127,128,129,130,131,132,133,134,135,136,137,138,139,140,141,142,143,144,145,146,147,148,149,150,151,152,153,154,155,156,157,158,159,160,161,162,163,164,165,166,167,168,169,170,171,172,173,174,175,176,177,178,179,180,181,182,183,184,185,186,187,188,190,191,192,193,194,195,196,197,198,199,200,201,202,203,204,205,206,207,208,209,210,211,212,213,89,94,132,0,1,2,3,4,5,6,7,8,9,10,11,12,13,14,15,16,17,18,19,20,21,22,23,24,25,26,27,28,29,30,31,32,33,34,35,36,37,38,39,40,41,42,43,44,45,46,47,48,49,50,51,52,53,54,55,56,57,58,59,60,61,62,63,64,65,66,67,68,69,70,71,72,73,74,75,76,77,78,79,80,81,82,83,84,85,86,87,88,89,90,91,92,93,94,95,96,97,98,99,100,101,102,103,104,105,106,107,108,109,110,111,112,113,114,115,116,117,118,119,120,121,122,123,124,125,126,127,128,129,130,131,132,133,134,135,136,137,138,139,140,141,142,143,144,145,146,147,148,149,150,151,152,153,154,155,156,157,158,159,160,161,162,163,164,165,166,167,168,169,170,171,172,173,174,175,176,177,178,179,180,181,182,183,184,185,186,187,188,189,190,191,192,193,194,195,196,197,198,199,200,201,202,203,204,205,206,207,208,209,210,211,213,60,0,1,2,3,4,5,6,7,8,9,10,11,12,13,14,15,16,17,18,19,20,21,22,23,24,25,26,27,28,29,30,31,32,33,34,35,36,37,38,39,40,41,42,43,44,45,46,47,48,49,50,51,52,53,54,55,56,57,58,59,60,61,62,63,64,65,66,67,68,69,70,71,72,73,74,75,76,77,78,79,80,81,82,83,84,85,86,87,89,90,91,92,93,94,95,97,98,99,100,101,102,103,104,105,106,107,108,109,110,111,112,113,114,115,116,117,118,119,120,121,122,123,124,125,126,127,128,129,130,131,132,133,134,135,136,137,138,139,140,141,142,143,144,145,146,147,148,149,150,151,152,153,154,155,156,157,158,159,160,161,162,163,164,165,166,167,168,169,170,171,172,173,174,175,176,177,178,179,180,181,182,183,184,185,186,187,188,189,190,191,192,193,194,195,196,197,198,199,200,201,203,204,205,206,207,208,209,210,211,212,213,88,90,130,132,178,202,0,1,2,3,4,5,6,7,8,9,10,11,12,13,14,15,16,17,18,19,20,21,22,23,24,25,26,27,28,29,30,31,32,33,34,35,36,37,38,39,40,41,42,43,44,45,46,47,48,49,50,51,52,53,54,55,56,57,58,59,60,61,62,63,64,65,66,67,68,69,70,71,72,73,74,75,76,77,78,79,80,81,82,83,84,85,86,87,89,91,92,93,94,95,96,97,98,99,100,101,102,103,104,105,106,107,108,109,110,111,112,113,114,115,116,117,118,119,120,121,122,123,124,125,126,127,128,129,131,133,134,135,136,137,138,139,140,141,142,143,144,145,146,147,148,149,150,151,152,153,154,155,156,157,158,159,160,161,162,163,164,165,166,167,168,169,170,171,172,173,174,175,176,177,179,180,181,182,183,184,185,186,187,188,189,190,191,192,193,194,195,196,197,198,199,200,201,202,203,204,205,206,207,208,209,210,211,212,213,0,7,23,76,86,98,144,159,191,0,42,58,68,76,14,190,192,0,1,2,3,4,5,6,7,8,9,10,11,12,13,14,15,16,17,18,19,20,21,22,23,24,25,26,27,28,29,30,31,32,33,34,35,36,37,38,39,40,41,42,43,44,45,46,47,48,49,50,51,52,53,54,55,56,57,58,59,60,61,62,63,64,65,66,67,68,69,70,71,72,73,74,75,76,77,78,79,80,81,82,83,84,85,86,87,88,89,90,91,92,93,94,95,96,97,98,99,100,101,102,103,104,105,106,107,108,109,110,111,112,113,114,115,116,117,118,119,120,121,122,123,124,125,126,127,128,129,130,131,132,133,134,135,136,137,138,139,140,141,142,143,144,145,146,147,148,149,151,152,153,154,155,156,157,158,159,160,161,162,163,164,165,166,167,168,169,170,171,172,173,174,175,176,177,178,179,180,181,182,183,184,185,186,187,188,189,190,191,192,193,194,195,196,197,198,199,200,201,202,203,204,205,206,207,208,209,210,211,212,213,0,1,2,3,4,5,6,7,8,9,10,11,12,13,14,15,16,17,18,19,20,21,22,23,24,25,26,27,28,29,30,31,32,33,34,35,36,37,38,39,40,41,42,43,44,45,47,48,49,50,51,52,53,54,55,56,57,58,59,60,61,62,63,64,65,66,67,68,69,70,71,72,74,75,76,77,78,79,80,81,82,83,84,85,86,87,88,90,91,92,93,94,95,96,97,98,99,100,101,102,103,104,105,106,107,108,109,110,111,112,113,114,115,116,117,118,119,120,121,122,123,124,125,126,127,128,129,130,131,132,133,134,135,136,137,138,139,140,141,142,143,144,145,146,147,148,149,150,151,152,153,154,155,156,157,158,159,160,161,162,163,164,165,166,167,168,169,170,171,172,173,174,175,176,177,178,179,180,181,182,183,184,185,186,187,188,189,190,191,192,193,194,195,196,197,198,199,200,201,202,203,204,205,206,207,208,209,210,211,212,213,0,1,2,3,4,5,6,7,8,9,10,11,12,13,14,15,16,17,18,19,20,21,22,23,24,25,26,27,28,29,30,31,32,33,34,35,36,37,38,39,40,41,42,43,44,45,46,47,48,49,50,51,52,53,54,55,56,57,58,59,60,61,62,63,64,65,66,67,68,69,70,71,72,73,74,75,76,77,78,79,80,81,82,83,84,85,86,87,88,89,91,92,93,94,95,96,97,98,99,100,101,102,103,104,105,106,107,108,109,110,111,112,113,114,115,116,117,118,119,120,121,122,123,124,125,126,127,128,129,130,131,132,133,134,135,136,137,138,139,140,141,142,143,144,145,146,147,148,149,150,151,152,153,154,155,156,157,158,159,160,161,162,163,164,165,166,167,168,169,170,171,172,173,174,175,176,177,178,179,180,181,182,183,184,185,186,187,188,189,190,191,192,193,194,195,196,197,198,199,200,201,202,203,204,205,206,207,208,209,210,211,212,213,88,0,1,2,3,4,5,6,7,8,9,10,11,12,13,14,15,16,17,18,19,20,21,22,23,24,25,26,27,28,29,30,31,32,33,34,35,36,37,38,39,40,41,42,43,44,45,46,47,48,49,50,51,52,53,54,55,56,57,58,59,60,61,62,63,64,65,66,67,68,69,70,71,72,73,74,75,76,77,78,79,80,81,82,83,84,85,86,87,89,90,91,92,93,94,95,96,97,98,99,100,101,102,103,104,105,106,107,108,109,110,111,112,113,114,115,116,117,118,119,120,121,122,123,124,125,126,127,128,129,130,131,133,134,135,136,137,138,139,140,141,142,143,144,145,146,147,148,149,150,151,152,153,154,155,156,157,158,159,160,161,162,163,164,165,166,167,168,169,170,171,172,173,174,175,176,177,178,179,180,181,182,183,184,185,186,187,188,189,190,191,192,193,194,195,196,197,198,199,200,201,202,203,204,205,206,207,208,209,210,211,212,213,202,23,98,144,0,58,2,209,212,21,146,212,46,96,0,1,2,3,4,5,6,7,8,9,10,11,12,13,14,15,16,17,18,19,20,21,22,23,24,25,26,27,28,29,30,31,32,33,34,35,36,37,38,39,40,41,42,43,44,45,46,47,48,49,50,51,52,53,54,55,56,57,58,59,60,61,62,63,64,65,66,67,68,69,70,71,72,73,74,75,76,77,78,79,80,81,82,83,84,85,86,87,88,89,90,91,92,93,94,95,96,97,98,99,100,101,102,103,104,105,106,107,108,109,110,111,112,113,114,115,116,117,118,119,120,121,122,123,124,125,126,127,128,129,130,131,132,133,134,135,136,137,138,139,140,141,142,143,145,146,147,148,149,150,151,152,153,154,155,156,157,158,159,160,161,162,163,164,165,166,167,168,169,170,171,172,173,174,175,176,177,178,179,180,181,182,183,184,185,186,187,188,189,190,191,192,193,194,195,196,197,198,199,200,201,202,203,204,205,206,207,208,209,210,211,212,213,2,87,209],"categories_nodes":[0,1,2,3,4,11,12,13,14,15,18,19,23,31,37,39,40,41,42,48,54,55,62,64,65,66,68,70,71,73,94,105,112,117],"categories_segments":[0,38,239,251,459,665,675,676,682,687,896,897,899,1112,1113,1324,1330,1539,1548,1553,1556,1769,1980,2193,2194,2406,2407,2410,2412,2415,2418,2419,2420,2633],"categories_sizes":[38,201,12,208,206,10,1,6,5,209,1,2,213,1,211,6,209,9,5,3,213,211,213,1,212,1,3,2,3,3,1,1,213,3],"default_left":[1,0,1,0,0,0,0,0,0,0,0,1,1,1,1,0,0,0,1,1,0,0,0,0,0,0,0,0,0,0,0,1,0,0,0,0,0,0,0,1,0,1,1,0,0,0,0,0,1,0,0,0,0,0,0,0,0,0,0,0,0,0,0,0,1,0,1,0,1,0,1,1,0,1,0,0,0,0,0,0,0,0,0,0,0,0,0,0,0,0,0,0,0,0,1,0,0,0,0,0,0,0,0,0,0,1,0,0,0,0,0,0,0,0,0,0,0,1,0,0,0,0,0,0,0,0,0,0,0,0,0,0,0,0,0,0,0,0,0,0,0,0,0,0,0,0,0,0,0,0,0,0,0,0,0],"id":4,"left_children":[1,3,5,7,9,11,13,-1,15,17,19,21,23,25,27,29,31,33,35,37,39,41,43,45,-1,-1,47,-1,-1,-1,49,51,53,55,57,59,-1,61,-1,63,65,67,69,71,73,-1,-1,75,77,79,-1,81,-1,83,85,87,89,91,93,-1,95,-1,97,99,101,103,105,107,109,111,113,115,-1,117,-1,-1,-1,-1,-1,-1,-1,-1,-1,119,121,123,125,-1,127,-1,129,-1,-1,-1,131,-1,-1,-1,-1,133,135,137,139,-1,-1,141,-1,-1,-1,143,145,147,149,151,-1,-1,-1,153,-1,-1,-1,-1,-1,-1,-1,-1,-1,-1,-1,-1,-1,-1,-1,-1,-1,-1,-1,-1,-1,-1,-1,-1,-1,-1,-1,-1,-1,-1,-1,-1,-1,-1,-1,-1,-1],"loss_changes":[6.05194E2,1.8173933E2,1.6257953E2,4.403827E1,1.5529057E1,1.999704E1,3.0993652E1,0E0,1.2491272E1,1.8342941E1,3.1476234E1,2.0073944E1,9.476023E-1,6.056122E0,5.831604E0,1.0423416E1,5.2931503E1,1.9634062E1,9.629736E0,6.478548E1,3.6559593E1,2.6035767E0,5.989876E0,1.8573236E-1,0E0,0E0,2.03656E0,0E0,0E0,0E0,2.0128441E-1,1.3719691E0,3.9844513E0,2.410977E1,1.529277E1,1.4246396E0,0E0,3.350544E0,0E0,1.8482216E1,2.2299477E1,1.7886131E1,2.8674294E1,4.8741302E0,1.1069828E1,0E0,0E0,1.1341782E1,6.762623E0,5.6905913E-1,0E0,1.3271888E0,0E0,1.2958679E0,1.8826218E0,5.9501543E0,4.6267605E0,8.106148E0,1.1161114E1,0E0,2.3096737E-1,0E0,8.215656E-1,1.337301E1,8.842163E0,4.7421227E0,2.6267743E0,1.5693832E1,7.4821796E0,1.910696E1,4.3180313E0,1.814764E0,0E0,9.761965E0,0E0,0E0,0E0,0E0,0E0,0E0,0E0,0E0,0E0,3.4072342E0,1.2070329E1,1.10076904E-1,1.0490913E0,0E0,1.5327938E0,0E0,7.6347675E0,0E0,0E0,0E0,1.10466175E1,0E0,0E0,0E0,0E0,1.3663125E0,1.1582073E1,6.085636E0,5.1584053E0,0E0,0E0,7.779949E-2,0E0,0E0,0E0,5.8070536E0,4.327524E0,1.1654962E1,2.1909653E1,9.234419E-1,0E0,0E0,0E0,1.2021402E0,0E0,0E0,0E0,0E0,0E0,0E0,0E0,0E0,0E0,0E0,0E0,0E0,0E0,0E0,0E0,0E0,0E0,0E0,0E0,0E0,0E0,0E0,0E0,0E0,0E0,0E0,0E0,0E0,0E0,0E0,0E0,0E0,0E0,0E0,0E0,0E0,0E0],"parents":[2147483647,0,0,1,1,2,2,3,3,4,4,5,5,6,6,8,8,9,9,10,10,11,11,12,12,13,13,14,14,15,15,16,16,17,17,18,18,19,19,20,20,21,21,22,22,23,23,26,26,30,30,31,31,32,32,33,33,34,34,35,35,37,37,39,39,40,40,41,41,42,42,43,43,44,44,47,47,48,48,49,49,51,51,53,53,54,54,55,55,56,56,57,57,58,58,60,60,62,62,63,63,64,64,65,65,66,66,67,67,68,68,69,69,70,70,71,71,73,73,83,83,84,84,85,85,86,86,88,88,90,90,94,94,99,99,100,100,101,101,102,102,105,105,109,109,110,110,111,111,112,112,113,113,117,117],"right_children":[2,4,6,8,10,12,14,-1,16,18,20,22,24,26,28,30,32,34,36,38,40,42,44,46,-1,-1,48,-1,-1,-1,50,52,54,56,58,60,-1,62,-1,64,66,68,70,72,74,-1,-1,76,78,80,-1,82,-1,84,86,88,90,92,94,-1,96,-1,98,100,102,104,106,108,110,112,114,116,-1,118,-1,-1,-1,-1,-1,-1,-1,-1,-1,120,122,124,126,-1,128,-1,130,-1,-1,-1,132,-1,-1,-1,-1,134,136,138,140,-1,-1,142,-1,-1,-1,144,146,148,150,152,-1,-1,-1,154,-1,-1,-1,-1,-1,-1,-1,-1,-1,-1,-1,-1,-1,-1,-1,-1,-1,-1,-1,-1,-1,-1,-1,-1,-1,-1,-1,-1,-1,-1,-1,-1,-1,-1,-1,-1,-1],"split_conditions":[1E-45,1E-45,1E-45,1E-45,1E-45,1.11E2,1.1E1,5.3138718E-2,5E0,1.2E1,3E0,1E-45,1E-45,1E-45,1E-45,1E-45,7E0,5E0,1E-45,1E-45,1.1E1,5E0,8E0,1E-45,-2.5608868E-4,-1.1513411E-2,1E1,-4.1111108E-2,-9.644744E-2,3.532823E-2,4E0,1E-45,1E1,5.5E0,8E0,9E0,-2.9349392E-2,1E-45,-4.7124423E-2,1E-45,1E-45,1E-45,1E-45,3E0,1.2E1,2.0335265E-2,6.696406E-3,8E0,1E-45,3E0,1.2049084E-2,6E0,-1.2775051E-2,2E0,1E-45,1E-45,2E0,5.5E0,9E0,1.2601355E-2,1E1,3.341741E-2,1E-45,7E0,1E-45,1E-45,1E-45,3E0,1E-45,1E1,1E-45,1E-45,-4.2698972E-2,1E-45,-3.6043253E-2,-6.276452E-2,-5.131257E-3,1.3474005E-3,-3.6891192E-2,9.207164E-3,-1.1787196E-3,3.551056E-3,-3.8799797E-3,9E0,1.8E1,1.2E1,1.1E1,2.7188089E-2,4E0,1.4398997E-3,3E0,1.1154108E-2,4.630098E-2,-9.418184E-3,1E-45,-6.3228603E-3,1.210763E-3,1.7267939E-2,1.5488836E-3,4E0,8E0,4E0,5E0,4.3375727E-2,1.6819611E-2,1E-45,-2.6927628E-2,-2.0788185E-2,3.026394E-2,4E0,2E0,6E0,1E-45,1.1E1,-3.6627866E-2,-3.2216543E-4,-2.1933839E-2,1E-45,-2.5568344E-2,1.8997742E-2,3.5799194E-2,1.5704232E-4,2.9113123E-2,2.507915E-2,5.1462386E-2,1.3147277E-2,2.8349578E-2,9.373212E-3,-4.5510274E-3,-3.4234107E-2,-6.910934E-3,1.6751273E-2,-1.9974178E-2,8.520219E-4,1.4482205E-2,-2.9877407E-2,-1.1097296E-3,1.5214055E-3,-1.5339947E-2,-2.6410413E-3,-4.2142745E-2,5.421829E-4,-3.9312984E-3,1.4691967E-4,-1.6220817E-2,-1.048924E-2,-3.4721065E-2,6.3203964E-3,-2.5921514E-2,3.8375475E-2,-7.806456E-3,-2.0050578E-2,-5.093788E-3,6.537493E-3,-4.0801405E-3],"split_indices":[0,0,0,0,0,4,2,0,2,4,2,0,0,0,0,0,2,2,0,0,2,2,2,0,0,0,4,0,0,0,2,0,2,4,2,2,0,0,0,0,0,0,0,2,2,0,0,2,0,2,0,2,0,4,0,0,2,4,2,0,2,0,0,2,0,0,0,2,0,2,0,0,0,0,0,0,0,0,0,0,0,0,0,2,4,2,2,0,2,0,2,0,0,0,0,0,0,0,0,2,2,2,2,0,0,0,0,0,0,2,2,2,0,2,0,0,0,0,0,0,0,0,0,0,0,0,0,0,0,0,0,0,0,0,0,0,0,0,0,0,0,0,0,0,0,0,0,0,0,0,0,0,0,0,0],"split_type":[1,1,1,1,1,0,0,0,0,0,0,1,1,1,1,1,0,0,1,1,0,0,0,1,0,0,0,0,0,0,0,1,0,0,0,0,0,1,0,1,1,1,1,0,0,0,0,0,1,0,0,0,0,0,1,1,0,0,0,0,0,0,1,0,1,1,1,0,1,0,1,1,0,1,0,0,0,0,0,0,0,0,0,0,0,0,0,0,0,0,0,0,0,0,1,0,0,0,0,0,0,0,0,0,0,1,0,0,0,0,0,0,1,0,0,0,0,1,0,0,0,0,0,0,0,0,0,0,0,0,0,0,0,0,0,0,0,0,0,0,0,0,0,0,0,0,0,0,0,0,0,0,0,0,0],"sum_hessian":[3.91E2,2.7E2,1.21E2,1.13E2,1.57E2,9.5E1,2.6E1,1.1E1,1.02E2,6.4E1,9.3E1,9.1E1,4E0,1.8E1,8E0,2.7E1,7.5E1,5.8E1,6E0,1.7E1,7.6E1,6.1E1,3E1,3E0,1E0,2E0,1.6E1,3E0,5E0,2.3E1,4E0,1.9E1,5.6E1,2.1E1,3.7E1,3E0,3E0,1.5E1,2E0,6.3E1,1.3E1,2.9E1,3.2E1,1.4E1,1.6E1,1E0,2E0,7E0,9E0,3E0,1E0,1.8E1,1E0,3.3E1,2.3E1,9E0,1.2E1,7E0,3E1,1E0,2E0,8E0,7E0,2.4E1,3.9E1,1E1,3E0,4E0,2.5E1,1.6E1,1.6E1,5E0,9E0,1.1E1,5E0,6E0,1E0,1E0,8E0,1E0,2E0,9E0,9E0,2.2E1,1.1E1,7E0,1.6E1,4E0,5E0,3E0,9E0,3E0,4E0,4E0,2.6E1,1E0,1E0,6E0,1E0,1E1,1.4E1,3.5E1,4E0,2E0,8E0,2E0,1E0,1E0,3E0,1.7E1,8E0,9E0,7E0,7E0,9E0,1E0,4E0,7E0,4E0,1.7E1,5E0,6E0,5E0,4E0,3E0,4E0,1.2E1,3E0,2E0,3E0,6E0,2.5E1,1E0,2E0,8E0,3E0,1.1E1,5E0,3E1,1E0,3E0,1E0,1E0,9E0,8E0,4E0,4E0,3E0,6E0,3E0,4E0,5E0,2E0,3E0,4E0],"tree_param":{"num_deleted":"0","num_feature":"5","num_nodes":"155","size_leaf_vector":"1"}},{"base_weights":[1.7727807E-1,1.4078472E0,-9.4342625E-1,9.1908026E-1,1.7655851E0,-2.1556342E-1,-2.1281555E0,1.6640592E0,-2.881148E-1,1.8501923E0,-1.1713278E-2,-6.781554E-1,8.2189995E-1,-1.6429781E0,-4.159443E0,2.2913246E0,5.5304384E-1,-5.8432397E-2,-3.4792375E-2,1.9449176E0,-3.5751516E-1,-2.5077483E-1,-1.3699063E0,2.412111E0,2.5801977E-2,-1.4346559E0,-2.895861E0,-2.7779223E-2,-6.624971E-2,2.4947844E0,-2.7492974E-2,-6.5190107E-1,1.7026844E0,3.482141E-2,-1.9250937E-2,5.8789337E-1,2.0279312E0,1.51775805E-2,-2.377145E-2,-1.1624742E0,-7.0858486E-2,-1.6461667E-2,-2.1425195E0,2.8644743E0,-2.1751177E-2,6.983662E-1,-8.731005E-1,-5.680673E-1,-1.7670897E0,-1.6627185E-1,-5.448901E-2,2.7635002E0,1.3836212E-2,2.1928842E-1,-2.0135074E0,3.71346E-2,3.156826E-1,-1.8745853E-1,8.8109094E-1,-1.8846957E-1,9.3613243E-1,2.6980703E0,1.6872652E0,2.3255125E-2,-1.7108836E0,7.400155E-1,-5.132455E-1,4.2687935E-1,-4.5745102E-1,-6.032914E-1,-2.8690412E0,3.1341577E0,1.4577063E-2,2.5545774E0,-1.3325222E-1,-1.7021684E-1,-4.2186487E-2,-1.1154081E0,6.2129205E-1,-7.7326286E-1,-2.0725899E0,5.084492E-3,-8.681618E-3,5.070366E-3,4.1095227E-2,-7.601574E-1,2.5652187E-2,-6.1555646E-2,1.6064294E-1,2.8716512E-2,-8.667024E-3,-1.5806987E0,3.972556E-1,4.7263186E-2,-2.534937E-1,-7.197882E-4,-3.357563E-3,1.7137179E-3,1.602005E-2,2.8071523E0,-2.568861E-3,1.0075806E0,2.1376495E0,-2.0125282E-3,-1.9154272E0,9.140103E-1,-1.4739253E-2,8.603008E-1,-8.1047755E-1,8.0815935E-1,-6.112051E-2,-9.220309E-3,-1.897653E-3,-2.1983493E-2,6.987072E-1,-1.0864933E0,-5.0095852E-2,2.2224134E-2,5.187609E-2,4.3214824E-2,5.679905E-3,1.9989807E-2,-3.9736593E-1,3.4971827E-1,-5.7512665E-1,1.6267578E-1,-2.4206045E0,-2.3915235E-2,2.0318922E-2,1.1722713E0,-1.3358561E0,-2.361592E0,-9.826351E-1,-1.7076705E-4,-1.810173E-2,6.7495396E-3,-3.2741898E-3,-5.8542793E-3,-6.222979E-2,3.1977434E-2,-2.1791777E-3,1.1893939E-2,-1.0517039E-2,4.4278692E-2,1.92026E-2,2.911195E-2,2.6887902E-3,3.1379234E-2,5.5400697E-3,-1.2203313E-2,-3.1353813E-2,1.9209994E-2,-3.92009E-3,1.7962864E-2,-7.6836613E-3,-2.071227E-2,-5.693986E-3,1.4739732E-2,1.2020288E-3,1.4266059E-3,-3.9029506E-3,7.4014906E-3,-7.442544E-3,2.6656391E-2,-1.9830141E-2,1.1797472E-2,-2.54864E-2,5.045279E-3,-1.5552253E-2,-1.0255147E-3,9.431966E-3,-1.6022615E-2,-3.5447867E-3,3.1757515E-2,-7.848582E-3,-4.7126263E-2,-6.9881347E-3,-1.0275316E-2,3.5636235E-2,-5.0127245E-3,-2.55581E-2,-2.7390014E-2,-5.2596055E-2,1.5645844E-3,-2.392722E-2],"categories":[0,2,3,4,5,6,7,8,9,10,11,12,13,14,15,16,17,18,19,20,21,22,23,24,25,26,27,28,29,30,31,32,33,34,35,36,37,40,41,42,44,45,46,48,49,50,51,52,53,54,55,56,57,58,59,61,62,63,64,66,67,68,69,70,71,72,74,75,76,77,78,79,80,81,82,83,86,87,88,90,91,92,93,94,95,96,97,99,100,101,102,103,104,105,106,107,108,109,110,111,112,114,115,116,117,118,119,120,121,122,124,125,126,127,129,131,133,134,135,136,137,138,139,140,141,142,143,145,146,147,148,149,151,152,153,154,155,156,157,158,159,160,161,162,163,164,165,166,167,168,169,170,172,173,174,175,176,177,180,181,184,185,186,187,188,189,190,191,193,194,195,196,197,198,199,200,201,202,203,204,205,206,207,208,209,210,211,213,2,7,14,21,25,56,68,76,78,87,140,146,147,149,153,159,164,172,190,191,196,199,203,207,209,211,0,1,2,3,4,5,6,7,8,9,10,11,12,13,14,15,16,17,18,19,20,21,22,23,24,25,26,27,28,29,30,31,32,33,34,35,36,37,38,40,41,42,44,45,46,48,49,50,51,52,53,54,55,56,57,58,59,61,62,63,64,66,67,68,69,70,71,72,74,75,76,77,78,79,80,81,82,83,86,87,88,89,90,91,92,93,94,95,96,97,99,100,101,102,103,104,105,106,107,108,109,110,111,112,113,114,115,116,117,118,119,120,121,122,124,125,126,127,129,131,132,133,134,135,136,137,138,139,140,141,142,143,144,145,146,147,148,149,151,152,153,154,155,156,157,158,159,160,161,162,163,164,165,166,167,168,169,170,171,172,173,174,175,176,177,178,179,180,181,183,184,185,186,187,188,189,190,191,193,194,195,196,197,198,199,200,201,202,203,204,205,206,207,208,209,210,211,212,213,85,130,21,56,140,164,172,199,209,211,1,2,3,4,5,6,7,8,9,10,11,12,13,14,15,16,17,18,19,20,21,22,23,24,25,26,27,28,29,30,31,32,33,34,35,36,37,38,39,40,41,42,43,44,45,46,47,48,49,50,51,52,53,54,55,56,57,58,59,60,61,62,63,64,65,66,67,68,69,70,71,72,73,74,75,76,77,78,79,81,82,83,84,85,86,87,88,89,91,92,93,94,95,96,97,98,99,100,101,102,103,104,105,106,107,108,109,110,111,112,113,114,115,116,117,118,119,120,121,122,123,124,125,126,127,128,129,130,131,132,133,134,135,136,137,138,139,140,141,142,143,144,145,146,147,148,149,150,151,152,153,154,155,156,157,158,159,160,161,162,163,164,165,166,167,168,169,170,171,172,173,174,175,176,177,178,179,180,181,182,183,184,185,186,187,188,189,190,191,192,193,194,195,196,197,198,199,200,201,202,203,204,205,206,207,208,209,210,211,212,213,1,89,0,42,46,80,88,90,94,202,7,14,68,76,78,87,146,147,153,159,190,191,196,203,2,25,76,149,207,0,1,2,3,4,5,6,7,8,9,10,11,12,13,14,15,16,17,18,19,20,21,22,23,24,25,26,27,28,29,30,31,32,33,34,35,36,37,38,40,41,42,43,44,45,46,47,48,49,50,51,52,53,54,55,56,57,58,59,61,62,63,64,65,66,67,68,69,70,71,72,73,74,75,76,77,78,79,80,81,82,83,86,87,88,89,90,91,92,93,94,95,96,97,99,100,101,102,103,104,105,106,107,108,109,110,111,112,113,114,115,116,117,118,119,120,121,122,124,125,126,127,128,129,130,131,132,133,134,135,136,137,138,139,140,141,142,143,144,145,146,147,148,149,151,152,153,154,155,156,157,158,159,160,161,162,163,164,165,166,167,168,169,170,171,172,173,174,175,176,177,178,179,180,181,182,183,184,185,186,187,188,189,190,191,192,193,194,195,196,197,198,199,200,201,202,203,204,205,206,207,208,209,210,211,212,213,0,1,2,3,4,5,6,7,8,9,10,11,12,13,14,15,16,17,18,19,20,21,22,23,24,25,26,27,28,29,30,31,32,33,34,35,36,37,39,40,41,42,43,44,45,46,47,48,49,50,51,52,53,54,55,56,57,58,59,60,61,62,63,64,65,66,67,68,69,70,71,72,73,74,75,76,77,78,79,80,81,82,83,84,85,86,87,88,90,91,92,93,94,95,96,97,98,99,100,101,102,103,104,105,106,107,108,109,110,111,112,113,114,115,116,117,118,119,120,121,122,123,124,125,126,127,128,129,130,131,133,134,135,136,137,138,139,140,141,142,143,145,146,147,148,149,150,151,152,153,154,155,156,157,158,159,160,161,162,163,164,165,166,167,168,169,170,171,172,173,174,175,176,177,178,179,180,181,182,184,185,186,187,188,189,190,191,192,193,194,195,196,197,198,199,200,201,202,203,204,205,206,207,208,209,210,211,212,213,80,90,102,0,42,53,86,94,96,129,135,158,3,53,57,102,193,1,2,3,4,5,6,7,8,9,10,11,12,13,14,15,16,17,18,19,20,21,22,23,24,25,26,27,28,29,30,31,32,33,34,35,36,37,38,39,40,41,42,43,44,45,46,47,48,49,50,51,52,53,54,55,56,57,58,59,60,61,62,63,64,65,66,67,68,69,70,71,72,73,74,75,76,77,78,79,80,81,82,83,84,85,86,87,88,89,91,92,93,94,95,96,97,98,99,100,101,102,103,104,105,106,107,108,109,110,111,112,113,114,115,116,117,118,119,120,121,122,123,124,125,126,127,128,129,130,131,132,133,134,135,136,137,138,139,140,141,142,143,144,145,146,147,148,149,150,151,152,153,154,155,156,157,158,159,160,161,162,163,164,165,166,167,168,169,170,171,172,173,174,175,176,177,178,179,180,181,182,183,184,185,186,187,188,189,190,191,192,193,194,195,196,197,198,199,200,201,202,203,204,205,206,207,208,209,210,211,212,213,58,146,80,90,0,1,2,3,4,5,6,7,8,9,10,11,12,13,14,15,16,17,18,19,20,21,22,23,24,25,26,27,28,29,30,31,32,33,34,35,36,37,38,39,40,41,42,43,44,45,46,47,48,49,50,51,52,53,54,55,56,57,59,60,61,62,63,64,65,66,67,68,69,70,71,72,73,74,75,76,77,78,79,80,81,82,83,84,85,86,87,88,89,90,91,92,93,94,95,97,98,99,100,101,102,103,104,105,106,107,108,109,110,111,112,113,114,115,116,117,118,119,120,121,122,123,124,125,126,127,128,129,130,131,132,133,134,135,136,137,138,139,140,141,142,143,144,145,146,147,148,149,150,151,152,153,154,155,156,157,158,159,160,161,162,163,164,165,166,167,168,169,170,171,172,173,174,175,176,177,178,179,180,181,182,183,184,185,186,187,188,189,190,191,192,193,194,195,196,197,198,199,200,201,202,203,204,205,206,207,208,209,210,211,212,213,42,96,202,14,76,159,190,191,60,38,89,178,89,0,2,3,4,5,6,7,8,9,10,11,12,13,14,15,16,17,18,19,20,21,22,23,24,25,26,27,28,29,30,31,32,33,34,35,36,37,38,40,41,42,43,44,45,46,48,49,50,51,52,53,54,55,56,57,58,59,60,61,62,63,64,65,66,67,68,69,70,71,72,73,74,75,76,77,78,79,80,81,82,83,84,85,86,87,88,89,90,91,92,93,94,95,96,97,98,99,100,101,102,103,104,105,106,107,108,109,110,111,112,113,114,115,116,117,118,119,120,121,122,124,125,126,127,128,129,130,131,132,133,134,135,136,137,138,139,140,141,142,143,144,145,146,147,148,149,151,152,153,154,155,156,157,158,159,160,161,162,163,164,165,166,167,168,169,170,171,172,173,174,175,176,177,178,179,180,181,182,183,184,185,186,187,188,189,190,191,192,193,194,195,196,197,198,199,200,201,202,203,204,205,206,207,208,209,210,211,213,129,0,1,2,3,4,5,6,7,8,9,10,11,12,13,14,15,16,17,18,19,20,21,22,23,24,25,26,27,28,29,30,31,32,33,34,35,36,37,38,39,40,41,42,43,44,45,46,47,48,49,50,51,52,53,54,55,56,57,58,59,60,61,62,63,64,65,66,67,68,69,70,71,72,73,74,75,76,77,78,79,80,81,82,83,84,85,86,87,88,89,90,91,92,93,94,95,97,98,99,100,101,102,103,104,105,106,107,108,109,110,111,112,113,114,115,116,117,118,119,120,121,122,123,124,125,126,127,128,129,130,131,132,133,134,135,136,137,138,139,140,141,142,143,144,145,146,147,148,149,150,151,152,153,154,155,156,157,158,159,160,161,162,163,164,165,166,167,168,169,170,171,172,173,174,175,176,177,178,179,180,181,182,183,184,185,186,187,188,189,190,191,192,193,194,195,196,197,198,199,200,201,202,203,204,205,206,207,208,209,210,211,212,213,96,53,46,42,46,80,96,202,0,1,2,3,4,5,6,7,8,9,10,11,12,13,14,15,16,17,18,19,20,21,22,23,24,25,26,27,28,29,30,31,32,33,34,35,36,37,38,39,40,41,42,43,44,45,46,47,48,49,50,51,52,53,54,55,56,57,58,59,60,61,62,63,64,65,66,67,68,69,70,71,72,73,74,75,76,77,78,79,80,81,82,83,84,85,86,87,88,89,90,91,92,93,94,95,96,97,98,99,100,101,102,103,104,105,106,107,108,109,110,111,112,113,114,115,116,117,118,119,120,121,122,123,124,125,126,127,128,129,130,131,132,133,134,135,136,137,138,139,140,141,142,143,144,145,146,147,148,150,151,152,153,154,155,156,157,158,159,160,161,162,163,164,165,166,167,168,169,170,171,172,173,174,175,176,177,178,179,180,181,182,183,184,185,186,187,188,189,190,191,192,193,194,195,196,197,198,199,200,201,202,203,204,205,206,207,208,209,210,211,212,213,14,159,190,87,147,14,68,76,78],"categories_nodes":[0,2,3,4,6,12,17,20,22,25,26,29,36,39,40,41,43,46,49,64,73,75,79,88,91,92,94,102,107,109,110,112,114,115,122,125,130,131,132],"categories_segments":[0,188,214,413,415,423,634,635,636,644,658,663,870,1079,1082,1091,1096,1308,1309,1310,1312,1524,1527,1532,1533,1534,1536,1537,1745,1746,1959,1960,1961,1962,1965,1967,2180,2183,2185],"categories_sizes":[188,26,199,2,8,211,1,1,8,14,5,207,209,3,9,5,212,1,1,2,212,3,5,1,1,2,1,208,1,213,1,1,1,3,2,213,3,2,4],"default_left":[0,0,1,0,1,0,1,0,0,0,0,0,0,0,0,0,0,1,0,0,1,0,1,0,0,1,1,0,0,0,0,0,0,0,0,0,0,0,0,1,1,1,0,0,0,0,1,0,0,1,0,0,0,0,0,0,0,0,0,0,0,0,0,0,1,0,0,0,0,0,0,0,0,0,0,1,0,0,0,1,0,0,0,0,0,0,0,0,1,0,0,1,1,0,1,0,0,0,0,0,0,0,0,0,0,0,0,1,0,0,1,0,1,0,1,1,0,0,0,0,0,0,1,0,0,0,0,0,0,0,1,1,1,0,0,0,0,0,0,0,0,0,0,0,0,0,0,0,0,0,0,0,0,0,0,0,0,0,0,0,0,0,0,0,0,0,0,0,0,0,0,0,0,0,0,0,0,0,0,0,0,0,0,0,0],"id":5,"left_children":[1,3,5,7,9,11,13,15,17,19,-1,21,23,25,27,29,31,33,-1,35,37,39,41,43,45,47,49,-1,-1,51,-1,53,55,57,-1,59,61,-1,-1,63,65,67,69,71,-1,73,75,77,79,81,-1,83,-1,85,87,-1,89,91,93,95,97,99,101,-1,103,105,107,109,111,113,115,117,-1,119,121,123,-1,125,127,129,131,-1,-1,-1,-1,133,-1,-1,135,-1,-1,137,139,-1,141,-1,-1,-1,-1,143,-1,145,147,-1,149,151,-1,153,155,157,159,-1,161,-1,163,165,-1,-1,-1,-1,-1,-1,167,169,171,173,175,-1,-1,177,179,181,183,-1,-1,-1,-1,-1,-1,-1,-1,-1,-1,-1,-1,-1,-1,-1,-1,-1,-1,-1,-1,-1,-1,-1,-1,-1,-1,-1,-1,-1,-1,-1,-1,-1,-1,-1,-1,-1,-1,-1,-1,-1,-1,-1,-1,-1,-1,-1,-1,-1,-1,-1,-1],"loss_changes":[5.2676685E2,3.0200104E1,1.7200531E2,7.15269E1,2.4184448E1,6.054766E1,6.80668E1,3.288098E1,1.498385E1,2.1817047E1,0E0,2.537722E1,4.9310356E1,1.22886505E1,4.72258E0,3.1230698E1,2.74298E1,3.498154E0,0E0,9.734985E0,1.0832882E1,8.939257E0,3.4472473E1,2.7373802E1,1.6933126E1,1.512883E1,1.8635094E1,0E0,0E0,9.726822E0,0E0,1.2303711E1,1.1282602E1,5.432213E0,0E0,2.0689516E0,1.6222351E1,0E0,0E0,1.6454544E1,1.7239656E1,2.736889E0,2.175306E1,2.831459E0,0E0,2.5038954E1,1.6809181E1,1.1759735E1,1.0541916E1,8.902922E-1,0E0,4.1749115E0,0E0,1.204286E1,2.0291864E1,0E0,8.874896E0,1.9364828E1,1.7140919E1,6.8084896E-3,5.8162355E-1,9.59845E0,1.7131653E1,0E0,2.3039875E0,6.145813E0,