{"learner":{"attributes":{"scikit_learn":"{\"_estimator_type\": \"regressor\"}"},"feature_names":["Country","Disaster Type","Start Month","Start Year","Severity"],"feature_types":["c","c","float","int","float"],"gradient_booster":{"model":{"cats":{"enc":[{"offsets":[0,11,18,25,39,45,53,72,81,88,97,104,114,128,135,145,153,160,167,173,178,185,191,223,245,253,259,281,289,301,308,318,326,334,340,354,368,392,396,401,406,452,494,502,509,514,526,536,543,547,553,560,573,610,642,649,657,665,683,690,695,706,723,730,737,745,753,757,764,770,783,799,804,810,817,824,829,835,842,852,856,865,871,884,890,895,903,910,917,922,931,957,961,968,974,979,986,991,997,1007,1012,1020,1026,1036,1068,1074,1081,1088,1095,1100,1113,1122,1132,1142,1148,1156,1164,1168,1173,1189,1199,1209,1218,1225,1231,1263,1271,1281,1291,1298,1308,1315,1322,1327,1355,1368,1379,1388,1393,1400,1404,1419,1443,1449,1453,1461,1466,1472,1488,1496,1500,1511,1517,1525,1536,1541,1558,1577,1584,1602,1608,1615,1631,1643,1664,1675,1701,1733,1738,1759,1771,1778,1784,1801,1811,1823,1848,1856,1864,1879,1886,1898,1909,1914,1923,1941,1946,1954,1960,1971,1991,2017,2027,2035,2046,2050,2057,2062,2081,2088,2100,2124,2130,2137,2143,2150,2170,2222,2249,2277,2301,2308,2318,2325,2359,2367,2392,2397,2403,2411],"values":[65,102,103,104,97,110,105,115,116,97,110,65,108,98,97,110,105,97,65,108,103,101,114,105,97,65,109,101,114,105,99,97,110,32,83,97,109,111,97,65,110,103,111,108,97,65,110,103,117,105,108,108,97,65,110,116,105,103,117,97,32,97,110,100,32,66,97,114,98,117,100,97,65,114,103,101,110,116,105,110,97,65,114,109,101,110,105,97,65,117,115,116,114,97,108,105,97,65,117,115,116,114,105,97,65,122,101,114,98,97,105,106,97,110,65,122,111,114,101,115,32,73,115,108,97,110,100,115,66,97,104,97,109,97,115,66,97,110,103,108,97,100,101,115,104,66,97,114,98,97,100,111,115,66,101,108,97,114,117,115,66,101,108,103,105,117,109,66,101,108,105,122,101,66,101,110,105,110,66,101,114,109,117,100,97,66,104,117,116,97,110,66,111,108,105,118,105,97,32,40,80,108,117,114,105,110,97,116,105,111,110,97,108,32,83,116,97,116,101,32,111,102,41,66,111,115,110,105,97,32,97,110,100,32,72,101,114,122,101,103,111,118,105,110,97,66,111,116,115,119,97,110,97,66,114,97,122,105,108,66,114,105,116,105,115,104,32,86,105,114,103,105,110,32,73,115,108,97,110,100,115,66,117,108,103,97,114,105,97,66,117,114,107,105,110,97,32,70,97,115,111,66,117,114,117,110,100,105,67,97,98,111,32,86,101,114,100,101,67,97,109,98,111,100,105,97,67,97,109,101,114,111,111,110,67,97,110,97,100,97,67,97,110,97,114,121,32,73,115,108,97,110,100,115,67,97,121,109,97,110,32,73,115,108,97,110,100,115,67,101,110,116,114,97,108,32,65,102,114,105,99,97,110,32,82,101,112,117,98,108,105,99,67,104,97,100,67,104,105,108,101,67,104,105,110,97,67,104,105,110,97,44,32,72,111,110,103,32,75,111,110,103,32,83,112,101,99,105,97,108,32,65,100,109,105,110,105,115,116,114,97,116,105,118,101,32,82,101,103,105,111,110,67,104,105,110,97,44,32,77,97,99,97,111,32,83,112,101,99,105,97,108,32,65,100,109,105,110,105,115,116,114,97,116,105,118,101,32,82,101,103,105,111,110,67,111,108,111,109,98,105,97,67,111,109,111,114,111,115,67,111,110,103,111,67,111,111,107,32,73,115,108,97,110,100,115,67,111,115,116,97,32,82,105,99,97,67,114,111,97,116,105,97,67,117,98,97,67,121,112,114,117,115,67,122,101,99,104,105,97,67,-61,-76,116,101,32,100,-30,-128,-103,73,118,111,105,114,101,68,101,109,111,99,114,97,116,105,99,32,80,101,111,112,108,101,39,115,32,82,101,112,117,98,108,105,99,32,111,102,32,75,111,114,101,97,68,101,109,111,99,114,97,116,105,99,32,82,101,112,117,98,108,105,99,32,111,102,32,116,104,101,32,67,111,110,103,111,68,101,110,109,97,114,107,68,106,105,98,111,117,116,105,68,111,109,105,110,105,99,97,68,111,109,105,110,105,99,97,110,32,82,101,112,117,98,108,105,99,69,99,117,97,100,111,114,69,103,121,112,116,69,108,32,83,97,108,118,97,100,111,114,69,113,117,97,116,111,114,105,97,108,32,71,117,105,110,101,97,69,114,105,116,114,101,97,69,115,116,111,110,105,97,69,115,119,97,116,105,110,105,69,116,104,105,111,112,105,97,70,105,106,105,70,105,110,108,97,110,100,70,114,97,110,99,101,70,114,101,110,99,104,32,71,117,105,97,110,97,70,114,101,110,99,104,32,80,111,108,121,110,101,115,105,97,71,97,98,111,110,71,97,109,98,105,97,71,101,111,114,103,105,97,71,101,114,109,97,110,121,71,104,97,110,97,71,114,101,101,99,101,71,114,101,110,97,100,97,71,117,97,100,101,108,111,117,112,101,71,117,97,109,71,117,97,116,101,109,97,108,97,71,117,105,110,101,97,71,117,105,110,101,97,45,66,105,115,115,97,117,71,117,121,97,110,97,72,97,105,116,105,72,111,110,100,117,114,97,115,72,117,110,103,97,114,121,73,99,101,108,97,110,100,73,110,100,105,97,73,110,100,111,110,101,115,105,97,73,114,97,110,32,40,73,115,108,97,109,105,99,32,82,101,112,117,98,108,105,99,32,111,102,41,73,114,97,113,73,114,101,108,97,110,100,73,115,114,97,101,108,73,116,97,108,121,74,97,109,97,105,99,97,74,97,112,97,110,74,111,114,100,97,110,75,97,122,97,107,104,115,116,97,110,75,101,110,121,97,75,105,114,105,98,97,116,105,75,117,119,97,105,116,75,121,114,103,121,122,115,116,97,110,76,97,111,32,80,101,111,112,108,101,39,115,32,68,101,109,111,99,114,97,116,105,99,32,82,101,112,117,98,108,105,99,76,97,116,118,105,97,76,101,98,97,110,111,110,76,101,115,111,116,104,111,76,105,98,101,114,105,97,76,105,98,121,97,76,105,101,99,104,116,101,110,115,116,101,105,110,76,105,116,104,117,97,110,105,97,76,117,120,101,109,98,111,117,114,103,77,97,100,97,103,97,115,99,97,114,77,97,108,97,119,105,77,97,108,97,121,115,105,97,77,97,108,100,105,118,101,115,77,97,108,105,77,97,108,116,97,77,97,114,115,104,97,108,108,32,73,115,108,97,110,100,115,77,97,114,116,105,110,105,113,117,101,77,97,117,114,105,116,97,110,105,97,77,97,117,114,105,116,105,117,115,77,97,121,111,116,116,101,77,101,120,105,99,111,77,105,99,114,111,110,101,115,105,97,32,40,70,101,100,101,114,97,116,101,100,32,83,116,97,116,101,115,32,111,102,41,77,111,110,103,111,108,105,97,77,111,110,116,101,110,101,103,114,111,77,111,110,116,115,101,114,114,97,116,77,111,114,111,99,99,111,77,111,122,97,109,98,105,113,117,101,77,121,97,110,109,97,114,78,97,109,105,98,105,97,78,101,112,97,108,78,101,116,104,101,114,108,97,110,100,115,32,40,75,105,110,103,100,111,109,32,111,102,32,116,104,101,41,78,101,119,32,67,97,108,101,100,111,110,105,97,78,101,119,32,90,101,97,108,97,110,100,78,105,99,97,114,97,103,117,97,78,105,103,101,114,78,105,103,101,114,105,97,78,105,117,101,78,111,114,116,104,32,77,97,99,101,100,111,110,105,97,78,111,114,116,104,101,114,110,32,77,97,114,105,97,110,97,32,73,115,108,97,110,100,115,78,111,114,119,97,121,79,109,97,110,80,97,107,105,115,116,97,110,80,97,108,97,117,80,97,110,97,109,97,80,97,112,117,97,32,78,101,119,32,71,117,105,110,101,97,80,97,114,97,103,117,97,121,80,101,114,117,80,104,105,108,105,112,112,105,110,101,115,80,111,108,97,110,100,80,111,114,116,117,103,97,108,80,117,101,114,116,111,32,82,105,99,111,81,97,116,97,114,82,101,112,117,98,108,105,99,32,111,102,32,75,111,114,101,97,82,101,112,117,98,108,105,99,32,111,102,32,77,111,108,100,111,118,97,82,111,109,97,110,105,97,82,117,115,115,105,97,110,32,70,101,100,101,114,97,116,105,111,110,82,119,97,110,100,97,82,-61,-87,117,110,105,111,110,83,97,105,110,116,32,66,97,114,116,104,-61,-87,108,101,109,121,83,97,105,110,116,32,72,101,108,101,110,97,83,97,105,110,116,32,75,105,116,116,115,32,97,110,100,32,78,101,118,105,115,83,97,105,110,116,32,76,117,99,105,97,83,97,105,110,116,32,77,97,114,116,105,110,32,40,70,114,101,110,99,104,32,80,97,114,116,41,83,97,105,110,116,32,86,105,110,99,101,110,116,32,97,110,100,32,116,104,101,32,71,114,101,110,97,100,105,110,101,115,83,97,109,111,97,83,97,111,32,84,111,109,101,32,97,110,100,32,80,114,105,110,99,105,112,101,83,97,117,100,105,32,65,114,97,98,105,97,83,101,110,101,103,97,108,83,101,114,98,105,97,83,101,114,98,105,97,32,77,111,110,116,101,110,101,103,114,111,83,101,121,99,104,101,108,108,101,115,83,105,101,114,114,97,32,76,101,111,110,101,83,105,110,116,32,77,97,97,114,116,101,110,32,40,68,117,116,99,104,32,112,97,114,116,41,83,108,111,118,97,107,105,97,83,108,111,118,101,110,105,97,83,111,108,111,109,111,110,32,73,115,108,97,110,100,115,83,111,109,97,108,105,97,83,111,117,116,104,32,65,102,114,105,99,97,83,111,117,116,104,32,83,117,100,97,110,83,112,97,105,110,83,114,105,32,76,97,110,107,97,83,116,97,116,101,32,111,102,32,80,97,108,101,115,116,105,110,101,83,117,100,97,110,83,117,114,105,110,97,109,101,83,119,101,100,101,110,83,119,105,116,122,101,114,108,97,110,100,83,121,114,105,97,110,32,65,114,97,98,32,82,101,112,117,98,108,105,99,84,97,105,119,97,110,32,40,80,114,111,118,105,110,99,101,32,111,102,32,67,104,105,110,97,41,84,97,106,105,107,105,115,116,97,110,84,104,97,105,108,97,110,100,84,105,109,111,114,45,76,101,115,116,101,84,111,103,111,84,111,107,101,108,97,117,84,111,110,103,97,84,114,105,110,105,100,97,100,32,97,110,100,32,84,111,98,97,103,111,84,117,110,105,115,105,97,84,117,114,107,109,101,110,105,115,116,97,110,84,117,114,107,115,32,97,110,100,32,67,97,105,99,111,115,32,73,115,108,97,110,100,115,84,117,118,97,108,117,84,-61,-68,114,107,105,121,101,85,103,97,110,100,97,85,107,114,97,105,110,101,85,110,105,116,101,100,32,65,114,97,98,32,69,109,105,114,97,116,101,115,85,110,105,116,101,100,32,75,105,110,103,100,111,109,32,111,102,32,71,114,101,97,116,32,66,114,105,116,97,105,110,32,97,110,100,32,78,111,114,116,104,101,114,110,32,73,114,101,108,97,110,100,85,110,105,116,101,100,32,82,101,112,117,98,108,105,99,32,111,102,32,84,97,110,122,97,110,105,97,85,110,105,116,101,100,32,83,116,97,116,101,115,32,86,105,114,103,105,110,32,73,115,108,97,110,100,115,85,110,105,116,101,100,32,83,116,97,116,101,115,32,111,102,32,65,109,101,114,105,99,97,85,114,117,103,117,97,121,85,122,98,101,107,105,115,116,97,110,86,97,110,117,97,116,117,86,101,110,101,122,117,101,108,97,32,40,66,111,108,105,118,97,114,105,97,110,32,82,101,112,117,98,108,105,99,32,111,102,41,86,105,101,116,32,78,97,109,87,97,108,108,105,115,32,97,110,100,32,70,117,116,117,110,97,32,73,115,108,97,110,100,115,89,101,109,101,110,90,97,109,98,105,97,90,105]},{"offsets":[0,7,17,36,41,68,87,106,111,128,136],"values":[68,114,111,117,103,104,116,69,97,114,116,104,113,117,97,107,101,69,120,116,114,101,109,101,32,116,101,109,112,101,114,97,116,117,114,101,70,108,111,111,100,71,108,97,99,105,97,108,32,108,97,107,101,32,111,117,116,98,117,114,115,116,32,102,108,111,111,100,77,97,115,115,32,109,111,118,101,109,101,110,116,32,40,100,114,121,41,77,97,115,115,32,109,111,118,101,109,101,110,116,32,40,119,101,116,41,83,116,111,114,109,86,111,108,99,97,110,105,99,32,97,99,116,105,118,105,116,121,87,105,108,100,102,105,114,101]},{"offsets":[],"values":[]},{"offsets":[],"values":[]},{"offsets":[],"values":[]}],"feature_segments":[0,219,229,229,229,229],"sorted_idx":[162,203,0,1,2,3,4,5,6,7,8,9,10,11,12,13,14,15,16,17,18,19,20,21,22,23,24,25,26,27,28,29,51,30,31,32,33,34,35,36,37,38,39,40,41,42,43,44,45,46,47,48,49,50,184,175,194,165,164,166,168,183,182,186,197,204,218,78,94,102,81,117,95,147,70,76,84,68,88,93,136,152,213,75,55,87,101,114,73,132,72,109,113,129,98,89,167,59,61,195,77,110,163,174,172,150,215,181,153,138,74,127,137,134,191,214,57,96,124,154,67,193,187,65,159,206,52,192,200,85,140,122,196,212,205,179,201,146,126,58,104,118,180,144,131,210,69,169,160,119,142,62,82,148,171,173,151,54,64,111,121,135,141,158,161,199,106,100,208,198,91,125,157,133,97,176,66,120,130,170,92,86,128,53,63,156,207,108,139,189,211,217,83,71,90,115,216,209,185,99,103,145,155,107,123,80,149,190,79,112,56,202,177,178,116,105,143,188,60,0,1,2,3,4,5,6,7,8,9]},"gbtree_model_param":{"num_parallel_tree":"1","num_trees":"300"},"iteration_indptr":[0,1,2,3,4,5,6,7,8,9,10,11,12,13,14,15,16,17,18,19,20,21,22,23,24,25,26,27,28,29,30,31,32,33,34,35,36,37,38,39,40,41,42,43,44,45,46,47,48,49,50,51,52,53,54,55,56,57,58,59,60,61,62,63,64,65,66,67,68,69,70,71,72,73,74,75,76,77,78,79,80,81,82,83,84,85,86,87,88,89,90,91,92,93,94,95,96,97,98,99,100,101,102,103,104,105,106,107,108,109,110,111,112,113,114,115,116,117,118,119,120,121,122,123,124,125,126,127,128,129,130,131,132,133,134,135,136,137,138,139,140,141,142,143,144,145,146,147,148,149,150,151,152,153,154,155,156,157,158,159,160,161,162,163,164,165,166,167,168,169,170,171,172,173,174,175,176,177,178,179,180,181,182,183,184,185,186,187,188,189,190,191,192,193,194,195,196,197,198,199,200,201,202,203,204,205,206,207,208,209,210,211,212,213,214,215,216,217,218,219,220,221,222,223,224,225,226,227,228,229,230,231,232,233,234,235,236,237,238,239,240,241,242,243,244,245,246,247,248,249,250,251,252,253,254,255,256,257,258,259,260,261,262,263,264,265,266,267,268,269,270,271,272,273,274,275,276,277,278,279,280,281,282,283,284,285,286,287,288,289,290,291,292,293,294,295,296,297,298,299,300],"tree_info":[0,0,0,0,0,0,0,0,0,0,0,0,0,0,0,0,0,0,0,0,0,0,0,0,0,0,0,0,0,0,0,0,0,0,0,0,0,0,0,0,0,0,0,0,0,0,0,0,0,0,0,0,0,0,0,0,0,0,0,0,0,0,0,0,0,0,0,0,0,0,0,0,0,0,0,0,0,0,0,0,0,0,0,0,0,0,0,0,0,0,0,0,0,0,0,0,0,0,0,0,0,0,0,0,0,0,0,0,0,0,0,0,0,0,0,0,0,0,0,0,0,0,0,0,0,0,0,0,0,0,0,0,0,0,0,0,0,0,0,0,0,0,0,0,0,0,0,0,0,0,0,0,0,0,0,0,0,0,0,0,0,0,0,0,0,0,0,0,0,0,0,0,0,0,0,0,0,0,0,0,0,0,0,0,0,0,0,0,0,0,0,0,0,0,0,0,0,0,0,0,0,0,0,0,0,0,0,0,0,0,0,0,0,0,0,0,0,0,0,0,0,0,0,0,0,0,0,0,0,0,0,0,0,0,0,0,0,0,0,0,0,0,0,0,0,0,0,0,0,0,0,0,0,0,0,0,0,0,0,0,0,0,0,0,0,0,0,0,0,0,0,0,0,0,0,0,0,0,0,0,0,0,0,0,0,0,0,0,0,0,0,0,0,0,0,0,0,0,0,0],"trees":[{"base_weights":[-3.6671538E-2,-2.1164753E0,3.7484747E-1,-1.6444154E0,-2.9196632E0,2.7475379E0,-5.001343E-1,-2.590639E0,-1.1562418E0,-2.7890558E0,-5.749607E-2,-7.208971E-1,3.9590185E0,-2.2316363E0,4.537818E-1,-2.28902E0,-5.8408704E-2,-4.725229E-2,-1.459837E0,-4.736915E-2,-2.578764E0,1.0042397E0,-2.5087736E0,1.004593E0,4.6067057E0,-1.9399105E0,-4.072549E0,1.170133E0,-8.431947E-1,-3.6764223E-2,-2.1810427E-2,5.0269533E-3,-4.9282346E-2,-3.0652897E-2,-1.14499545E-2,-3.2694727E-2,-2.6154473E-2,-2.276126E-2,2.338013E-2,-3.1514987E-2,1.0339344E-2,2.7254466E-2,7.871607E-3,5.9124425E-2,-1.0121554E-2,-1.9191317E-2,-3.6082186E-2,-6.1634026E-2,-3.6278974E-2,2.0932015E-2,-1.7449374E-3,-1.2976341E-2,4.9228154E-2],"categories":[],"categories_nodes":[],"categories_segments":[],"categories_sizes":[],"default_left":[0,0,0,0,0,0,0,0,0,0,0,0,0,0,0,0,0,0,0,0,0,0,0,0,0,0,0,0,0,0,0,0,0,0,0,0,0,0,0,0,0,0,0,0,0,0,0,0,0,0,0,0,0],"id":0,"left_children":[1,3,5,7,9,11,13,15,17,19,-1,21,23,25,27,29,-1,31,33,-1,35,37,39,41,43,45,47,49,51,-1,-1,-1,-1,-1,-1,-1,-1,-1,-1,-1,-1,-1,-1,-1,-1,-1,-1,-1,-1,-1,-1,-1,-1],"loss_changes":[2.1036875E3,1.4913489E2,4.2614507E3,1.161803E2,2.442163E1,2.3265283E3,2.4785745E3,5.058899E1,5.7840607E1,2.6246338E1,0E0,4.4666318E2,7.799248E2,2.7834277E2,9.003465E2,2.3015808E1,0E0,7.6052475E1,7.2674286E1,0E0,2.4881592E0,2.1596295E2,4.1330414E1,3.1494621E1,7.4660693E2,1.5691809E2,6.663684E1,4.9695862E2,4.4858057E2,0E0,0E0,0E0,0E0,0E0,0E0,0E0,0E0,0E0,0E0,0E0,0E0,0E0,0E0,0E0,0E0,0E0,0E0,0E0,0E0,0E0,0E0,0E0,0E0],"parents":[2147483647,0,0,1,1,2,2,3,3,4,4,5,5,6,6,7,7,8,8,9,9,11,11,12,12,13,13,14,14,15,15,17,17,18,18,20,20,21,21,22,22,23,23,24,24,25,25,26,26,27,27,28,28],"right_children":[2,4,6,8,10,12,14,16,18,20,-1,22,24,26,28,30,-1,32,34,-1,36,38,40,42,44,46,48,50,52,-1,-1,-1,-1,-1,-1,-1,-1,-1,-1,-1,-1,-1,-1,-1,-1,-1,-1,-1,-1,-1,-1,-1,-1],"split_conditions":[2E0,2.022E3,1.1E1,2.007E3,2.026E3,9.5E0,3.7E1,2.006E3,2.011E3,2.023E3,-5.749607E-2,2.5E0,2.004E3,2.7E1,2.019E3,2.002E3,-5.8408704E-2,1.5E0,2.016E3,-4.736915E-2,2.025E3,2.005E3,2.026E3,1E1,2.024E3,2.021E3,2.009E3,1.12E2,9.3E2,-3.6764223E-2,-2.1810427E-2,5.0269533E-3,-4.9282346E-2,-3.0652897E-2,-1.14499545E-2,-3.2694727E-2,-2.6154473E-2,-2.276126E-2,2.338013E-2,-3.1514987E-2,1.0339344E-2,2.7254466E-2,7.871607E-3,5.9124425E-2,-1.0121554E-2,-1.9191317E-2,-3.6082186E-2,-6.1634026E-2,-3.6278974E-2,2.0932015E-2,-1.7449374E-3,-1.2976341E-2,4.9228154E-2],"split_indices":[4,3,4,3,3,4,4,3,3,3,0,4,3,4,3,3,0,4,3,0,3,3,3,4,3,3,3,4,4,0,0,0,0,0,0,0,0,0,0,0,0,0,0,0,0,0,0,0,0,0,0,0,0],"split_type":[0,0,0,0,0,0,0,0,0,0,0,0,0,0,0,0,0,0,0,0,0,0,0,0,0,0,0,0,0,0,0,0,0,0,0,0,0,0,0,0,0,0,0,0,0,0,0,0,0,0,0,0,0],"sum_hessian":[2.456E3,4.05E2,2.051E3,2.57E2,1.48E2,5.52E2,1.499E3,8.6E1,1.71E2,1.41E2,7E0,1.43E2,4.09E2,5.32E2,9.67E2,7.8E1,8E0,3.7E1,1.34E2,1.8E1,1.23E2,7.3E1,7E1,7.4E1,3.35E2,4.61E2,7.1E1,6.23E2,3.44E2,2.5E1,5.3E1,3.4E1,3E0,3.9E1,9.5E1,7.6E1,4.7E1,1.8E1,5.5E1,6.7E1,3E0,1.4E1,6E1,3.12E2,2.3E1,3.62E2,9.9E1,3.1E1,4E1,4.27E2,1.96E2,3.28E2,1.6E1],"tree_param":{"num_deleted":"0","num_feature":"5","num_nodes":"53","size_leaf_vector":"1"}},{"base_weights":[-4.3468084E-2,2.856217E0,-3.1826982E0,5.3041487E0,1.1263664E0,-2.1960323E0,-4.4991193E0,5.9195766E0,4.098391E0,1.502399E0,3.465682E-1,-1.5160216E0,-3.2703722E0,-4.119097E0,-6.433167E-2,6.4114065E0,2.7325625E0,-2.101173E0,4.3972216E0,2.9151878E0,1.300826E0,-8.118461E-1,1.0906031E0,-1.9646082E0,-7.615348E-1,-2.6182091E0,-3.5560977E0,-4.149126E0,8.674281E-1,7.145953E-2,8.4435716E-2,6.825391E-2,2.741625E-2,4.7160726E-2,-3.968075E-2,5.4956287E-2,-1.0233915E-2,5.5883452E-2,2.495083E-3,1.6714307E-2,-1.1488406E-2,1.2420861E-2,-4.205094E-2,1.8028181E-2,-3.1153124E-2,2.6219483E-3,-2.8912973E-2,8.291168E-3,-2.6818193E-2,-2.622273E-2,-4.342914E-2,-4.944563E-2,-3.5196036E-2,-5.229713E-2,-4.276152E-2,4.8130445E-2,-3.2778345E-2],"categories":[0,1,2,4,7,8,11,12,14,15,17,18,19,21,22,23,24,25,27,28,29,30,31,32,34,36,37,38,40,41,42,43,44,45,46,47,49,51,52,53,54,55,57,58,59,60,61,62,63,64,65,67,68,69,70,71,72,73,75,76,80,81,82,83,84,85,86,87,88,89,90,91,92,93,94,97,98,99,100,101,102,103,105,106,107,109,111,112,113,114,115,116,117,118,120,121,124,125,126,127,128,129,130,131,132,134,135,136,137,138,139,140,141,142,144,145,146,147,148,149,151,152,153,154,156,157,158,159,160,161,162,163,164,165,166,167,168,169,170,171,172,173,174,177,178,179,180,181,182,183,184,185,186,187,188,189,191,192,193,194,195,196,197,198,199,200,201,202,203,204,205,207,208,210,211,212,213,215,216,217,218,0,1,2,3,4,6,7,8,9,10,11,12,13,14,15,16,17,18,19,21,22,23,24,25,27,28,29,30,31,32,33,34,35,36,37,38,40,41,42,43,44,45,46,47,48,49,50,51,52,53,54,55,56,57,58,59,60,61,62,63,64,65,66,67,68,69,70,71,72,73,74,75,76,77,78,79,80,81,82,83,84,85,86,87,88,89,90,91,92,93,94,95,96,97,98,99,100,101,102,103,104,105,106,107,109,110,111,112,113,114,115,116,117,118,119,120,121,123,124,125,126,127,128,129,130,131,132,133,134,135,136,137,138,139,140,141,142,143,144,145,146,147,148,149,150,151,152,153,154,155,156,157,158,159,160,161,162,163,164,165,166,167,168,169,170,171,172,173,174,176,177,178,179,180,181,182,183,184,185,186,187,188,189,190,191,192,193,194,195,196,197,198,199,200,201,202,203,204,205,206,207,208,210,211,212,213,214,215,216,217,218,0,2,12,14,17,19,22,23,24,29,31,36,41,43,45,47,53,58,60,64,71,72,76,81,82,84,90,91,92,93,102,105,106,107,113,114,118,125,132,138,141,144,145,147,157,158,178,179,180,183,184,185,187,189,192,202,203,207,208,210,212,213,216,0,1,2,3,4,5,6,7,8,9,10,11,12,13,14,15,16,17,18,19,20,21,22,23,24,25,27,28,29,30,31,32,33,34,35,36,37,38,39,40,41,42,43,44,45,46,47,48,49,50,51,52,53,54,55,56,57,58,59,60,61,62,63,64,65,66,67,68,69,70,71,72,73,74,75,76,77,78,79,80,81,82,83,84,85,86,87,88,89,90,91,92,93,94,95,96,97,98,99,100,101,102,103,104,105,106,107,109,110,111,112,113,114,115,116,117,118,119,120,121,122,123,124,125,126,127,128,129,130,131,132,133,134,135,136,137,138,139,140,141,142,143,144,145,146,147,148,149,150,151,152,153,154,155,156,157,158,159,160,161,162,163,164,165,166,167,168,169,170,171,172,173,174,176,177,178,179,180,181,182,183,184,185,186,187,188,189,190,191,192,193,194,195,196,197,198,199,200,201,202,203,204,205,206,207,208,210,211,212,213,214,215,216,217,218,0,1,2,3,4,5,6,7,8,10,11,12,14,15,17,18,19,20,21,22,23,24,25,26,27,28,29,30,31,32,33,34,36,37,38,39,40,41,42,43,44,45,46,47,48,49,50,51,52,53,54,55,57,58,59,60,61,62,63,64,65,67,68,69,70,71,72,73,75,76,80,81,82,83,84,85,86,87,88,89,90,91,92,93,94,97,98,99,100,101,102,103,104,105,106,107,108,109,111,112,113,114,115,116,117,118,120,121,122,124,125,126,127,128,129,130,131,132,133,134,135,136,137,138,139,140,141,142,143,144,145,146,147,148,149,151,152,153,154,155,156,157,158,159,160,161,162,163,164,165,166,167,168,169,170,171,172,173,174,175,176,177,178,179,180,181,182,183,184,185,186,187,188,189,191,192,193,194,195,196,197,198,199,200,201,202,203,204,205,206,207,208,209,210,211,212,213,214,215,216,217,218,15,21,25,37,40,55,65,68,73,75,80,85,86,97,99,100,111,120,121,124,134,136,137,140,142,148,151,152,153,159,161,162,167,171,172,174,188,193,195,201,215,218,23,29,36,43,47,53,71,72,90,91,93,105,106,113,114,132,141,145,147,178,184,187,189,203,15,21,37,40,55,65,68,73,75,80,86,97,99,100,111,120,121,124,134,136,137,140,148,151,159,161,162,171,172,174,193,195,201,215,218,39,0,1,2,3,4,5,6,7,8,10,11,12,13,14,15,17,18,19,20,21,22,23,24,25,26,27,28,29,30,31,32,33,34,35,36,37,38,39,40,41,42,43,44,45,46,47,48,49,50,51,52,53,54,55,56,57,58,59,60,61,62,63,64,65,66,67,68,69,70,71,72,73,75,76,77,78,79,80,81,82,83,84,85,86,87,88,89,90,91,92,93,94,95,96,97,98,99,100,101,102,103,104,105,106,107,108,109,111,112,113,114,115,116,117,118,119,120,121,122,123,124,125,126,127,128,129,130,131,132,133,134,135,136,137,138,139,140,141,142,143,144,145,146,147,148,149,150,151,152,153,154,155,156,157,158,159,160,161,162,163,164,165,166,167,168,169,170,171,172,173,174,175,176,177,178,179,180,181,182,183,184,185,186,187,188,189,190,191,192,193,194,195,196,197,198,199,200,201,202,203,204,205,206,207,208,209,210,211,212,213,214,215,216,217,218,9,48,176,214,10,104,133,143,7,8,18,34,42,46,57,88,89,103,112,128,129,130,135,166,177,196,200,204,1,7,18,27,52,54,57,59,63,94,112,146,164,173,182,157],"categories_nodes":[0,1,2,3,4,5,6,12,17,19,20,21,22,23,24,28],"categories_segments":[0,181,392,455,670,872,914,938,973,974,1189,1190,1193,1197,1217,1232],"categories_sizes":[181,211,63,215,202,42,24,35,1,215,1,3,4,20,15,1],"default_left":[0,0,1,0,0,1,1,0,0,0,0,0,1,0,0,0,0,1,0,0,1,1,1,1,1,0,0,0,1,0,0,0,0,0,0,0,0,0,0,0,0,0,0,0,0,0,0,0,0,0,0,0,0,0,0,0,0],"id":1,"left_children":[1,3,5,7,9,11,13,15,17,19,21,23,25,27,-1,29,31,33,35,37,39,41,43,45,47,49,51,53,55,-1,-1,-1,-1,-1,-1,-1,-1,-1,-1,-1,-1,-1,-1,-1,-1,-1,-1,-1,-1,-1,-1,-1,-1,-1,-1,-1,-1],"loss_changes":[2.2256281E4,5.3761475E3,1.5149902E3,3.6606055E2,2.1822864E2,4.8671094E2,1.5938672E2,5.248242E2,3.4456372E2,1.3945227E2,2.1118916E2,1.3862335E2,3.913745E1,5.795459E1,0E0,3.570996E1,4.6470642E1,8.270046E1,2.4130444E2,3.042746E2,1.1776465E2,4.9637274E2,2.4715898E2,2.7573187E2,3.468326E2,2.6721252E1,5.223633E1,3.761035E1,4.6458138E1,0E0,0E0,0E0,0E0,0E0,0E0,0E0,0E0,0E0,0E0,0E0,0E0,0E0,0E0,0E0,0E0,0E0,0E0,0E0,0E0,0E0,0E0,0E0,0E0,0E0,0E0,0E0,0E0],"parents":[2147483647,0,0,1,1,2,2,3,3,4,4,5,5,6,6,7,7,8,8,9,9,10,10,11,11,12,12,13,13,15,15,16,16,17,17,18,18,19,19,20,20,21,21,22,22,23,23,24,24,25,25,26,26,27,27,28,28],"right_children":[2,4,6,8,10,12,14,16,18,20,22,24,26,28,-1,30,32,34,36,38,40,42,44,46,48,50,52,54,56,-1,-1,-1,-1,-1,-1,-1,-1,-1,-1,-1,-1,-1,-1,-1,-1,-1,-1,-1,-1,-1,-1,-1,-1,-1,-1,-1,-1],"split_conditions":[1E-45,1E-45,1E-45,1E-45,1E-45,1E-45,1E-45,1.1E1,1.5E1,4E0,8E0,9E0,1E-45,6.79E2,-6.433167E-2,7E0,2.5E0,1E-45,1.12E2,1E-45,1E-45,1E-45,1E-45,1E-45,1E-45,1.1E1,7E0,9E0,1E-45,7.145953E-2,8.4435716E-2,6.825391E-2,2.741625E-2,4.7160726E-2,-3.968075E-2,5.4956287E-2,-1.0233915E-2,5.5883452E-2,2.495083E-3,1.6714307E-2,-1.1488406E-2,1.2420861E-2,-4.205094E-2,1.8028181E-2,-3.1153124E-2,2.6219483E-3,-2.8912973E-2,8.291168E-3,-2.6818193E-2,-2.622273E-2,-4.342914E-2,-4.944563E-2,-3.5196036E-2,-5.229713E-2,-4.276152E-2,4.8130445E-2,-3.2778345E-2],"split_indices":[0,0,0,0,0,0,0,2,4,2,2,2,0,4,0,2,4,0,4,0,0,0,0,0,0,2,2,2,0,0,0,0,0,0,0,0,0,0,0,0,0,0,0,0,0,0,0,0,0,0,0,0,0,0,0,0,0],"split_type":[1,1,1,1,1,1,1,0,0,0,0,0,1,0,0,0,0,1,0,1,1,1,1,1,1,0,0,0,1,0,0,0,0,0,0,0,0,0,0,0,0,0,0,0,0,0,0,0,0,0,0,0,0,0,0,0,0],"sum_hessian":[2.443E3,1.27E3,1.173E3,5.25E2,7.45E2,6.72E2,5.01E2,3.45E2,1.8E2,5.02E2,2.43E2,4.13E2,2.59E2,3.62E2,1.39E2,2.98E2,4.7E1,8E0,1.72E2,6.1E1,4.41E2,9.5E1,1.48E2,2.58E2,1.55E2,8.2E1,1.77E2,3.6E2,2E0,2.08E2,9E1,4E0,4.3E1,1E0,7E0,1.64E2,8E0,3.6E1,2.5E1,4.2E2,2.1E1,5.7E1,3.8E1,1.33E2,1.5E1,4.7E1,2.11E2,7.9E1,7.6E1,6.2E1,2E1,8.1E1,9.6E1,2.29E2,1.31E2,1E0,1E0],"tree_param":{"num_deleted":"0","num_feature":"5","num_nodes":"57","size_leaf_vector":"1"}},{"base_weights":[-2.414166E-2,4.675915E-1,-1.6449972E0,-1.5337634E-1,1.1363373E0,-1.0963455E0,-2.5381556E0,2.3960853E-2,-2.942264E0,1.6415826E0,7.332701E-2,-1.6538835E0,-1.8377417E-1,-2.144479E0,-3.0038118E0,-6.340351E-1,6.1106706E-1,-3.201907E0,3.404183E-2,2.0544832E0,3.5029608E-1,-1.7099018E0,6.2475955E-1,-1.8761047E0,2.2983558E-1,5.5273384E-1,-2.3038752E0,-1.573039E0,-3.3838434E0,-3.612454E-2,1.4709217E-2,-1.8240541E-2,8.515939E-3,9.999642E-3,-1.1894293E-2,-3.0999368E-2,-6.0054887E-2,8.211358E-3,2.6297802E-2,-1.0460745E-2,1.32886795E-2,-3.3502933E-2,6.210745E-3,-7.714819E-3,1.2972078E-2,-1.716662E-2,-3.710081E-2,6.7164585E-2,-9.694035E-3,-7.6686135E-3,2.0584086E-2,-1.6417475E-2,-4.6449635E-2,-5.709185E-2,-1.4315864E-2,-1.8977221E-2,-4.9221978E-2],"categories":[],"categories_nodes":[],"categories_segments":[],"categories_sizes":[],"default_left":[0,0,0,0,0,0,0,0,0,0,0,0,0,0,0,0,0,0,0,0,0,0,0,0,0,0,0,0,0,0,0,0,0,0,0,0,0,0,0,0,0,0,0,0,0,0,0,0,0,0,0,0,0,0,0,0,0],"id":2,"left_children":[1,3,5,7,9,11,13,15,17,19,21,23,25,27,29,31,33,35,-1,37,39,41,43,45,47,49,51,53,55,-1,-1,-1,-1,-1,-1,-1,-1,-1,-1,-1,-1,-1,-1,-1,-1,-1,-1,-1,-1,-1,-1,-1,-1,-1,-1,-1,-1],"loss_changes":[1.9415332E3,7.7631323E2,2.7506592E2,4.7980682E2,4.8325256E2,1.7929996E2,3.29718E1,3.530917E2,9.699484E1,3.2451587E2,2.8721744E2,9.210516E1,2.1207207E2,7.966376E1,2.7428162E1,5.3398755E2,1.8575906E2,4.7377686E1,0E0,1.0787549E2,1.4400488E2,1.757936E2,1.3606158E2,1.00125E2,1.4252263E2,1.4590645E2,4.6669098E1,9.280705E1,4.5048035E1,0E0,0E0,0E0,0E0,0E0,0E0,0E0,0E0,0E0,0E0,0E0,0E0,0E0,0E0,0E0,0E0,0E0,0E0,0E0,0E0,0E0,0E0,0E0,0E0,0E0,0E0,0E0,0E0],"parents":[2147483647,0,0,1,1,2,2,3,3,4,4,5,5,6,6,7,7,8,8,9,9,10,10,11,11,12,12,13,13,14,14,15,15,16,16,17,17,19,19,20,20,21,21,22,22,23,23,24,24,25,25,26,26,27,27,28,28],"right_children":[2,4,6,8,10,12,14,16,18,20,22,24,26,28,30,32,34,36,-1,38,40,42,44,46,48,50,52,54,56,-1,-1,-1,-1,-1,-1,-1,-1,-1,-1,-1,-1,-1,-1,-1,-1,-1,-1,-1,-1,-1,-1,-1,-1,-1,-1,-1,-1],"split_conditions":[2.022E3,2.012E3,2.025E3,1.2E1,2.019E3,2.024E3,8E0,7E0,2.011E3,1E1,4E0,1.2E1,1.1E1,2.026E3,2.026E3,2.007E3,2.01E3,2.008E3,3.404183E-2,2E0,2.014E3,2.021E3,2.02E3,1E1,2.023E3,7E0,1.2E1,2E0,2E0,-3.612454E-2,1.4709217E-2,-1.8240541E-2,8.515939E-3,9.999642E-3,-1.1894293E-2,-3.0999368E-2,-6.0054887E-2,8.211358E-3,2.6297802E-2,-1.0460745E-2,1.32886795E-2,-3.3502933E-2,6.210745E-3,-7.714819E-3,1.2972078E-2,-1.716662E-2,-3.710081E-2,6.7164585E-2,-9.694035E-3,-7.6686135E-3,2.0584086E-2,-1.6417475E-2,-4.6449635E-2,-5.709185E-2,-1.4315864E-2,-1.8977221E-2,-4.9221978E-2],"split_indices":[3,3,3,2,3,3,2,2,3,2,2,2,2,3,3,3,3,3,0,2,3,3,3,2,3,2,2,2,2,0,0,0,0,0,0,0,0,0,0,0,0,0,0,0,0,0,0,0,0,0,0,0,0,0,0,0,0],"split_type":[0,0,0,0,0,0,0,0,0,0,0,0,0,0,0,0,0,0,0,0,0,0,0,0,0,0,0,0,0,0,0,0,0,0,0,0,0,0,0,0,0,0,0,0,0,0,0,0,0,0,0,0,0,0,0,0,0],"sum_hessian":[2.434E3,1.868E3,5.66E2,9.69E2,8.99E2,3.52E2,2.14E2,9.12E2,5.7E1,6.09E2,2.9E2,2.18E2,1.34E2,1.19E2,9.5E1,4.3E2,4.82E2,5.5E1,2E0,4.61E2,1.48E2,6.8E1,2.22E2,1.95E2,2.3E1,1E2,3.4E1,8.3E1,3.6E1,9.4E1,1E0,2.57E2,1.73E2,4.21E2,6.1E1,4.4E1,1.1E1,5.3E1,4.08E2,5.7E1,9.1E1,4.5E1,2.3E1,6E1,1.62E2,1.48E2,4.7E1,3E0,2E1,5E1,5E1,2.3E1,1.1E1,7E0,7.6E1,1.2E1,2.4E1],"tree_param":{"num_deleted":"0","num_feature":"5","num_nodes":"57","size_leaf_vector":"1"}},{"base_weights":[2.3771068E-2,2.8774917E0,-3.0192592E0,5.07214E0,1.3038869E0,-2.0973217E0,-4.3068585E0,5.8753204E0,3.6734803E0,2.4761722E0,1.1359575E0,-1.2625252E0,-2.749079E0,-3.8523514E0,-6.3736506E-2,6.180657E0,4.5695137E-2,3.9207165E0,3.0176296E0,3.6464806E0,-8.0611354E-1,-1.0677658E0,1.251794E0,-1.7478708E0,-6.228785E-1,-2.4287202E0,-3.6917217E0,-3.4888475E0,-4.2296257E0,7.058452E-2,8.467459E-2,4.0413704E-2,5.229468E-2,2.5531443E-2,4.702087E-2,2.962145E-2,5.411571E-2,3.6972591E-3,-3.3403948E-2,1.9823039E-2,-4.427896E-2,1.5926998E-2,-7.6552154E-3,1.5778998E-2,-3.09102E-2,1.0565328E-2,-3.7657198E-2,-4.2242285E-2,-2.6536005E-2,-4.8452828E-2,-1.5752085E-2,-3.2918908E-2,-4.4203114E-2,-5.4746825E-2,-3.6172416E-2],"categories":[0,1,2,3,4,7,8,10,11,12,14,15,17,18,19,20,21,22,23,24,25,27,28,29,31,32,34,36,37,38,40,41,42,43,44,45,46,47,48,50,51,52,53,54,55,57,58,59,60,61,62,63,64,65,67,68,69,71,72,73,75,76,80,81,82,83,84,85,86,87,88,89,90,91,92,93,94,97,98,99,100,101,102,103,105,106,107,109,111,112,113,114,115,116,117,118,120,121,124,125,126,127,128,129,131,132,134,136,137,138,140,141,144,145,146,147,148,149,151,152,153,154,156,157,158,159,160,161,162,163,167,168,170,171,172,173,174,176,177,178,179,180,181,182,183,184,185,186,187,188,189,191,192,193,194,195,196,198,199,200,201,202,203,204,205,206,207,208,210,211,212,213,215,216,217,218,0,1,2,3,4,6,7,8,9,10,11,12,13,14,15,16,17,18,19,20,21,22,23,24,25,27,28,29,30,31,32,33,34,35,36,37,38,40,41,42,43,44,45,46,47,48,49,50,51,52,53,54,55,57,58,59,60,61,62,63,64,65,66,67,68,69,70,71,72,73,74,75,76,77,78,79,80,81,82,83,84,85,86,87,88,89,90,91,92,93,94,95,96,97,98,99,100,101,102,103,104,105,106,107,109,111,112,113,114,115,116,117,118,119,120,121,123,124,125,126,127,128,129,130,131,132,133,134,135,136,137,138,140,141,142,143,144,145,146,147,148,149,150,151,152,153,154,155,156,157,158,159,160,161,162,163,164,166,167,168,170,171,172,173,174,176,177,178,179,180,181,182,183,184,185,186,187,188,189,190,191,192,193,194,195,196,197,198,199,200,201,202,203,204,205,206,207,208,210,211,212,213,214,215,216,217,218,0,2,12,14,22,23,24,29,31,34,36,40,43,45,53,58,64,68,71,72,73,81,84,86,90,91,92,93,105,106,107,113,114,121,125,132,138,141,144,145,147,148,149,157,159,178,179,180,184,185,189,192,193,202,203,207,208,210,212,213,216,218,0,1,2,3,4,5,6,7,8,9,10,11,12,13,14,15,16,17,18,19,20,21,22,23,24,25,27,28,29,30,31,32,33,34,35,36,37,38,39,40,41,42,43,44,45,46,47,48,49,50,51,52,53,54,55,56,57,58,59,60,61,62,63,64,65,66,67,68,69,70,71,72,73,74,75,76,77,78,79,80,81,82,83,84,85,86,87,88,89,90,91,92,93,94,95,96,97,98,99,100,101,102,103,104,105,106,107,109,110,111,112,113,114,115,116,117,118,119,120,121,123,124,125,126,127,128,129,130,131,132,133,134,135,136,137,138,139,140,141,142,143,144,145,146,147,148,149,150,151,152,153,154,155,156,157,158,159,160,161,162,163,164,166,167,168,169,170,171,172,173,174,176,177,178,179,180,181,182,183,184,185,186,187,188,189,190,191,192,193,194,195,196,197,198,199,200,201,202,203,204,205,206,207,208,210,211,212,213,214,215,216,217,218,1,3,8,15,17,19,20,21,25,37,38,42,44,47,50,55,57,60,63,65,80,85,94,97,99,100,102,111,112,115,118,120,124,129,136,137,140,151,152,158,161,162,167,170,171,172,174,183,188,195,200,201,0,23,29,36,43,53,64,71,72,73,90,91,105,106,114,125,132,141,145,147,178,184,185,189,203,208,0,1,2,3,4,5,6,7,8,10,11,12,13,14,15,17,18,19,20,21,22,23,24,25,26,27,28,29,30,31,32,33,34,35,36,37,38,39,40,41,42,43,44,45,46,47,48,50,51,52,53,54,55,56,57,58,59,60,61,62,63,64,65,67,68,69,71,72,73,75,76,77,78,79,80,81,82,83,84,85,86,87,88,89,90,91,92,93,94,95,97,98,99,100,101,102,103,105,106,107,108,109,110,111,112,113,114,115,116,117,118,119,120,121,122,124,125,126,127,128,129,130,131,132,134,136,137,138,139,140,141,142,143,144,145,146,147,148,149,150,151,152,153,154,156,157,158,159,160,161,162,163,164,165,166,167,168,169,170,171,172,173,174,175,176,177,178,179,180,181,182,183,184,185,186,187,188,189,190,191,192,193,194,195,196,197,198,199,200,201,202,203,204,205,206,207,208,209,210,211,212,213,214,215,216,217,218,3,15,19,20,21,37,42,44,55,63,65,97,99,100,102,111,115,118,120,137,140,151,161,162,170,171,172,174,183,188,195,201,2,12,14,22,24,34,45,58,81,92,107,113,148,149,157,159,192,193,202,207,213,216,33,190,214,33,79,95,96,130,135,214,0,1,2,3,4,5,7,8,9,10,11,12,14,15,16,17,18,19,20,21,22,23,24,25,26,27,28,29,31,32,34,36,37,38,39,40,41,42,43,44,45,46,47,48,49,50,51,52,53,54,55,56,57,58,59,60,61,62,63,64,65,66,67,68,69,70,71,72,73,75,76,80,81,82,83,84,85,86,87,88,89,90,91,92,93,94,97,98,99,100,101,102,103,104,105,106,107,108,109,110,111,112,113,114,115,116,117,118,120,121,122,124,125,126,127,128,129,131,132,134,136,137,138,139,140,141,142,143,144,145,146,147,148,149,151,152,153,154,156,157,158,159,160,161,162,163,165,167,168,169,170,171,172,173,174,175,176,177,178,179,180,181,182,183,184,185,186,187,188,189,191,192,193,194,195,196,198,199,200,201,202,203,204,205,206,207,208,209,210,211,212,213,215,216,217,218,7,18,41,46,48,59,76,88,89,103,128,153,160,176,177,196,204,7,10,27,52,54,76,146,173,182,187,206],"categories_nodes":[0,1,2,3,5,6,9,12,13,20,21,22,23,24],"categories_segments":[0,176,383,445,658,710,736,943,975,997,1000,1007,1203,1220],"categories_sizes":[176,207,62,213,52,26,207,32,22,3,7,196,17,11],"default_left":[0,0,1,0,0,1,1,0,0,0,0,0,1,1,0,0,0,0,0,0,1,1,0,1,1,0,0,0,0,0,0,0,0,0,0,0,0,0,0,0,0,0,0,0,0,0,0,0,0,0,0,0,0,0,0],"id":3,"left_children":[1,3,5,7,9,11,13,15,17,19,21,23,25,27,-1,29,-1,31,33,35,37,39,41,43,45,47,49,51,53,-1,-1,-1,-1,-1,-1,-1,-1,-1,-1,-1,-1,-1,-1,-1,-1,-1,-1,-1,-1,-1,-1,-1,-1,-1,-1],"loss_changes":[2.1371227E4,4.3793438E3,1.4047852E3,5.7380664E2,1.4306128E2,3.752119E2,2.2604785E2,1.8089551E2,1.995044E1,3.5633783E2,1.6726306E2,9.421933E1,1.0880737E2,3.3791504E1,0E0,1.4160156E1,0E0,2.0044922E1,3.9287354E1,6.1096924E1,5.755979E1,2.497792E2,1.1606909E2,4.7154547E2,5.2547363E2,5.278308E1,8.934436E1,2.3021484E1,6.6490234E1,0E0,0E0,0E0,0E0,0E0,0E0,0E0,0E0,0E0,0E0,0E0,0E0,0E0,0E0,0E0,0E0,0E0,0E0,0E0,0E0,0E0,0E0,0E0,0E0,0E0,0E0],"parents":[2147483647,0,0,1,1,2,2,3,3,4,4,5,5,6,6,7,7,8,8,9,9,10,10,11,11,12,12,13,13,15,15,17,17,18,18,19,19,20,20,21,21,22,22,23,23,24,24,25,25,26,26,27,27,28,28],"right_children":[2,4,6,8,10,12,14,16,18,20,22,24,26,28,-1,30,-1,32,34,36,38,40,42,44,46,48,50,52,54,-1,-1,-1,-1,-1,-1,-1,-1,-1,-1,-1,-1,-1,-1,-1,-1,-1,-1,-1,-1,-1,-1,-1,-1,-1,-1],"split_conditions":[1E-45,1E-45,1E-45,1E-45,4E0,1E-45,1E-45,1.1E1,9E0,1E-45,5E0,9E0,1E-45,1E-45,-6.3736506E-2,9E0,4.5695137E-2,7E0,1E1,2E0,1E-45,1E-45,1E-45,1E-45,1E-45,2E0,1.1E1,4E0,9E0,7.058452E-2,8.467459E-2,4.0413704E-2,5.229468E-2,2.5531443E-2,4.702087E-2,2.962145E-2,5.411571E-2,3.6972591E-3,-3.3403948E-2,1.9823039E-2,-4.427896E-2,1.5926998E-2,-7.6552154E-3,1.5778998E-2,-3.09102E-2,1.0565328E-2,-3.7657198E-2,-4.2242285E-2,-2.6536005E-2,-4.8452828E-2,-1.5752085E-2,-3.2918908E-2,-4.4203114E-2,-5.4746825E-2,-3.6172416E-2],"split_indices":[0,0,0,0,2,0,0,2,2,0,2,2,0,0,0,2,0,2,2,2,0,0,0,0,0,2,2,2,2,0,0,0,0,0,0,0,0,0,0,0,0,0,0,0,0,0,0,0,0,0,0,0,0,0,0],"split_type":[1,1,1,1,0,1,1,0,0,1,0,0,1,1,0,0,0,0,0,0,1,1,1,1,1,0,0,0,0,0,0,0,0,0,0,0,0,0,0,0,0,0,0,0,0,0,0,0,0,0,0,0,0,0,0],"sum_hessian":[2.459E3,1.269E3,1.19E3,5.29E2,7.4E2,6.95E2,4.95E2,3.34E2,1.95E2,9.1E1,6.49E2,3.06E2,3.89E2,3.53E2,1.42E2,2.88E2,4.6E1,1.38E2,5.7E1,6.7E1,2.4E1,3.2E1,6.17E2,1.73E2,1.33E2,2.93E2,9.6E1,1.85E2,1.68E2,2.46E2,4.2E1,7.4E1,6.4E1,3.2E1,2.5E1,3.2E1,3.5E1,1.6E1,8E0,1.6E1,1.6E1,5.87E2,3E1,3.8E1,1.35E2,8.4E1,4.9E1,3.7E1,2.56E2,8.1E1,1.5E1,5.3E1,1.32E2,1.22E2,4.6E1],"tree_param":{"num_deleted":"0","num_feature":"5","num_nodes":"55","size_leaf_vector":"1"}},{"base_weights":[-1.6179133E-2,2.879382E0,-3.0124836E0,4.956789E0,1.2377071E0,-2.068506E0,-4.3029118E0,5.8125467E0,3.5176663E0,6.4007944E-1,1.4693074E0,-8.362461E-1,-2.5202255E0,-3.891419E0,-5.152513E0,6.2586966E0,3.1868842E0,4.0508175E0,2.102576E0,1.5209105E0,-3.4803646E0,1.663108E0,-1.4351676E0,-3.056419E0,-5.405315E-1,-2.2385416E0,-3.2091024E0,-4.334269E0,-3.6257343E0,-6.174127E-2,8.727029E-1,6.9315165E-2,8.284437E-2,7.329047E-2,3.2245826E-2,-1.3933516E-2,4.914991E-2,2.9671822E-2,-4.9485043E-2,4.7432367E-2,8.601555E-3,-2.0583196E-2,-4.7362674E-2,1.8925387E-2,5.7713706E-2,-3.8108993E-2,-9.479947E-3,-7.654807E-3,-5.9097685E-2,-2.2493224E-3,-2.5293255E-2,-2.669391E-2,3.8166057E-2,-2.7143873E-2,-4.0999692E-2,-2.4847977E-2,-5.5618055E-2,-3.7406426E-2,-5.7772405E-2,4.7938462E-2,-3.2493006E-2],"categories":[0,1,2,4,7,8,11,12,14,15,17,18,19,20,21,22,23,24,25,27,28,29,31,32,34,36,37,38,40,41,42,43,44,45,46,47,48,49,50,51,52,53,54,55,57,58,59,60,61,62,63,64,65,67,68,69,71,72,73,75,76,80,81,82,83,84,85,86,87,88,89,90,91,92,93,94,97,98,99,100,101,102,103,105,106,107,109,111,112,113,114,115,116,117,118,120,121,124,125,126,127,129,131,132,134,135,136,137,138,139,140,141,142,144,145,146,147,148,149,151,152,153,154,157,158,159,160,161,162,163,167,168,169,170,171,172,173,174,176,177,178,179,180,181,182,183,184,185,186,187,188,189,191,192,193,194,195,197,198,199,200,201,202,203,204,205,206,207,208,210,211,212,213,215,216,217,218,0,1,2,4,6,7,8,9,10,11,12,13,14,15,16,17,18,19,20,21,22,23,24,25,27,28,29,30,31,32,33,34,35,36,37,38,40,41,42,43,44,45,46,47,48,49,50,51,52,53,54,55,57,58,59,60,61,62,63,64,65,66,67,68,69,70,71,72,73,74,75,76,78,79,80,81,82,83,84,85,86,87,88,89,90,91,92,93,94,95,96,97,98,99,100,101,102,103,105,106,107,109,111,112,113,114,115,116,117,118,120,121,123,124,125,126,127,128,129,130,131,132,133,134,135,136,137,138,139,140,141,142,144,145,146,147,148,149,150,151,152,153,154,155,157,158,159,160,161,162,163,166,167,168,169,170,171,172,173,174,176,177,178,179,180,181,182,183,184,185,186,187,188,189,190,191,192,193,194,195,196,197,198,199,200,201,202,203,204,205,206,207,208,210,211,212,213,214,215,216,217,218,0,2,12,14,22,23,24,29,31,36,40,43,45,53,64,71,72,81,84,86,90,91,92,93,102,105,106,107,113,114,118,121,124,125,132,136,138,141,144,145,147,148,157,158,159,171,178,180,183,184,185,188,189,192,201,202,203,207,208,210,212,213,216,0,1,2,3,4,5,6,7,8,9,10,11,12,13,14,15,16,17,18,19,20,21,22,23,24,25,27,28,29,30,31,32,33,34,35,36,37,38,39,40,41,42,43,44,45,46,47,48,49,50,51,52,53,54,55,56,57,58,59,60,61,62,63,64,65,66,67,68,69,70,71,72,73,74,75,76,78,79,80,81,82,83,84,85,86,87,88,89,90,91,92,93,94,95,96,97,98,99,100,101,102,103,105,106,107,109,110,111,112,113,114,115,116,117,118,120,121,123,124,125,126,127,128,129,130,131,132,133,134,135,136,137,138,139,140,141,142,143,144,145,146,147,148,149,150,151,152,153,154,155,156,157,158,159,160,161,162,163,164,166,167,168,169,170,171,172,173,174,176,177,178,179,180,181,182,183,184,185,186,187,188,189,190,191,192,193,194,195,196,197,198,199,200,201,202,203,204,205,206,207,208,210,211,212,213,214,215,216,217,218,1,7,8,15,17,19,21,25,27,37,42,44,47,55,57,58,59,60,65,68,73,75,80,82,85,88,89,97,100,112,120,129,135,137,140,142,146,149,151,152,161,167,172,174,177,179,182,193,197,204,215,218,0,22,23,29,36,43,45,53,64,71,72,90,91,93,105,106,114,132,141,147,157,184,189,192,203,208,33,95,128,166,190,214,9,10,66,133,1,7,15,19,21,37,42,44,55,57,58,65,68,75,82,97,100,120,137,140,146,161,172,174,179,193,204,215,0,1,2,3,4,5,6,7,8,10,11,12,13,14,15,17,18,19,20,21,22,23,24,25,26,27,28,29,30,31,32,33,34,35,36,37,38,39,40,41,42,43,44,45,46,47,48,49,50,51,52,53,54,55,56,57,58,59,60,61,62,63,64,65,66,67,68,69,71,72,73,74,75,76,77,78,79,80,81,82,83,84,85,86,87,88,89,90,91,92,93,94,95,96,97,98,99,100,101,102,103,104,105,106,107,108,109,110,111,112,113,114,115,116,117,118,119,120,121,122,123,124,125,126,127,128,129,130,131,132,134,135,136,137,138,139,140,141,142,143,144,145,146,147,148,149,150,151,152,153,154,156,157,158,159,160,161,162,163,164,165,166,167,168,169,170,171,172,173,174,175,176,177,178,179,180,181,182,183,184,185,186,187,188,189,190,191,192,193,194,195,196,197,198,199,200,201,202,203,204,205,206,207,208,209,210,211,212,213,214,215,216,217,218,95,128,166,214,34,48,76,94,103,153,206,2,14,31,84,86,92,102,107,118,121,124,144,145,148,158,159,178,180,183,201,202,207,212,216,12,24,40,81,113,125,138,171,185,188,210,213,157],"categories_nodes":[0,1,2,3,5,6,9,10,12,19,20,23,27,28,30],"categories_segments":[0,177,379,442,652,704,730,736,740,768,982,986,993,1017,1029],"categories_sizes":[177,202,63,210,52,26,6,4,28,214,4,7,24,12,1],"default_left":[0,0,1,0,0,1,1,0,0,1,1,0,1,0,0,0,0,0,0,0,1,0,0,1,0,0,0,1,1,0,1,0,0,0,0,0,0,0,0,0,0,0,0,0,0,0,0,0,0,0,0,0,0,0,0,0,0,0,0,0,0],"id":4,"left_children":[1,3,5,7,9,11,13,15,17,19,21,23,25,27,29,31,33,35,37,39,41,43,45,47,49,51,53,55,57,-1,59,-1,-1,-1,-1,-1,-1,-1,-1,-1,-1,-1,-1,-1,-1,-1,-1,-1,-1,-1,-1,-1,-1,-1,-1,-1,-1,-1,-1,-1,-1],"loss_changes":[2.1308209E4,4.2534883E3,1.4613887E3,6.5813184E2,9.580859E1,3.8698096E2,1.5789844E2,3.830293E2,1.4840967E2,7.20288E2,2.8552014E2,1.2243347E2,9.197363E1,2.5113281E1,8.339844E1,4.4558594E1,5.442273E1,9.501221E1,1.6368326E2,3.1965775E2,2.542752E1,8.223584E1,3.3684258E1,1.00160904E2,9.38284E1,5.5109497E1,2.7259155E1,9.579199E1,1.13522705E2,0E0,4.5898075E1,0E0,0E0,0E0,0E0,0E0,0E0,0E0,0E0,0E0,0E0,0E0,0E0,0E0,0E0,0E0,0E0,0E0,0E0,0E0,0E0,0E0,0E0,0E0,0E0,0E0,0E0,0E0,0E0,0E0,0E0],"parents":[2147483647,0,0,1,1,2,2,3,3,4,4,5,5,6,6,7,7,8,8,9,9,10,10,11,11,12,12,13,13,14,14,15,15,16,16,17,17,18,18,19,19,20,20,21,21,22,22,23,23,24,24,25,25,26,26,27,27,28,28,30,30],"right_children":[2,4,6,8,10,12,14,16,18,20,22,24,26,28,30,32,34,36,38,40,42,44,46,48,50,52,54,56,58,-1,60,-1,-1,-1,-1,-1,-1,-1,-1,-1,-1,-1,-1,-1,-1,-1,-1,-1,-1,-1,-1,-1,-1,-1,-1,-1,-1,-1,-1,-1,-1],"split_conditions":[1E-45,1E-45,1E-45,1E-45,7E0,1E-45,1E-45,1.1E1,9E0,1E-45,1E-45,1.5E0,1E-45,5E0,3.465E2,7E0,5E0,1.3E1,3.4E2,1E-45,1E-45,9.3E2,1E1,1E-45,1.1E1,6.79E2,4E0,1E-45,1E-45,-6.174127E-2,1E-45,6.9315165E-2,8.284437E-2,7.329047E-2,3.2245826E-2,-1.3933516E-2,4.914991E-2,2.9671822E-2,-4.9485043E-2,4.7432367E-2,8.601555E-3,-2.0583196E-2,-4.7362674E-2,1.8925387E-2,5.7713706E-2,-3.8108993E-2,-9.479947E-3,-7.654807E-3,-5.9097685E-2,-2.2493224E-3,-2.5293255E-2,-2.669391E-2,3.8166057E-2,-2.7143873E-2,-4.0999692E-2,-2.4847977E-2,-5.5618055E-2,-3.7406426E-2,-5.7772405E-2,4.7938462E-2,-3.2493006E-2],"split_indices":[0,0,0,0,2,0,0,2,2,0,0,4,0,2,4,2,4,4,4,0,0,4,2,0,2,4,2,0,0,0,0,0,0,0,0,0,0,0,0,0,0,0,0,0,0,0,0,0,0,0,0,0,0,0,0,0,0,0,0,0,0],"split_type":[1,1,1,1,0,1,1,0,0,1,1,0,1,0,0,0,0,0,0,1,1,0,0,1,0,0,0,1,1,0,1,0,0,0,0,0,0,0,0,0,0,0,0,0,0,0,0,0,0,0,0,0,0,0,0,0,0,0,0,0,0],"sum_hessian":[2.454E3,1.248E3,1.206E3,5.5E2,6.98E2,6.98E2,5.08E2,3.43E2,2.07E2,1.96E2,5.02E2,1.88E2,5.1E2,3.46E2,1.62E2,2.92E2,5.1E1,1.49E2,5.8E1,1.62E2,3.4E1,4.71E2,3.1E1,2.1E1,1.67E2,3.65E2,1.45E2,1.24E2,2.22E2,1.6E2,2E0,2E2,9.2E1,5E0,4.6E1,3E0,1.46E2,5.5E1,3E0,3.8E1,1.24E2,9E0,2.5E1,4.64E2,7E0,7E0,2.4E1,1E1,1.1E1,1.38E2,2.9E1,3.64E2,1E0,3.5E1,1.1E2,1.9E1,1.05E2,1.66E2,5.6E1,1E0,1E0],"tree_param":{"num_deleted":"0","num_feature":"5","num_nodes":"61","size_leaf_vector":"1"}},{"base_weights":[5.86506E-3,2.6453834E0,-2.8611646E0,4.972678E0,9.274891E-1,-1.8776945E0,-4.075015E0,7.920557E-1,5.681081E0,1.3788158E0,-8.961584E-1,-1.064376E0,-2.5952947E0,-3.3751776E0,-4.9994674E0,5.990068E-1,1.3904781E0,6.485879E0,4.2179627E0,2.5564702E0,8.2260925E-1,-2.6773243E0,1.7449528E-1,-7.503782E-1,-3.788407E0,-2.1028273E0,-3.5498881E0,-2.9142323E0,-4.525813E0,-5.276057E-2,-6.18148E-2,1.2256081E-2,3.3316717E-3,2.0197008E-2,1.7524236E-3,7.8342974E-2,-2.614328E-2,5.71912E-2,-3.0756949E-2,1.039293E-2,3.5135303E-2,6.235568E-3,1.4451484E-2,-6.8671755E-3,-4.99168E-2,3.5663627E-2,-1.0633645E-2,2.0655442E-3,-1.6319871E-2,-1.5728557E-2,-6.1295144E-2,-2.0504802E-2,-6.1637186E-2,-1.5220533E-2,-5.162957E-2,-3.9576553E-2,-2.278594E-2,-1.2477662E-2,-5.8620114E-2],"categories":[0,1,2,4,7,8,11,12,13,14,15,17,18,19,20,21,22,23,24,25,27,28,29,31,32,34,36,37,38,40,42,43,44,45,46,47,49,50,51,52,53,54,55,57,58,59,60,61,62,63,64,65,67,68,69,71,72,73,75,76,80,81,82,83,84,85,86,87,88,89,90,91,92,93,94,97,98,99,100,101,102,103,104,105,106,107,109,110,111,112,113,114,115,116,117,118,120,121,124,125,126,127,128,129,130,131,132,133,134,135,136,137,138,140,141,142,144,145,146,147,148,149,151,152,153,154,156,157,158,159,161,162,163,167,168,170,171,172,173,174,178,179,180,181,182,183,184,185,186,187,188,189,191,192,193,194,195,196,197,198,199,200,201,202,203,204,205,206,207,208,210,211,212,213,215,216,217,218,0,1,2,3,4,6,7,8,9,10,11,12,13,14,15,16,17,18,19,20,21,22,23,24,25,26,27,28,29,30,31,32,33,34,35,36,37,38,40,41,42,43,44,45,46,47,48,49,50,51,52,53,54,55,57,58,59,60,61,62,63,64,65,66,67,68,69,70,71,72,73,74,75,76,78,79,80,81,82,83,84,85,86,87,88,89,90,91,92,93,94,95,96,97,98,99,100,101,102,103,104,105,106,107,109,110,111,112,113,114,115,116,117,118,119,120,121,123,124,125,126,127,128,129,130,131,132,133,134,135,136,137,138,140,141,142,143,144,145,146,147,148,149,150,151,152,153,154,155,156,157,158,159,160,161,162,163,164,166,167,168,170,171,172,173,174,176,177,178,179,180,181,182,183,184,185,186,187,188,189,190,191,192,193,194,195,196,197,198,199,200,201,202,203,204,205,206,207,208,210,211,212,213,214,215,216,217,218,0,12,14,15,17,19,22,23,24,29,31,36,40,43,45,47,53,54,58,64,71,72,80,81,82,84,90,91,92,94,105,106,113,114,121,125,129,132,138,141,144,145,147,148,157,158,159,163,178,179,180,184,185,189,192,202,203,207,208,210,212,213,216,1,2,8,21,25,34,37,38,42,57,59,60,68,85,86,93,97,99,102,107,112,118,124,134,136,137,140,146,149,151,152,161,162,167,170,171,172,173,174,183,187,188,193,195,201,215,218,0,12,19,22,23,24,29,36,43,45,47,53,58,64,71,72,81,82,90,91,92,105,106,113,114,121,125,132,138,141,145,147,157,159,178,184,185,189,192,203,208,0,1,2,3,4,5,6,7,8,9,10,11,12,13,14,15,16,17,18,19,20,21,22,23,24,25,26,27,28,29,30,31,32,33,34,35,36,37,38,39,40,41,42,43,44,45,46,47,48,49,50,51,52,53,54,55,56,57,58,59,60,61,62,63,64,65,66,67,68,69,70,71,72,73,74,75,76,78,79,80,81,82,83,84,85,86,87,88,89,90,91,92,93,94,95,96,97,98,99,100,101,102,103,104,105,106,107,109,110,111,112,113,114,115,116,117,118,119,120,121,122,123,124,125,126,127,128,129,130,131,132,133,134,135,136,137,138,139,140,141,142,143,144,145,146,147,148,149,150,151,152,153,154,155,156,157,158,159,160,161,162,163,164,166,167,168,169,170,171,172,173,174,176,177,178,179,180,181,182,183,184,185,186,187,188,189,190,191,192,193,194,195,196,197,198,199,200,201,202,203,204,205,206,207,208,210,211,212,213,214,215,216,217,218,0,1,2,3,4,5,6,7,8,10,11,12,13,14,15,17,18,19,20,21,22,23,24,25,26,27,28,29,30,31,32,33,34,35,36,37,38,39,40,42,43,44,45,46,47,48,49,50,51,52,53,54,55,56,57,58,59,60,61,62,63,64,65,66,67,68,69,71,72,73,75,76,77,79,80,81,82,83,84,85,86,87,88,89,90,91,92,93,94,97,98,99,100,101,102,103,104,105,106,107,108,109,110,111,112,113,114,115,116,117,118,120,121,122,123,124,125,126,127,128,129,130,131,132,133,134,135,136,137,138,139,140,141,142,143,144,145,146,147,148,149,150,151,152,153,154,156,157,158,159,160,161,162,163,165,166,167,168,169,170,171,172,173,174,175,178,179,180,181,182,183,184,185,186,187,188,189,190,191,192,193,194,195,196,197,198,199,200,201,202,203,204,205,206,207,208,209,210,211,212,213,214,215,216,217,218,29,36,43,45,47,53,64,71,72,90,91,92,105,106,113,114,121,125,132,141,145,147,178,185,189,203,208,0,1,2,3,4,5,6,7,8,9,10,11,12,13,14,15,16,17,18,19,20,21,22,23,24,25,26,27,28,29,30,31,32,33,34,35,36,37,38,40,41,42,43,44,45,46,47,48,49,50,51,52,53,54,55,56,57,58,59,60,61,62,63,64,65,66,67,68,69,70,71,72,73,74,75,76,77,78,79,80,81,82,83,84,85,86,87,88,89,90,91,92,93,94,95,96,97,98,99,100,101,102,103,104,105,106,107,108,109,110,111,112,113,114,115,116,117,118,119,120,121,122,123,124,125,126,127,128,129,130,131,132,133,134,135,136,137,138,139,140,141,142,143,144,145,146,147,148,149,150,151,152,153,154,155,156,157,158,159,160,161,162,163,164,165,166,167,168,169,170,171,172,173,174,175,176,177,178,179,180,181,182,183,184,185,186,187,188,189,190,191,192,193,194,195,196,197,198,199,200,201,202,203,204,205,206,207,208,209,210,211,212,213,214,215,216,217,218,0,1,2,3,4,5,6,7,8,9,10,11,12,13,14,15,16,17,18,19,20,21,22,23,24,25,26,27,28,29,30,31,32,33,34,35,36,37,38,39,40,41,42,43,44,45,46,47,48,49,50,51,52,53,54,55,56,57,58,59,60,61,62,63,64,65,66,67,68,69,70,71,72,73,74,75,76,77,78,79,80,81,82,83,84,85,86,87,88,89,90,91,92,93,94,95,96,97,98,99,100,101,102,103,104,105,106,107,108,109,110,111,112,113,114,115,116,117,118,119,120,121,122,123,124,125,126,127,128,129,130,131,132,133,134,135,136,137,138,139,140,141,142,143,144,145,146,147,148,149,150,151,152,153,154,155,156,157,158,159,160,161,162,163,164,165,166,167,168,169,170,171,172,173,174,175,176,177,178,179,180,181,182,183,184,185,186,187,188,189,190,191,192,193,194,195,196,197,198,199,200,201,202,203,204,205,206,207,208,210,211,212,213,214,215,216,217,218,9,10,33,48,74,78,123,155,160,166,176,177,214,10,41,48,66,79,96,123,150,177,214,27,46,49,50,52,63,76,88,89,142,182,196,197,200,204,7,13,73,76,103,130,133,135,153,206,1,2,21,37,38,97,102,137,140,149,161,162,170,172,173,193,195,201,215,8,25,34,42,57,60,68,85,93,99,107,118,124,134,151,152,171,174,183,188,218,15,17,31,40,54,80,84,94,129,144,148,158,180,202,210,212,213,216],"categories_nodes":[0,1,2,5,6,8,9,14,15,16,21,22,23,24,25,26,28],"categories_segments":[0,178,386,449,496,537,751,957,984,1202,1420,1433,1443,1458,1468,1487,1508],"categories_sizes":[178,208,63,47,41,214,206,27,218,218,13,10,15,10,19,21,18],"default_left":[0,0,1,0,0,1,1,0,0,0,0,0,0,0,1,0,0,0,0,0,0,1,1,1,1,1,1,0,1,0,0,0,0,0,0,0,0,0,0,0,0,0,0,0,0,0,0,0,0,0,0,0,0,0,0,0,0,0,0],"id":5,"left_children":[1,3,5,7,9,11,13,15,17,19,21,23,25,27,29,31,33,35,37,39,41,43,45,47,49,51,53,55,57,-1,-1,-1,-1,-1,-1,-1,-1,-1,-1,-1,-1,-1,-1,-1,-1,-1,-1,-1,-1,-1,-1,-1,-1,-1,-1,-1,-1,-1,-1],"loss_changes":[1.8865973E4,5.1848516E3,1.4189209E3,1.6273232E3,6.16885E2,3.8360547E2,3.2860645E2,8.524601E0,5.2725195E2,3.9090845E2,2.8461194E2,2.6402325E2,1.5754248E2,1.4963745E2,5.400879E0,8.478613E0,7.327198E0,4.1928125E2,7.4261646E2,1.3293945E2,4.773633E1,1.7979681E2,2.9072244E2,1.6479724E2,1.0359061E2,2.574801E2,2.14594E2,8.954956E1,1.267135E2,0E0,0E0,0E0,0E0,0E0,0E0,0E0,0E0,0E0,0E0,0E0,0E0,0E0,0E0,0E0,0E0,0E0,0E0,0E0,0E0,0E0,0E0,0E0,0E0,0E0,0E0,0E0,0E0,0E0,0E0],"parents":[2147483647,0,0,1,1,2,2,3,3,4,4,5,5,6,6,7,7,8,8,9,9,10,10,11,11,12,12,13,13,14,14,15,15,16,16,17,17,18,18,19,19,20,20,21,21,22,22,23,23,24,24,25,25,26,26,27,27,28,28],"right_children":[2,4,6,8,10,12,14,16,18,20,22,24,26,28,30,32,34,36,38,40,42,44,46,48,50,52,54,56,58,-1,-1,-1,-1,-1,-1,-1,-1,-1,-1,-1,-1,-1,-1,-1,-1,-1,-1,-1,-1,-1,-1,-1,-1,-1,-1,-1,-1,-1,-1],"split_conditions":[1E-45,1E-45,1E-45,2.004E3,2.022E3,1E-45,1E-45,2.003E3,1E-45,1E-45,2.024E3,2.025E3,2.021E3,2.021E3,1E-45,1E-45,1E-45,2.026E3,2.024E3,2.004E3,2.013E3,1E-45,1E-45,1E-45,1E-45,1E-45,1E-45,2.015E3,1E-45,-5.276057E-2,-6.18148E-2,1.2256081E-2,3.3316717E-3,2.0197008E-2,1.7524236E-3,7.8342974E-2,-2.614328E-2,5.71912E-2,-3.0756949E-2,1.039293E-2,3.5135303E-2,6.235568E-3,1.4451484E-2,-6.8671755E-3,-4.99168E-2,3.5663627E-2,-1.0633645E-2,2.0655442E-3,-1.6319871E-2,-1.5728557E-2,-6.1295144E-2,-2.0504802E-2,-6.1637186E-2,-1.5220533E-2,-5.162957E-2,-3.9576553E-2,-2.278594E-2,-1.2477662E-2,-5.8620114E-2],"split_indices":[0,0,0,3,3,0,0,3,0,0,3,3,3,3,0,0,0,3,3,3,3,0,0,0,0,0,0,3,0,0,0,0,0,0,0,0,0,0,0,0,0,0,0,0,0,0,0,0,0,0,0,0,0,0,0,0,0,0,0],"split_type":[1,1,1,0,0,1,1,0,1,1,0,0,0,0,1,1,1,0,0,0,0,1,1,1,1,1,1,0,1,0,0,0,0,0,0,0,0,0,0,0,0,0,0,0,0,0,0,0,0,0,0,0,0,0,0,0,0,0,0],"sum_hessian":[2.491E3,1.297E3,1.194E3,5.5E2,7.47E2,6.61E2,5.33E2,8E1,4.7E2,5.99E2,1.48E2,3.11E2,3.5E2,3.06E2,2.27E2,6.2E1,1.8E1,3.01E2,1.69E2,1.91E2,4.08E2,5.5E1,9.3E1,2.8E2,3.1E1,2.33E2,1.17E2,2.21E2,8.5E1,7.7E1,1.5E2,2.5E1,3.7E1,1.4E1,4E0,2.96E2,5E0,1.55E2,1.4E1,3.9E1,1.52E2,2.37E2,1.71E2,2.4E1,3.1E1,2.5E1,6.8E1,1.14E2,1.66E2,1.2E1,1.9E1,2.1E2,2.3E1,3.2E1,8.5E1,1.51E2,7E1,1E1,7.5E1],"tree_param":{"num_deleted":"0","num_feature":"5","num_nodes":"59","size_leaf_vector":"1"}},{"base_weights":[4.984796E-2,5.688557E-1,-1.6390302E0,1.6506076E0,-8.972612E-2,-1.7882043E0,4.089131E0,-1.1648446E0,4.2491236E0,-1.7862723E0,9.031039E-1,-2.8669684E0,-1.4192884E0,3.540543E-2,7.471152E-2,-1.902565E0,-2.800128E-2,9.0595007E-1,5.0099616E0,-2.6844354E0,-8.108036E-1,1.523217E0,-3.0379462E-1,-1.5654434E0,-3.4878669E0,5.2480185E-1,-1.9993545E0,-1.4377301E-2,-3.17146E-2,-7.314246E-3,3.0970525E-2,3.220688E-2,4.73472E-3,3.2883085E-2,6.5080315E-2,-1.2017506E-2,-3.6119033E-2,-1.5238887E-2,8.305074E-3,4.1561527E-3,4.4830628E-2,-1.5366509E-2,5.358797E-3,-5.5661757E-2,-1.0763255E-2,-5.8347877E-2,-3.8002122E-2,3.3789318E-2,-4.2428505E-3,-5.5356815E-2,-2.1109274E-2],"categories":[],"categories_nodes":[],"categories_segments":[],"categories_sizes":[],"default_left":[0,0,0,0,0,0,0,0,0,0,0,0,0,0,0,0,0,0,0,0,0,0,0,0,0,0,0,0,0,0,0,0,0,0,0,0,0,0,0,0,0,0,0,0,0,0,0,0,0,0,0],"id":6,"left_children":[1,3,5,7,9,11,13,15,17,19,21,23,25,-1,-1,27,29,31,33,35,37,39,41,43,45,47,49,-1,-1,-1,-1,-1,-1,-1,-1,-1,-1,-1,-1,-1,-1,-1,-1,-1,-1,-1,-1,-1,-1,-1,-1],"loss_changes":[2.158976E3,1.3423513E3,5.0206396E2,5.221256E3,1.9757087E3,2.2078601E2,1.7617203E1,2.8761142E2,9.391421E2,3.7718762E2,5.542889E2,1.1010022E2,4.7806665E2,0E0,0E0,1.0846515E2,2.1518004E2,6.3329575E1,3.2420557E2,1.381084E2,1.530978E2,1.3020967E3,1.9132674E2,9.452879E1,2.143457E1,2.0374947E2,1.7616162E2,0E0,0E0,0E0,0E0,0E0,0E0,0E0,0E0,0E0,0E0,0E0,0E0,0E0,0E0,0E0,0E0,0E0,0E0,0E0,0E0,0E0,0E0,0E0,0E0],"parents":[2147483647,0,0,1,1,2,2,3,3,4,4,5,5,6,6,7,7,8,8,9,9,10,10,11,11,12,12,15,15,16,16,17,17,18,18,19,19,20,20,21,21,22,22,23,23,24,24,25,25,26,26],"right_children":[2,4,6,8,10,12,14,16,18,20,22,24,26,-1,-1,28,30,32,34,36,38,40,42,44,46,48,50,-1,-1,-1,-1,-1,-1,-1,-1,-1,-1,-1,-1,-1,-1,-1,-1,-1,-1,-1,-1,-1,-1,-1,-1],"split_conditions":[2.022E3,1.1E1,9.3E2,9.5E0,3.7E1,2E0,8E0,2.014E3,2.004E3,8E0,1.12E2,5E0,1.1E1,3.540543E-2,7.471152E-2,5E0,2E0,2.001E3,1E1,2E0,2.017E3,1.11E2,3.465E2,2E0,2.023E3,2.023E3,2E0,-1.4377301E-2,-3.17146E-2,-7.314246E-3,3.0970525E-2,3.220688E-2,4.73472E-3,3.2883085E-2,6.5080315E-2,-1.2017506E-2,-3.6119033E-2,-1.5238887E-2,8.305074E-3,4.1561527E-3,4.4830628E-2,-1.5366509E-2,5.358797E-3,-5.5661757E-2,-1.0763255E-2,-5.8347877E-2,-3.8002122E-2,3.3789318E-2,-4.2428505E-3,-5.5356815E-2,-2.1109274E-2],"split_indices":[3,4,4,4,4,4,2,3,3,2,4,2,4,0,0,2,4,3,4,2,3,4,4,2,3,3,2,0,0,0,0,0,0,0,0,0,0,0,0,0,0,0,0,0,0,0,0,0,0,0,0],"split_type":[0,0,0,0,0,0,0,0,0,0,0,0,0,0,0,0,0,0,0,0,0,0,0,0,0,0,0,0,0,0,0,0,0,0,0,0,0,0,0,0,0,0,0,0,0,0,0,0,0,0,0],"sum_hessian":[2.461E3,1.883E3,5.78E2,7.12E2,1.171E3,5.64E2,1.4E1,3.42E2,3.7E2,4.32E2,7.39E2,1.42E2,4.22E2,1.1E1,3E0,2.07E2,1.35E2,6.9E1,3.01E2,2.24E2,2.08E2,4.88E2,2.51E2,4.7E1,9.5E1,9.7E1,3.25E2,1.12E2,9.5E1,1.11E2,2.4E1,1.4E1,5.5E1,5.7E1,2.44E2,4.2E1,1.82E2,1.58E2,5E1,3.23E2,1.65E2,1.08E2,1.43E2,7E0,4E1,1.2E1,8.3E1,2.6E1,7.1E1,2.2E1,3.03E2],"tree_param":{"num_deleted":"0","num_feature":"5","num_nodes":"51","size_leaf_vector":"1"}},{"base_weights":[5.343814E-2,2.720789E0,-2.8793323E0,4.795298E0,1.104178E0,-1.905829E0,-4.0145636E0,9.349178E-1,5.5136185E0,1.5729158E0,-6.973759E-1,-1.4558055E0,-3.071198E0,-3.3263414E0,-4.805102E0,1.0094849E0,-3.3636168E-2,6.524576E0,3.868319E0,2.5356476E0,1.1485641E0,7.750936E-1,-1.881073E0,4.845816E-1,-1.9554803E0,-1.7184126E0,-4.6009955E0,-3.8319647E0,-2.96351E0,-4.4278E0,-6.0595293E-2,9.662438E-3,1.9184763E-2,7.83481E-2,-1.7584436E-2,5.311799E-2,-1.4914774E-2,2.7085874E-2,4.0553313E-2,1.2591164E-2,2.646382E-2,2.3645308E-2,4.948143E-3,-1.9478386E-2,-5.4259934E-2,3.076231E-2,1.009044E-3,-1.8948434E-2,-4.4646624E-2,7.2133443E-3,-2.5115652E-2,-4.7577083E-2,-6.1538916E-2,-1.4950934E-2,-4.9434107E-2,-2.020618E-2,-4.350446E-2,-4.5017693E-2,-5.6214586E-2],"categories":[0,1,2,4,5,6,7,8,10,11,12,13,14,15,17,18,19,20,21,22,23,24,25,27,28,29,31,32,34,36,37,40,42,43,44,45,46,47,49,50,51,53,54,55,57,58,59,60,61,62,63,64,65,67,68,69,71,72,73,75,76,80,81,82,83,84,85,86,87,88,89,90,91,92,93,94,97,98,99,100,101,102,103,105,106,107,109,111,112,113,114,115,116,117,118,120,121,124,125,126,127,129,130,131,132,134,136,137,138,140,141,142,144,145,146,147,148,149,151,152,153,154,156,157,158,159,161,162,163,167,168,170,171,172,173,174,176,177,178,179,180,181,182,183,184,185,186,187,188,189,191,192,193,194,195,196,197,198,199,200,201,202,203,204,205,206,207,208,210,211,212,213,215,216,217,218,0,1,2,3,4,5,6,7,8,9,10,11,12,13,14,15,16,17,18,19,20,21,22,23,24,25,26,27,28,29,30,31,32,33,34,36,37,38,40,41,42,43,44,45,46,47,48,49,50,51,52,53,54,55,57,58,59,60,61,62,63,64,65,66,67,68,69,70,71,72,73,74,75,76,78,79,80,81,82,83,84,85,86,87,88,89,90,91,92,93,94,96,97,98,99,100,101,102,103,104,105,106,107,109,111,112,113,114,115,116,117,118,119,120,121,123,124,125,126,127,128,129,130,131,132,133,134,135,136,137,138,140,141,142,143,144,145,146,147,148,149,150,151,152,153,154,155,156,157,158,159,160,161,162,163,164,166,167,168,170,171,172,173,174,176,177,178,179,180,181,182,183,184,185,186,187,188,189,190,191,192,193,194,195,196,197,198,199,200,201,202,203,204,205,206,207,208,210,211,212,213,214,215,216,217,218,0,14,17,20,23,27,29,31,36,40,43,45,53,58,59,64,68,71,72,75,80,81,82,84,86,90,91,92,102,105,106,113,114,115,118,120,121,124,125,132,138,141,144,145,147,148,157,159,178,179,180,183,184,185,189,192,202,203,207,208,210,212,216,0,23,27,29,36,43,45,53,58,59,64,71,72,81,82,86,90,91,102,105,106,113,114,118,121,125,132,138,141,144,145,147,157,159,178,179,184,185,189,192,203,208,77,0,1,2,3,4,5,6,7,8,9,10,11,12,13,14,15,16,17,18,19,20,21,22,23,24,25,26,27,28,29,30,31,32,33,34,36,37,38,39,40,41,42,43,44,45,46,47,48,49,50,51,52,53,54,55,56,57,58,59,60,61,62,63,64,65,66,67,68,69,70,71,72,73,74,75,76,78,79,80,81,82,83,84,85,86,87,88,89,90,91,92,93,94,95,96,97,98,99,100,101,102,103,104,105,106,107,109,110,111,112,113,114,115,116,117,118,119,120,121,123,124,125,126,127,128,129,130,131,132,133,134,135,136,137,138,139,140,141,142,143,144,145,146,147,148,149,150,151,152,153,154,155,156,157,158,159,160,161,162,163,164,166,167,168,169,170,171,172,173,174,176,177,178,179,180,181,182,183,184,185,186,187,188,189,190,191,192,193,194,195,196,197,198,199,200,201,202,203,204,205,206,207,208,210,211,212,213,214,215,216,217,218,0,1,2,3,4,5,6,7,8,10,11,12,13,14,15,17,18,19,20,21,22,23,24,25,26,27,28,29,30,31,32,33,34,35,36,37,38,39,40,41,42,43,44,45,46,47,48,49,50,51,52,53,54,55,56,57,58,59,60,61,62,63,64,65,66,67,68,69,71,72,73,75,76,77,79,80,81,82,83,84,85,86,87,88,89,90,91,92,93,94,95,97,98,99,100,101,102,103,104,105,106,107,108,109,110,111,112,113,114,115,116,117,118,119,120,121,122,123,124,125,126,127,129,130,131,132,134,136,137,138,139,140,141,142,143,144,145,146,147,148,149,150,151,152,153,154,156,157,158,159,160,161,162,163,165,166,167,168,169,170,171,172,173,174,175,176,177,178,179,180,181,182,183,184,185,186,187,188,189,190,191,192,193,194,195,196,197,198,199,200,201,202,203,204,205,206,207,208,209,210,211,212,213,214,215,216,217,218,9,48,66,74,78,79,96,135,155,190,214,1,2,6,7,8,15,18,19,21,22,42,46,49,54,55,57,60,63,73,76,85,88,89,93,94,97,100,103,112,129,136,142,146,149,151,152,153,158,161,162,167,170,172,173,176,187,188,193,195,197,201,213,215,218,8,10,12,13,15,24,25,34,46,47,50,54,57,65,76,85,93,94,99,107,142,156,158,171,174,176,177,182,188,204,206,218,23,27,29,36,43,53,59,72,90,91,105,106,113,114,121,132,141,147,178,184,189,0,1,2,3,4,5,6,7,8,9,10,11,12,13,14,15,16,17,18,19,20,21,22,23,24,25,26,27,28,29,30,31,32,34,35,36,37,39,40,41,42,43,44,45,46,47,48,49,50,51,52,53,54,55,56,57,58,59,60,61,62,63,64,65,66,67,68,69,70,71,72,73,74,75,76,77,78,79,80,81,82,83,84,85,86,87,88,89,90,91,92,93,94,95,96,97,98,99,100,101,102,103,104,105,106,107,108,109,110,111,112,113,114,115,116,117,118,119,120,121,122,123,124,125,126,127,128,129,130,131,132,134,135,136,137,138,139,140,141,142,143,144,145,146,147,148,149,150,151,152,153,154,155,156,157,158,159,160,161,162,163,164,165,166,167,168,169,170,171,172,173,174,175,176,177,178,179,180,181,182,183,184,185,186,187,188,189,190,191,192,193,194,195,196,197,198,199,200,201,202,203,204,205,206,207,208,209,210,211,212,213,214,215,216,217,218,78,79,155,1,2,18,19,21,22,55,89,97,100,103,136,146,149,152,161,162,170,172,193,195,201,213,215,42,60,88,89,103,112,129,130,136,151,153,213,8,10,13,15,34,47,50,57,76,85,94,158,14,31,40,68,84,124,148,180,183,202,207,212,216],"categories_nodes":[0,1,2,6,7,8,9,10,11,12,14,21,22,24,25,26,27],"categories_segments":[0,176,382,445,487,488,700,908,919,973,1005,1026,1242,1245,1269,1281,1293],"categories_sizes":[176,206,63,42,1,212,208,11,54,32,21,216,3,24,12,12,13],"default_left":[0,0,1,0,0,0,1,1,0,0,1,1,1,0,1,0,0,0,0,0,0,0,1,0,1,1,1,1,0,0,0,0,0,0,0,0,0,0,0,0,0,0,0,0,0,0,0,0,0,0,0,0,0,0,0,0,0,0,0],"id":7,"left_children":[1,3,5,7,9,11,13,15,17,19,21,23,25,27,29,31,-1,33,35,37,39,41,43,45,47,49,51,53,55,57,-1,-1,-1,-1,-1,-1,-1,-1,-1,-1,-1,-1,-1,-1,-1,-1,-1,-1,-1,-1,-1,-1,-1,-1,-1,-1,-1,-1,-1],"loss_changes":[1.9314328E4,4.331005E3,1.2920059E3,1.5643574E3,6.158611E2,3.2855054E2,2.789004E2,2.8283775E1,7.6816895E2,2.3322205E2,2.6464462E2,4.4694635E2,3.563235E2,4.2396484E1,8.44043E0,9.124039E0,0E0,2.8250488E2,6.040471E2,3.018872E1,3.3514282E1,2.8886162E1,4.4961823E1,8.024768E1,2.2784033E2,9.2095276E1,7.630249E0,1.0387891E2,1.5210461E2,7.380615E0,0E0,0E0,0E0,0E0,0E0,0E0,0E0,0E0,0E0,0E0,0E0,0E0,0E0,0E0,0E0,0E0,0E0,0E0,0E0,0E0,0E0,0E0,0E0,0E0,0E0,0E0,0E0,0E0,0E0],"parents":[2147483647,0,0,1,1,2,2,3,3,4,4,5,5,6,6,7,7,8,8,9,9,10,10,11,11,12,12,13,13,14,14,15,15,17,17,18,18,19,19,20,20,21,21,22,22,23,23,24,24,25,25,26,26,27,27,28,28,29,29],"right_children":[2,4,6,8,10,12,14,16,18,20,22,24,26,28,30,32,-1,34,36,38,40,42,44,46,48,50,52,54,56,58,-1,-1,-1,-1,-1,-1,-1,-1,-1,-1,-1,-1,-1,-1,-1,-1,-1,-1,-1,-1,-1,-1,-1,-1,-1,-1,-1,-1,-1],"split_conditions":[1E-45,1E-45,1E-45,2.004E3,2.022E3,2.022E3,1E-45,1E-45,1E-45,1E-45,1E-45,1E-45,1E-45,2.011E3,1E-45,2.003E3,-3.3636168E-2,2.026E3,2.023E3,2.017E3,2.021E3,1E-45,1E-45,2.003E3,1E-45,1E-45,1E-45,1E-45,2.018E3,2.014E3,-6.0595293E-2,9.662438E-3,1.9184763E-2,7.83481E-2,-1.7584436E-2,5.311799E-2,-1.4914774E-2,2.7085874E-2,4.0553313E-2,1.2591164E-2,2.646382E-2,2.3645308E-2,4.948143E-3,-1.9478386E-2,-5.4259934E-2,3.076231E-2,1.009044E-3,-1.8948434E-2,-4.4646624E-2,7.2133443E-3,-2.5115652E-2,-4.7577083E-2,-6.1538916E-2,-1.4950934E-2,-4.9434107E-2,-2.020618E-2,-4.350446E-2,-4.5017693E-2,-5.6214586E-2],"split_indices":[0,0,0,3,3,3,0,0,0,0,0,0,0,3,0,3,0,3,3,3,3,0,0,3,0,0,0,0,3,3,0,0,0,0,0,0,0,0,0,0,0,0,0,0,0,0,0,0,0,0,0,0,0,0,0,0,0,0,0],"split_type":[1,1,1,0,0,0,1,1,1,1,1,1,1,0,1,0,0,0,0,0,0,1,1,0,1,1,1,1,0,0,0,0,0,0,0,0,0,0,0,0,0,0,0,0,0,0,0,0,0,0,0,0,0,0,0,0,0,0,0],"sum_hessian":[2.467E3,1.292E3,1.175E3,5.65E2,7.27E2,6.34E2,5.41E2,8.9E1,4.76E2,5.77E2,1.5E2,4.59E2,1.75E2,2.92E2,2.49E2,8.8E1,1E0,2.93E2,1.83E2,1.75E2,4.02E2,6.7E1,8.3E1,9.4E1,3.65E2,9.4E1,8.1E1,1.18E2,1.74E2,1.23E2,1.26E2,6.9E1,1.9E1,2.89E2,4E0,1.63E2,2E1,1.41E2,3.4E1,3.76E2,2.6E1,1.4E1,5.3E1,7.8E1,5E0,1.4E1,8E1,3.08E2,5.7E1,1.4E1,8E1,4.6E1,3.5E1,1.5E1,1.03E2,6.5E1,1.09E2,4.8E1,7.5E1],"tree_param":{"num_deleted":"0","num_feature":"5","num_nodes":"59","size_leaf_vector":"1"}},{"base_weights":[-7.313247E-2,2.554612E0,-2.8161066E0,4.669595E0,9.6409863E-1,-1.9124686E0,-4.118303E0,7.5881183E-1,5.2876654E0,1.4117746E0,-7.9357374E-1,-1.3316214E0,-3.0932133E0,-3.620819E0,-6.08038E-2,9.8481005E-1,-1.0079317E0,6.1064596E0,3.7520149E0,9.3726456E-1,1.9594678E0,-4.4488713E-1,-4.074319E0,3.765273E-1,-1.9787623E0,-1.8238667E0,-4.674565E0,-4.2350016E0,-3.229218E0,6.0633966E-3,3.0477393E-2,1.5842104E-2,-5.0521336E-2,7.377552E-2,-2.5671612E-2,5.0580833E-2,-5.8609337E-2,4.4393152E-2,4.932832E-3,2.7865086E-2,-2.1756178E-2,-1.8920781E-2,3.5956354E-4,-8.027127E-3,-5.8264416E-2,7.823192E-3,-3.376215E-2,-2.143362E-2,-5.9459504E-2,6.239374E-3,-2.653238E-2,-6.0209054E-2,-3.767675E-2,2.8184805E-2,-5.080584E-2,-3.327688E-2,-4.790169E-2],"categories":[0,1,2,3,4,6,7,8,11,12,13,14,15,17,18,19,21,22,23,24,25,27,28,29,31,32,34,36,37,40,41,42,43,44,45,46,47,49,50,51,52,53,54,55,57,58,59,60,61,62,64,65,67,68,69,71,72,73,75,76,80,81,82,83,84,85,86,87,88,89,90,91,92,93,94,97,98,99,100,101,102,103,105,106,107,109,111,112,113,114,115,116,117,118,120,121,124,125,126,127,128,129,131,132,134,135,136,137,138,140,141,142,144,145,146,147,148,149,151,152,153,154,156,157,158,159,160,161,162,164,166,167,168,170,171,172,173,174,176,177,178,179,180,181,182,183,184,185,186,187,188,189,191,192,193,194,195,196,197,198,199,200,201,202,203,205,206,207,208,210,211,212,213,215,216,217,218,0,1,2,3,4,6,7,8,9,10,11,12,13,14,15,16,17,18,19,21,22,23,24,25,26,27,28,29,30,31,32,33,34,35,36,37,38,40,41,42,43,44,45,46,47,48,49,50,51,52,53,54,55,57,58,59,60,61,62,63,64,65,66,67,68,69,70,71,72,73,74,75,76,78,79,80,81,82,83,84,85,86,87,88,89,90,91,92,93,94,95,96,97,98,99,100,101,102,103,104,105,106,107,109,111,112,113,114,115,116,117,118,119,120,121,123,124,125,126,127,128,129,130,131,132,133,134,135,136,137,138,140,141,142,144,145,146,147,148,149,150,151,152,153,154,155,156,157,158,159,160,161,162,164,166,167,168,170,171,172,173,174,176,177,178,179,180,181,182,183,184,185,186,187,188,189,190,191,192,193,194,195,196,197,198,199,200,201,202,203,204,205,206,207,208,210,211,212,213,214,215,216,217,218,0,1,2,3,14,15,22,23,24,29,31,36,40,43,45,47,53,59,64,71,72,84,89,90,91,92,105,106,107,113,114,121,124,125,132,138,141,144,145,147,148,157,158,159,171,178,179,180,184,189,192,193,201,202,203,207,208,210,212,213,216,218,1,22,23,29,36,43,45,47,53,59,64,71,72,90,91,92,105,106,114,132,138,141,147,157,179,184,189,203,208,212,0,1,2,3,4,5,6,7,8,9,10,11,12,13,14,15,16,17,18,19,20,21,22,23,24,25,26,27,28,29,30,31,32,33,34,35,36,37,38,39,40,41,42,43,44,45,46,47,48,49,50,51,52,53,54,55,57,58,59,60,61,62,63,64,65,66,67,68,69,70,71,72,73,74,75,76,78,79,80,81,82,83,84,85,86,87,88,89,90,91,92,93,94,95,96,97,98,99,100,101,102,103,104,105,106,107,109,110,111,112,113,114,115,116,117,118,119,120,121,123,124,125,126,127,128,129,130,131,132,133,134,135,136,137,138,139,140,141,142,144,145,146,147,148,149,150,151,152,153,154,155,156,157,158,159,160,161,162,163,164,166,167,168,169,170,171,172,173,174,176,177,178,179,180,181,182,183,184,185,186,187,188,189,190,191,192,193,194,195,196,197,198,199,200,201,202,203,204,205,206,207,208,210,211,212,213,214,215,216,217,218,10,66,74,78,79,155,204,7,8,17,18,21,37,42,49,55,57,60,68,73,75,76,80,85,86,88,93,100,102,103,112,120,136,137,140,142,146,149,151,152,160,161,162,164,167,170,173,176,185,187,188,195,196,197,200,8,12,13,17,27,34,41,42,54,57,58,65,68,73,76,80,81,85,93,99,115,129,134,142,151,152,156,174,177,183,188,206,0,1,2,3,4,5,6,7,8,10,11,12,13,14,15,17,18,19,20,21,22,23,24,25,26,27,28,29,30,31,32,33,34,35,36,37,38,39,40,41,42,43,44,45,46,47,48,49,50,51,52,53,54,55,56,57,58,59,60,61,62,64,65,66,67,68,69,71,72,73,75,76,77,78,79,80,81,82,83,84,85,86,87,88,89,90,91,92,93,94,95,96,97,98,99,100,101,102,103,105,106,107,108,109,110,111,112,113,114,115,116,117,118,119,120,121,122,123,124,125,126,127,128,129,130,131,132,133,134,135,136,137,138,139,140,141,142,143,144,145,146,147,148,149,150,151,152,153,154,155,156,157,158,159,160,161,162,163,164,165,166,167,168,169,170,171,172,173,174,175,176,177,178,179,180,181,182,183,184,185,186,187,188,189,190,191,192,193,194,195,196,197,198,199,200,201,202,203,204,205,206,207,208,209,210,211,212,213,214,215,216,217,218,9,10,33,63,74,104,133,21,37,55,75,100,102,120,137,140,149,161,162,170,176,185,195,25,46,50,60,88,94,103,112,135,136,153,166,182,0,2,3,14,31,84,89,107,113,121,124,125,144,145,148,158,159,178,180,192,193,201,202,207,216,218],"categories_nodes":[0,1,2,6,8,10,11,12,19,20,24,25,27],"categories_segments":[0,177,381,443,473,684,691,739,771,984,991,1007,1020],"categories_sizes":[177,204,62,30,211,7,48,32,213,7,16,13,26],"default_left":[0,0,1,0,0,0,1,0,0,0,1,1,1,0,0,0,0,0,0,0,1,0,0,0,1,1,0,1,0,0,0,0,0,0,0,0,0,0,0,0,0,0,0,0,0,0,0,0,0,0,0,0,0,0,0,0,0],"id":8,"left_children":[1,3,5,7,9,11,13,15,17,19,21,23,25,27,-1,29,31,33,35,37,39,41,43,45,47,49,51,53,55,-1,-1,-1,-1,-1,-1,-1,-1,-1,-1,-1,-1,-1,-1,-1,-1,-1,-1,-1,-1,-1,-1,-1,-1,-1,-1,-1,-1],"loss_changes":[1.7796133E4,4.2373857E3,1.4135947E3,1.3036611E3,5.684521E2,4.8625122E2,2.3570508E2,3.0938686E1,5.6428613E2,1.475979E2,1.663483E2,5.3244867E2,4.631858E2,6.737744E1,0E0,4.90997E1,7.501036E1,3.8065723E2,7.908252E2,4.5314096E2,4.112519E2,7.3857056E1,3.7684082E1,1.25285255E2,1.6409131E2,1.3312506E2,4.9697266E1,7.045288E1,5.987207E1,0E0,0E0,0E0,0E0,0E0,0E0,0E0,0E0,0E0,0E0,0E0,0E0,0E0,0E0,0E0,0E0,0E0,0E0,0E0,0E0,0E0,0E0,0E0,0E0,0E0,0E0,0E0,0E0],"parents":[2147483647,0,0,1,1,2,2,3,3,4,4,5,5,6,6,7,7,8,8,9,9,10,10,11,11,12,12,13,13,15,15,16,16,17,17,18,18,19,19,20,20,21,21,22,22,23,23,24,24,25,25,26,26,27,27,28,28],"right_children":[2,4,6,8,10,12,14,16,18,20,22,24,26,28,-1,30,32,34,36,38,40,42,44,46,48,50,52,54,56,-1,-1,-1,-1,-1,-1,-1,-1,-1,-1,-1,-1,-1,-1,-1,-1,-1,-1,-1,-1,-1,-1,-1,-1,-1,-1,-1,-1],"split_conditions":[1E-45,1E-45,1E-45,2.004E3,2.022E3,2.021E3,1E-45,1.1E1,1E-45,9E0,1E-45,1E-45,1E-45,5E0,-6.08038E-2,2.003E3,2.003E3,2.026E3,2.024E3,1E-45,1E-45,7E0,3E0,1.2E1,1E-45,1E-45,1.1E1,1E-45,2.021E3,6.0633966E-3,3.0477393E-2,1.5842104E-2,-5.0521336E-2,7.377552E-2,-2.5671612E-2,5.0580833E-2,-5.8609337E-2,4.4393152E-2,4.932832E-3,2.7865086E-2,-2.1756178E-2,-1.8920781E-2,3.5956354E-4,-8.027127E-3,-5.8264416E-2,7.823192E-3,-3.376215E-2,-2.143362E-2,-5.9459504E-2,6.239374E-3,-2.653238E-2,-6.0209054E-2,-3.767675E-2,2.8184805E-2,-5.080584E-2,-3.327688E-2,-4.790169E-2],"split_indices":[0,0,0,3,3,3,0,2,0,2,0,0,0,2,0,3,3,3,3,0,0,2,2,2,0,0,2,0,3,0,0,0,0,0,0,0,0,0,0,0,0,0,0,0,0,0,0,0,0,0,0,0,0,0,0,0,0],"split_type":[1,1,1,0,0,0,1,0,1,0,1,1,1,0,0,0,0,0,0,1,1,0,0,0,1,1,0,1,0,0,0,0,0,0,0,0,0,0,0,0,0,0,0,0,0,0,0,0,0,0,0,0,0,0,0,0,0],"sum_hessian":[2.467E3,1.26E3,1.207E3,5.4E2,7.2E2,7.14E2,4.93E2,7.4E1,4.66E2,5.74E2,1.46E2,4.8E2,2.34E2,3.36E2,1.57E2,6.6E1,8E0,3.02E2,1.64E2,3.09E2,2.65E2,1.33E2,1.3E1,1.32E2,3.48E2,1.31E2,1.03E2,1.27E2,2.09E2,5.2E1,1.4E1,5E0,3E0,2.97E2,5E0,1.55E2,9E0,4.7E1,2.62E2,2.4E2,2.5E1,3.8E1,9.5E1,3E0,1E1,1.22E2,1E1,3.32E2,1.6E1,2E1,1.11E2,7.8E1,2.5E1,1E0,1.26E2,1.43E2,6.6E1],"tree_param":{"num_deleted":"0","num_feature":"5","num_nodes":"57","size_leaf_vector":"1"}},{"base_weights":[-4.9732246E-2,2.5959513E0,-3.0083768E0,4.8402953E0,1.074104E0,-2.248804E0,-4.4312334E0,1.0073534E0,5.459845E0,1.5861405E0,-8.222862E-1,-1.6972073E0,-3.4227736E0,-3.8797386E0,-5.725028E-2,1.4453723E0,-3.3915946E0,6.2220073E0,4.0530953E0,2.5553358E0,1.1670566E0,8.878181E-1,-2.0302749E0,7.2553146E-1,-1.9930835E0,-1.4461408E0,-4.114244E0,-4.1954803E0,-3.1486998E0,1.0727962E-2,3.869018E-2,2.7320405E-2,-5.579356E-2,5.057587E-2,8.128717E-2,5.217484E-2,-5.5388797E-2,3.4075283E-2,-1.6081747E-2,6.451135E-3,2.137323E-2,3.423336E-2,2.0499255E-3,-1.4494273E-2,-4.2719442E-2,1.6889675E-2,-3.2275576E-2,-2.045444E-2,-4.6214636E-2,3.3676543E-3,-2.3385918E-2,-5.7246607E-2,-3.3966023E-2,-5.4387767E-2,-4.3173555E-2,-2.4031257E-2,-5.9123285E-2],"categories":[0,1,2,4,5,7,8,10,11,12,14,15,17,18,19,21,22,23,24,25,27,28,29,31,32,34,36,37,38,40,42,43,44,45,46,47,49,51,52,53,54,55,57,58,59,60,61,62,63,64,65,67,68,69,71,72,73,75,76,80,81,82,83,84,85,86,87,88,89,90,91,92,93,94,97,98,99,100,101,102,103,104,105,106,107,109,112,113,114,115,116,117,118,120,121,124,125,126,127,128,129,130,131,132,134,135,136,137,138,140,141,142,144,145,146,147,148,149,151,152,153,154,156,157,158,159,161,162,166,167,168,169,170,171,172,173,174,176,177,178,179,180,181,182,183,184,185,186,187,188,189,191,192,193,194,195,196,198,199,201,202,203,204,205,207,208,210,211,212,213,215,216,217,218,0,1,2,3,4,5,6,7,8,9,10,11,12,13,14,15,16,17,18,19,20,21,22,23,24,25,27,28,29,30,31,32,33,34,35,36,37,38,40,41,42,43,44,45,46,47,48,49,50,51,52,53,54,55,57,58,59,60,61,62,63,64,65,66,67,68,69,70,71,72,73,74,75,76,77,78,79,80,81,82,83,84,85,86,87,88,89,90,91,92,93,94,95,96,97,98,99,100,101,102,103,104,105,106,107,109,112,113,114,115,116,117,118,120,121,123,124,125,126,127,128,129,130,131,132,133,134,135,136,137,138,140,141,142,143,144,145,146,147,148,149,150,151,152,153,154,155,156,157,158,159,160,161,162,163,164,166,167,168,169,170,171,172,173,174,176,177,178,179,180,181,182,183,184,185,186,187,188,189,190,191,192,193,194,195,196,197,198,199,200,201,202,203,204,205,206,207,208,210,211,212,213,214,215,216,217,218,0,2,12,14,17,22,23,24,27,29,36,43,45,46,53,58,64,71,72,80,82,86,90,91,92,102,105,106,107,113,114,118,121,125,132,138,141,144,145,147,157,159,178,179,183,184,185,189,192,193,201,203,207,208,210,213,216,0,17,23,27,29,36,43,45,53,64,71,72,82,86,90,91,105,106,114,121,132,141,144,147,157,178,184,185,189,192,203,210,0,1,2,3,4,5,6,7,8,9,10,11,12,13,14,15,16,17,18,19,20,21,22,23,24,25,27,28,29,30,31,32,33,34,35,36,37,38,39,40,41,42,43,44,45,46,47,48,49,50,51,52,53,54,55,56,57,58,59,60,61,62,63,64,65,66,67,68,69,70,71,72,73,74,75,76,77,78,79,80,81,82,83,84,85,86,87,88,89,90,91,92,93,94,95,96,97,98,99,100,101,102,103,104,105,106,107,109,110,111,112,113,114,115,116,117,118,119,120,121,123,124,125,126,127,128,129,130,131,132,133,134,135,136,137,138,139,140,141,142,143,144,145,146,147,148,149,150,151,152,153,154,155,156,157,158,159,160,161,162,163,164,166,167,168,169,170,171,172,173,174,176,177,178,179,180,181,182,183,184,185,186,187,188,189,190,191,192,193,194,195,196,197,198,199,200,201,202,203,204,205,206,207,208,210,211,212,213,214,215,216,217,218,0,1,2,3,4,5,6,7,8,10,11,12,14,15,17,18,19,21,22,23,24,25,26,27,28,29,30,31,32,33,34,35,36,37,38,39,40,41,42,43,44,45,46,47,48,49,50,51,52,53,54,55,56,57,58,59,60,61,62,63,64,65,66,67,68,69,71,72,73,75,76,77,79,80,81,82,83,84,85,86,87,88,89,90,91,92,93,94,95,97,98,99,100,101,102,103,104,105,106,107,108,109,110,111,112,113,114,115,116,117,118,119,120,121,122,123,124,125,126,127,128,129,130,131,132,133,134,135,136,137,138,139,140,141,142,143,144,145,146,147,148,149,150,151,152,153,154,156,157,158,159,160,161,162,164,165,166,167,168,169,170,171,172,173,174,175,176,177,178,179,180,181,182,183,184,185,186,187,188,189,190,191,192,193,194,195,196,197,198,199,200,201,202,203,204,205,207,208,209,210,211,212,213,214,215,216,217,218,9,13,20,48,50,66,74,78,96,155,190,206,214,7,8,15,18,19,21,25,31,37,38,40,42,49,52,54,57,60,63,68,73,75,76,84,85,88,89,93,97,100,103,104,112,120,124,129,136,137,140,142,146,148,149,151,152,158,161,167,170,173,176,180,182,187,188,195,196,202,204,212,215,218,8,10,15,25,31,34,42,47,54,57,60,65,68,73,76,81,84,85,88,93,94,103,115,124,129,134,142,148,151,152,153,156,158,171,174,177,180,182,188,202,212,218,209,0,1,2,3,4,5,6,7,8,9,10,11,12,13,14,15,16,17,18,19,20,21,22,23,24,25,26,27,28,29,30,31,32,34,35,36,37,38,39,40,41,42,43,44,45,46,47,48,49,50,51,52,53,54,55,56,57,58,59,60,61,62,63,64,65,66,67,68,69,70,71,72,73,74,75,76,78,80,81,82,83,84,85,86,87,88,89,90,91,92,93,94,96,97,98,99,100,101,102,103,104,105,106,107,108,109,110,111,112,113,114,115,116,117,118,119,120,121,122,123,124,125,126,127,128,129,130,131,132,133,134,135,136,137,138,139,140,141,142,143,144,145,146,147,148,149,150,151,152,153,154,155,156,157,158,159,160,161,162,163,164,165,166,167,168,169,170,171,172,173,174,175,176,177,178,179,180,181,182,183,184,185,186,187,188,189,190,191,192,193,194,195,196,197,198,199,200,201,202,203,204,205,206,207,208,209,210,211,212,213,214,215,216,217,218,13,20,48,50,74,78,155,206,19,21,37,38,75,84,89,97,100,103,104,120,137,140,149,161,170,173,176,195,215,1,7,40,112,130,135,136],"categories_nodes":[0,1,2,6,8,9,10,11,12,16,21,22,24,25],"categories_segments":[0,174,381,438,470,683,891,904,965,1007,1008,1223,1231,1252],"categories_sizes":[174,207,57,32,213,208,13,61,42,1,215,8,21,7],"default_left":[0,0,1,0,0,0,1,0,0,0,1,1,1,0,0,0,1,0,0,0,0,0,1,0,1,1,0,0,0,0,0,0,0,0,0,0,0,0,0,0,0,0,0,0,0,0,0,0,0,0,0,0,0,0,0,0,0],"id":9,"left_children":[1,3,5,7,9,11,13,15,17,19,21,23,25,27,-1,29,31,33,35,37,39,41,43,45,47,49,51,53,55,-1,-1,-1,-1,-1,-1,-1,-1,-1,-1,-1,-1,-1,-1,-1,-1,-1,-1,-1,-1,-1,-1,-1,-1,-1,-1,-1,-1],"loss_changes":[1.9201178E4,4.4179365E3,1.2415586E3,1.2364678E3,7.519037E2,4.8439233E2,7.449414E1,1.4748694E2,4.572588E2,2.443778E2,3.426573E2,3.720475E2,3.2344458E2,2.8106445E1,0E0,6.3872696E1,6.436585E1,3.4505762E2,5.402949E2,2.4247046E2,1.6969E2,9.870779E1,1.19246155E2,1.4317836E2,2.2334912E2,5.995349E1,1.482461E2,1.022876E1,1.098952E2,0E0,0E0,0E0,0E0,0E0,0E0,0E0,0E0,0E0,0E0,0E0,0E0,0E0,0E0,0E0,0E0,0E0,0E0,0E0,0E0,0E0,0E0,0E0,0E0,0E0,0E0,0E0,0E0],"parents":[2147483647,0,0,1,1,2,2,3,3,4,4,5,5,6,6,7,7,8,8,9,9,10,10,11,11,12,12,13,13,15,15,16,16,17,17,18,18,19,19,20,20,21,21,22,22,23,23,24,24,25,25,26,26,27,27,28,28],"right_children":[2,4,6,8,10,12,14,16,18,20,22,24,26,28,-1,30,32,34,36,38,40,42,44,46,48,50,52,54,56,-1,-1,-1,-1,-1,-1,-1,-1,-1,-1,-1,-1,-1,-1,-1,-1,-1,-1,-1,-1,-1,-1,-1,-1,-1,-1,-1,-1],"split_conditions":[1E-45,1E-45,1E-45,2.004E3,2.022E3,2.021E3,1E-45,1.2E1,1E-45,1E-45,1E-45,1E-45,1E-45,1E1,-5.725028E-2,2.003E3,1E-45,2.012E3,2.025E3,1.2E1,9E0,1E-45,1E-45,2.019E3,1E-45,1E-45,9E0,2.015E3,2.021E3,1.0727962E-2,3.869018E-2,2.7320405E-2,-5.579356E-2,5.057587E-2,8.128717E-2,5.217484E-2,-5.5388797E-2,3.4075283E-2,-1.6081747E-2,6.451135E-3,2.137323E-2,3.423336E-2,2.0499255E-3,-1.4494273E-2,-4.2719442E-2,1.6889675E-2,-3.2275576E-2,-2.045444E-2,-4.6214636E-2,3.3676543E-3,-2.3385918E-2,-5.7246607E-2,-3.3966023E-2,-5.4387767E-2,-4.3173555E-2,-2.4031257E-2,-5.9123285E-2],"split_indices":[0,0,0,3,3,3,0,2,0,0,0,0,0,2,0,3,0,3,3,2,2,0,0,3,0,0,2,3,3,0,0,0,0,0,0,0,0,0,0,0,0,0,0,0,0,0,0,0,0,0,0,0,0,0,0,0,0],"split_type":[1,1,1,0,0,0,1,0,1,1,1,1,1,0,0,0,1,0,0,0,0,1,1,0,1,1,0,0,0,0,0,0,0,0,0,0,0,0,0,0,0,0,0,0,0,0,0,0,0,0,0,0,0,0,0,0,0],"sum_hessian":[2.451E3,1.294E3,1.157E3,5.22E2,7.72E2,7.56E2,4.01E2,7.3E1,4.49E2,6.08E2,1.64E2,5.16E2,2.4E2,1.78E2,2.23E2,6.7E1,6E0,2.89E2,1.6E2,1.82E2,4.26E2,6.8E1,9.6E1,5.6E1,4.6E2,6.3E1,1.77E2,1.21E2,5.7E1,5.3E1,1.4E1,1E0,5E0,7.6E1,2.13E2,1.54E2,6E0,1.68E2,1.4E1,2.18E2,2.08E2,1.7E1,5.1E1,6.5E1,3.1E1,4.7E1,9E0,4.07E2,5.3E1,1.5E1,4.8E1,1.09E2,6.8E1,6.4E1,5.7E1,3.7E1,2E1],"tree_param":{"num_deleted":"0","num_feature":"5","num_nodes":"57","size_leaf_vector":"1"}},{"base_weights":[-2.9766228E-2,2.6108701E0,-2.7180355E0,4.6651034E0,1.1569049E0,-1.8279452E0,-3.9353225E0,5.333833E0,3.4159162E0,1.4836806E0,5.2617526E-1,-7.383004E-1,-2.3361194E0,-3.3203251E0,-4.5815682E0,5.2409873E0,9.549995E-2,3.5783043E0,5.6621677E-1,2.2730918E0,1.3220892E0,-6.099199E-1,8.2040024E-1,-8.562014E-1,1.6439651E0,-2.1070988E0,-3.424804E0,-3.2351723E0,-4.2615232E0,-5.4645166E-2,1.0286795E0,7.873974E-2,5.9788134E-2,-5.009217E-3,4.366425E-2,-5.144238E-2,4.724289E-2,2.800468E-2,-3.3381846E-2,1.4965593E-2,7.459011E-2,4.6205386E-3,-5.728964E-2,4.8204936E-2,9.241824E-3,-6.782494E-3,-1.9935993E-2,6.654077E-2,-1.7048044E-2,-3.2136332E-2,-2.229668E-2,-4.8476357E-2,-3.455489E-2,4.0660635E-2,-3.865343E-2,-3.0618828E-2,-5.7001222E-2,4.904342E-2,-3.0837428E-2],"categories":[0,1,2,4,5,7,8,10,11,12,13,14,15,17,18,19,21,22,23,24,25,27,28,29,31,32,34,36,37,38,40,41,42,43,44,45,46,47,49,51,52,53,54,55,57,58,59,60,61,62,63,64,65,66,67,68,69,71,72,73,75,76,80,81,82,83,84,85,86,87,88,89,90,91,92,93,94,97,98,99,100,101,102,103,105,106,107,109,111,112,113,114,115,116,117,118,120,121,124,125,126,127,128,129,130,131,132,134,136,137,138,140,141,142,144,145,146,147,148,151,152,153,154,156,157,158,159,161,162,163,165,166,167,168,170,171,172,173,174,176,177,178,179,180,181,182,183,184,185,186,187,188,189,191,192,193,194,195,196,197,198,199,200,201,202,203,204,205,206,207,208,210,211,212,213,215,216,217,218,0,1,2,3,4,5,6,7,8,9,10,11,12,13,14,15,16,17,18,19,20,21,22,23,24,25,26,27,28,29,30,31,32,33,34,35,36,37,38,40,41,42,43,44,45,46,47,48,49,50,51,52,53,54,55,57,58,59,60,61,62,63,64,65,66,67,68,69,70,71,72,73,74,75,76,78,79,80,81,82,83,84,85,86,87,88,89,90,91,92,93,94,95,96,97,98,99,100,101,102,103,104,105,106,107,109,110,111,112,113,114,115,116,117,118,119,120,121,123,124,125,126,127,128,129,130,131,132,133,134,135,136,137,138,139,140,141,142,143,144,145,146,147,148,149,150,151,152,153,154,155,156,157,158,159,160,161,162,163,164,165,166,167,168,170,171,172,173,174,176,177,178,179,180,181,182,183,184,185,186,187,188,189,190,191,192,193,194,195,196,197,198,199,200,201,202,203,204,205,206,207,208,210,211,212,213,214,215,216,217,218,0,14,15,19,22,23,24,25,29,36,40,43,44,45,53,54,64,71,72,80,81,82,84,85,90,91,92,93,102,105,106,107,113,114,118,124,125,132,138,141,144,147,148,157,178,179,180,184,185,188,189,192,193,201,202,203,207,208,210,212,216,0,1,2,3,4,5,6,7,8,9,10,11,12,13,14,15,16,17,18,19,20,21,22,23,24,25,26,27,28,29,30,31,32,33,34,35,36,37,38,39,40,41,42,43,44,45,46,47,48,49,50,51,52,53,54,55,56,57,58,59,60,61,62,63,64,65,66,67,68,69,70,71,72,73,74,75,76,77,78,79,80,81,82,83,84,85,86,87,88,89,90,91,92,93,94,95,96,97,98,99,100,101,102,103,104,105,106,107,109,110,111,112,113,114,115,116,117,118,119,120,121,123,124,125,126,127,128,129,130,131,132,133,134,135,136,137,138,139,140,141,142,143,144,145,146,147,148,149,150,151,152,153,154,155,156,157,158,159,160,161,162,163,164,165,166,167,168,169,170,171,172,173,174,176,177,178,179,180,181,182,183,184,185,186,187,188,189,190,191,192,193,194,195,196,197,198,199,200,201,202,203,204,205,206,207,208,210,211,212,213,214,215,216,217,218,0,1,2,3,4,5,7,8,10,11,12,13,14,15,17,18,19,20,21,22,23,24,25,27,28,29,30,31,32,34,36,37,38,39,40,41,42,43,44,45,46,47,48,49,50,51,52,53,54,55,56,57,58,59,60,61,62,63,64,65,66,67,68,69,71,72,73,74,75,76,77,80,81,82,83,84,85,86,87,88,89,90,91,92,93,94,97,98,99,100,101,102,103,104,105,106,107,108,109,111,112,113,114,115,116,117,118,120,121,122,124,125,126,127,128,129,130,131,132,134,135,136,137,138,140,141,142,143,144,145,146,147,148,149,151,152,153,154,156,157,158,159,160,161,162,163,164,165,166,167,168,169,170,171,172,173,174,175,176,177,178,179,180,181,182,183,184,185,186,187,188,189,190,191,192,193,194,195,196,197,198,199,200,201,202,203,204,205,206,207,208,209,210,211,212,213,214,215,216,217,218,1,2,8,10,12,17,27,31,34,37,42,46,47,55,57,58,59,60,65,68,73,76,86,88,97,99,100,112,115,120,121,129,136,137,140,145,151,152,153,158,159,162,167,170,171,172,174,183,187,195,196,197,200,213,218,0,19,22,23,24,29,36,43,45,53,54,64,71,72,90,91,92,102,105,106,107,113,114,118,132,138,141,144,157,178,179,184,185,189,192,193,201,203,208,212,0,1,2,3,4,5,6,7,8,10,11,12,13,14,15,17,18,19,20,21,22,23,24,25,26,27,28,29,30,31,32,33,34,35,36,37,38,39,40,41,42,43,44,45,46,47,48,49,50,51,52,53,54,55,56,57,58,59,60,61,62,63,64,65,66,67,68,69,71,72,73,74,75,76,77,80,81,82,83,84,85,86,87,88,89,90,91,92,93,94,96,97,98,99,100,101,102,103,104,105,106,107,108,109,111,112,113,114,115,116,117,118,119,120,121,122,123,124,125,126,127,128,129,130,131,132,134,135,136,137,138,140,141,142,143,144,145,146,147,148,149,150,151,152,153,154,155,156,157,158,159,160,161,162,163,164,165,166,167,168,169,170,171,172,173,174,175,176,177,178,179,180,181,182,183,184,185,186,187,188,189,190,191,192,193,194,195,196,197,198,199,200,201,202,203,204,205,206,207,208,209,210,211,212,213,214,215,216,217,218,2,12,31,37,55,57,58,65,97,99,100,115,120,121,137,140,145,159,162,170,171,172,174,183,195,213,48,190,0,1,2,3,4,5,6,7,8,9,10,11,12,13,14,15,16,17,18,19,20,21,22,23,24,25,26,27,28,29,30,31,32,33,34,35,36,37,38,39,40,41,42,43,44,45,46,47,48,49,50,51,52,53,54,55,56,57,58,59,60,61,62,63,64,65,66,67,68,69,70,71,72,73,74,75,76,77,78,79,80,81,82,83,84,85,86,87,88,89,90,91,92,93,94,95,96,97,98,99,100,101,102,103,104,105,106,107,108,109,110,111,112,113,114,115,116,117,118,119,120,121,122,123,124,125,126,127,128,129,130,131,132,133,134,135,136,137,138,139,140,141,142,143,144,145,146,147,148,149,150,151,152,153,154,155,156,157,158,159,161,162,163,164,165,166,167,168,169,170,171,172,173,174,175,176,177,178,179,180,181,182,183,184,185,186,187,188,189,190,191,192,193,194,195,196,197,198,199,200,201,202,203,204,205,206,207,208,209,210,211,212,213,214,215,216,217,218,94,176,55,57,115,120,172,183,14,15,25,40,44,80,81,82,84,85,93,124,125,147,148,180,188,202,210,216,14,25,80,85,207,157],"categories_nodes":[0,1,2,3,4,5,6,9,12,21,22,24,26,27,28,30],"categories_segments":[0,179,390,451,666,867,922,962,1172,1198,1200,1418,1420,1426,1446,1451],"categories_sizes":[179,211,61,215,201,55,40,210,26,2,218,2,6,20,5,1],"default_left":[0,0,1,0,0,1,1,0,0,0,0,0,1,0,0,0,0,0,0,0,0,1,0,0,1,0,1,1,1,0,1,0,0,0,0,0,0,0,0,0,0,0,0,0,0,0,0,0,0,0,0,0,0,0,0,0,0,0,0],"id":10,"left_children":[1,3,5,7,9,11,13,15,17,19,21,23,25,27,29,31,-1,33,35,37,39,41,43,45,47,49,51,53,55,-1,57,-1,-1,-1,-1,-1,-1,-1,-1,-1,-1,-1,-1,-1,-1,-1,-1,-1,-1,-1,-1,-1,-1,-1,-1,-1,-1,-1,-1],"loss_changes":[1.74629E4,3.7012021E3,1.3135869E3,4.1115918E2,1.4926526E2,3.89208E2,1.8907129E2,4.2916992E1,8.21958E1,5.8097046E1,8.4067276E1,6.488452E1,1.1271167E2,7.6123047E0,7.4043945E1,4.7069336E1,0E0,8.583423E1,2.037415E2,4.7696594E1,9.9384094E1,2.2300803E2,2.0921982E1,4.9680496E1,1.4390776E2,4.84646E1,1.5785278E1,7.922656E1,5.496002E0,0E0,4.504158E1,0E0,0E0,0E0,0E0,0E0,0E0,0E0,0E0,0E0,0E0,0E0,0E0,0E0,0E0,0E0,0E0,0E0,0E0,0E0,0E0,0E0,0E0,0E0,0E0,0E0,0E0,0E0,0E0],"parents":[2147483647,0,0,1,1,2,2,3,3,4,4,5,5,6,6,7,7,8,8,9,9,10,10,11,11,12,12,13,13,14,14,15,15,17,17,18,18,19,19,20,20,21,21,22,22,23,23,24,24,25,25,26,26,27,27,28,28,30,30],"right_children":[2,4,6,8,10,12,14,16,18,20,22,24,26,28,30,32,-1,34,36,38,40,42,44,46,48,50,52,54,56,-1,58,-1,-1,-1,-1,-1,-1,-1,-1,-1,-1,-1,-1,-1,-1,-1,-1,-1,-1,-1,-1,-1,-1,-1,-1,-1,-1,-1,-1],"split_conditions":[1E-45,1E-45,1E-45,1E-45,1E-45,1E-45,1E-45,3.12E2,1.12E2,1E-45,1.5E1,4.785E2,1E-45,1.85E2,3.465E2,5.5E0,9.549995E-2,1.3E1,9.3E2,1.111E3,1.111E3,1E-45,1E-45,2.7E1,1E-45,1.5E0,1E-45,1E-45,1E-45,-5.4645166E-2,1E-45,7.873974E-2,5.9788134E-2,-5.009217E-3,4.366425E-2,-5.144238E-2,4.724289E-2,2.800468E-2,-3.3381846E-2,1.4965593E-2,7.459011E-2,4.6205386E-3,-5.728964E-2,4.8204936E-2,9.241824E-3,-6.782494E-3,-1.9935993E-2,6.654077E-2,-1.7048044E-2,-3.2136332E-2,-2.229668E-2,-4.8476357E-2,-3.455489E-2,4.0660635E-2,-3.865343E-2,-3.0618828E-2,-5.7001222E-2,4.904342E-2,-3.0837428E-2],"split_indices":[0,0,0,0,0,0,0,4,4,0,4,4,0,4,4,4,0,4,4,4,4,0,0,4,0,4,0,0,0,0,0,0,0,0,0,0,0,0,0,0,0,0,0,0,0,0,0,0,0,0,0,0,0,0,0,0,0,0,0],"split_type":[1,1,1,1,1,1,1,0,0,1,0,0,1,0,0,0,0,0,0,0,0,1,1,0,1,0,1,1,1,0,1,0,0,0,0,0,0,0,0,0,0,0,0,0,0,0,0,0,0,0,0,0,0,0,0,0,0,0,0],"sum_hessian":[2.458E3,1.24E3,1.218E3,5.13E2,7.27E2,7.05E2,5.13E2,3.32E2,1.81E2,4.78E2,2.49E2,2.25E2,4.8E2,2.66E2,2.47E2,3.24E2,8E0,1.71E2,1E1,7.9E1,3.99E2,5.1E1,1.98E2,2.15E2,1E1,3.99E2,8.1E1,2.48E2,1.8E1,2.45E2,2E0,3.1E1,2.93E2,5E0,1.66E2,4E0,6E0,7.8E1,1E0,3.96E2,3E0,4.2E1,9E0,1E0,1.97E2,1.62E2,5.3E1,4E0,6E0,1.01E2,2.98E2,3.1E1,5E1,1E0,2.47E2,6E0,1.2E1,1E0,1E0],"tree_param":{"num_deleted":"0","num_feature":"5","num_nodes":"59","size_leaf_vector":"1"}},{"base_weights":[-7.7053145E-2,2.5541766E0,-2.75381E0,5.2079034E0,1.5338528E0,-1.8688444E0,-3.9932675E0,5.0962124E0,9.918684E-2,2.7331152E0,9.807049E-1,-1.2050717E0,-2.749183E0,-3.6192422E0,-5.8065906E-2,8.210177E-2,5.7922907E-2,1.4758717E0,3.1754346E0,9.438142E-1,4.549364E0,-4.3059745E-1,-1.6245363E0,-2.283625E0,-3.0242953E0,-3.6520693E0,4.875409E-2,2.3548516E-2,-3.6908735E-2,4.161008E-2,1.0600548E-2,-2.871639E-3,1.2155769E-2,2.8084194E-2,6.990976E-2,-2.6879892E-2,-1.1402266E-3,-2.0025907E-2,2.9115329E-2,-2.4640776E-2,-4.6902392E-2,-4.3883633E-2,-3.3848744E-2,-3.890408E-2,-4.779924E-2],"categories":[0,1,2,3,4,7,8,11,12,13,14,15,17,18,19,21,22,23,24,25,28,29,31,32,34,36,37,38,40,41,42,43,44,45,46,47,48,49,50,51,53,54,55,57,58,59,60,61,62,63,64,65,67,68,69,71,72,73,75,76,80,81,82,83,84,85,86,87,88,89,90,91,92,93,94,97,98,99,100,101,102,103,105,106,107,109,111,112,113,114,115,116,117,118,120,121,124,125,126,127,129,131,132,133,134,136,137,138,140,141,142,144,145,146,147,148,149,151,152,153,154,156,157,158,159,160,161,162,163,166,167,168,170,171,172,173,174,175,176,177,178,179,180,181,182,183,184,185,186,187,188,189,191,192,193,194,195,197,198,199,200,201,202,203,204,205,206,207,208,210,211,212,213,215,216,217,218,0,1,2,3,4,6,7,8,9,10,11,12,13,14,15,16,17,18,19,20,21,22,23,24,25,26,27,28,29,30,31,32,33,34,35,36,37,38,39,40,41,42,43,44,45,46,47,48,49,50,51,52,53,54,55,57,58,59,60,61,62,63,64,65,66,67,68,69,70,71,72,73,74,75,76,77,78,79,80,81,82,83,84,85,86,87,88,89,90,91,92,93,94,95,96,97,98,99,100,101,102,103,104,105,106,107,109,110,111,112,113,114,115,116,117,118,119,120,121,123,124,125,126,127,128,129,130,131,132,133,134,135,136,137,138,139,140,141,142,143,144,145,146,147,148,149,150,151,152,153,154,155,156,157,158,159,160,161,162,163,164,166,167,168,169,170,171,172,173,174,175,176,177,178,179,180,181,182,183,184,185,186,187,188,189,190,191,192,193,194,195,196,197,198,199,200,201,202,203,204,205,206,207,208,210,211,212,213,214,215,216,217,218,0,2,3,12,14,19,22,23,24,29,31,36,40,43,45,53,58,60,64,71,72,81,82,84,85,90,91,92,93,102,105,106,107,113,114,121,125,132,138,141,147,148,151,157,158,159,171,178,179,180,183,184,185,189,192,201,202,203,207,212,216,0,1,2,3,4,5,6,7,8,10,11,12,13,14,15,17,18,19,20,21,22,23,24,25,26,27,28,29,30,31,32,33,34,35,36,37,38,40,41,42,43,44,45,46,47,48,49,50,51,52,53,54,55,56,57,58,59,60,61,62,63,64,65,66,67,68,69,71,72,73,75,76,79,80,81,82,83,84,85,86,87,88,89,90,91,92,93,94,96,97,98,99,100,101,102,103,104,105,106,107,108,109,111,112,113,114,115,116,117,118,119,120,121,122,123,124,125,126,127,128,129,130,131,132,133,134,135,136,137,138,140,141,142,143,144,145,146,147,148,149,150,151,152,153,154,155,156,157,158,159,160,161,162,163,164,165,166,167,168,170,171,172,173,174,175,176,177,178,179,180,181,182,183,184,185,186,187,188,189,190,191,192,193,194,195,196,197,198,199,200,201,202,203,204,205,206,207,208,209,210,211,212,213,214,215,216,217,218,1,7,8,15,21,25,37,42,44,47,55,57,59,65,68,73,75,80,89,99,118,124,129,136,142,144,145,152,161,162,167,170,172,174,187,188,193,195,208,210,213,215,218,22,23,29,36,43,53,71,72,90,91,92,105,106,114,121,132,141,147,157,178,184,185,189,203,17,34,38,46,54,63,76,86,88,94,103,112,146,153,160,182,197,21,37,42,44,55,57,65,68,73,75,80,89,99,118,136,144,145,161,162,170,172,174,188,193,195,208,210,213,215,39,42,44,55,57,68,75,80,136,144,161,172,188,210,215,0,2,12,19,24,31,40,45,58,64,81,82,102,107,113,125,138,159,171,179,180,192,201,202,212],"categories_nodes":[0,1,2,4,5,6,11,12,17,24,25],"categories_segments":[0,177,390,451,659,702,726,743,772,773,787],"categories_sizes":[177,213,61,208,43,24,17,29,1,14,25],"default_left":[0,0,1,0,0,1,1,0,0,0,0,1,1,0,0,0,0,1,0,0,0,0,0,0,1,1,0,0,0,0,0,0,0,0,0,0,0,0,0,0,0,0,0,0,0],"id":11,"left_children":[1,3,5,7,9,11,13,15,-1,17,19,21,23,25,-1,-1,-1,27,29,31,33,35,37,39,41,43,-1,-1,-1,-1,-1,-1,-1,-1,-1,-1,-1,-1,-1,-1,-1,-1,-1,-1,-1],"loss_changes":[1.7220521E4,3.3305566E3,1.3219521E3,7.9336914E1,5.890449E2,4.109873E2,1.5712744E2,8.183203E1,0E0,1.5157861E2,7.6276306E1,1.3119556E2,3.2030273E1,1.0745703E2,0E0,0E0,0E0,1.8578043E2,1.6234717E2,6.2533325E1,3.8017044E0,8.86295E1,8.245953E1,3.0336914E1,9.647339E0,3.7901367E1,0E0,0E0,0E0,0E0,0E0,0E0,0E0,0E0,0E0,0E0,0E0,0E0,0E0,0E0,0E0,0E0,0E0,0E0,0E0],"parents":[2147483647,0,0,1,1,2,2,3,3,4,4,5,5,6,6,7,7,9,9,10,10,11,11,12,12,13,13,17,17,18,18,19,19,20,20,21,21,22,22,23,23,24,24,25,25],"right_children":[2,4,6,8,10,12,14,16,-1,18,20,22,24,26,-1,-1,-1,28,30,32,34,36,38,40,42,44,-1,-1,-1,-1,-1,-1,-1,-1,-1,-1,-1,-1,-1,-1,-1,-1,-1,-1,-1],"split_conditions":[1E-45,1E-45,1E-45,3.12E2,1E-45,1E-45,1E-45,5.5E0,9.918684E-2,1.5E1,9.3E2,1E-45,1E-45,6.79E2,-5.8065906E-2,8.210177E-2,5.7922907E-2,1E-45,1.12E2,1.5E0,1.111E3,1.1E1,4.445E2,5.4E1,1E-45,1E-45,4.875409E-2,2.3548516E-2,-3.6908735E-2,4.161008E-2,1.0600548E-2,-2.871639E-3,1.2155769E-2,2.8084194E-2,6.990976E-2,-2.6879892E-2,-1.1402266E-3,-2.0025907E-2,2.9115329E-2,-2.4640776E-2,-4.6902392E-2,-4.3883633E-2,-3.3848744E-2,-3.890408E-2,-4.779924E-2],"split_indices":[0,0,0,4,0,0,0,4,0,4,4,0,0,4,0,0,0,0,4,4,4,4,4,4,0,0,0,0,0,0,0,0,0,0,0,0,0,0,0,0,0,0,0,0,0],"split_type":[1,1,1,0,1,1,1,0,0,0,0,1,1,0,0,0,0,1,0,0,0,0,0,0,1,1,0,0,0,0,0,0,0,0,0,0,0,0,0,0,0,0,0,0,0],"sum_hessian":[2.443E3,1.232E3,1.211E3,3.41E2,8.91E2,7.08E2,5.03E2,3.32E2,9E0,2.8E2,6.11E2,4.05E2,3.03E2,3.62E2,1.41E2,2.7E1,3.05E2,7.4E1,2.06E2,6.06E2,5E0,1.43E2,2.62E2,1.16E2,1.87E2,3.61E2,1E0,6.7E1,7E0,1.78E2,2.8E1,4.1E1,5.65E2,3E0,2E0,2.1E1,1.22E2,2.58E2,4E0,1.06E2,1E1,3E1,1.57E2,1.96E2,1.65E2],"tree_param":{"num_deleted":"0","num_feature":"5","num_nodes":"45","size_leaf_vector":"1"}},{"base_weights":[2.60962E-2,2.6844304E0,-2.8168972E0,4.6188064E0,1.1304243E0,-1.9942671E0,-4.104049E0,3.0093117E0,5.639839E0,1.4954892E0,-3.6659375E-1,-8.006783E-1,-2.4867764E0,-3.5026312E0,-4.5813684E0,1.4125675E0,3.858508E0,6.549394E0,3.95129E0,1.9094316E0,1.1204565E0,2.8825223E0,-9.967893E-1,-3.283828E-1,-4.545681E0,-2.931906E0,-1.7116759E0,-4.099413E0,-2.9836924E0,-1.9641886E0,-4.6578736E0,5.4941654E-2,1.27682965E-2,4.9506962E-2,-2.7181492E-3,7.979022E-2,-2.7375843E-2,6.36721E-2,-3.8687076E-4,2.4612842E-2,-9.9270325E-3,5.458154E-3,2.2044532E-2,-8.952078E-3,4.970064E-2,-8.018304E-3,-5.6199048E-2,-6.563283E-5,-2.2224726E-2,-9.878829E-3,-5.941457E-2,-2.1942893E-2,-4.117078E-2,3.8701736E-3,-2.7214298E-2,-9.528637E-4,-4.9378183E-2,-1.5931606E-2,-4.333548E-2,2.2170788E-2,-4.954354E-2,-5.0161064E-2,-5.8994185E-2],"categories":[0,1,2,4,7,8,11,12,14,15,17,18,19,20,21,22,23,24,25,27,28,29,30,31,32,34,36,37,38,40,41,42,43,44,45,46,47,48,49,51,52,53,54,55,57,58,59,60,61,62,63,64,65,67,68,69,71,72,73,75,76,80,81,82,83,84,85,86,87,88,89,90,91,92,93,94,97,98,99,100,101,102,103,105,106,107,109,111,112,113,114,115,116,117,118,120,121,124,125,126,127,128,129,131,132,133,134,136,137,138,139,140,141,142,144,145,146,147,148,149,151,152,153,154,156,157,158,159,161,162,163,165,168,169,170,171,172,173,174,177,178,179,180,181,182,183,184,185,186,187,188,189,191,192,193,194,195,196,198,199,200,201,202,203,204,205,206,207,208,210,211,212,213,215,216,217,218,0,1,2,3,4,6,7,8,9,10,11,12,13,14,15,16,17,18,19,20,21,22,23,24,25,26,27,28,29,30,31,32,33,34,35,36,37,38,40,41,42,43,44,45,46,47,48,49,50,51,52,53,54,55,57,58,59,60,61,62,63,64,65,66,67,68,69,70,71,72,73,74,75,76,78,79,80,81,82,83,84,85,86,87,88,89,90,91,92,93,94,95,96,97,98,99,100,101,102,103,104,105,106,107,109,110,111,112,113,114,115,116,117,118,120,121,123,124,125,126,127,128,129,130,131,132,133,134,135,136,137,138,139,140,141,142,143,144,145,146,147,148,149,150,151,152,153,154,156,157,158,159,160,161,162,163,164,165,166,167,168,169,170,171,172,173,174,176,177,178,179,180,181,182,183,184,185,186,187,188,189,190,191,192,193,194,195,196,197,198,199,200,201,202,203,204,205,206,207,208,210,211,212,213,214,215,216,217,218,0,2,8,14,22,23,24,29,31,34,36,40,43,45,46,53,58,59,63,64,71,72,73,76,81,82,84,90,91,92,93,105,106,107,113,114,118,125,132,138,141,144,145,147,152,157,159,178,179,180,184,185,189,192,193,201,202,203,208,210,212,213,218,15,17,19,20,21,25,37,42,44,47,49,55,57,60,68,80,85,86,88,89,97,99,100,111,112,115,120,121,124,128,129,136,137,140,146,148,151,158,162,170,171,172,174,182,183,188,195,207,215,216,0,22,23,24,29,31,34,36,43,45,53,59,63,64,71,72,73,82,90,91,92,93,105,106,114,118,125,132,141,144,145,147,152,157,159,178,184,185,189,192,193,203,218,0,1,2,3,4,5,6,7,8,9,10,11,12,13,14,15,16,17,18,19,20,21,22,23,24,25,26,27,28,29,30,31,32,33,34,35,36,37,38,39,40,41,42,43,44,45,46,47,48,49,50,51,52,53,54,55,57,58,59,60,61,62,63,64,65,66,67,68,69,70,71,72,73,74,75,76,77,78,79,80,81,82,83,84,85,86,87,88,89,90,91,92,93,94,95,96,97,98,99,100,101,102,103,104,105,106,107,109,110,111,112,113,114,115,116,117,118,119,120,121,123,124,125,126,127,128,129,130,131,132,133,134,135,136,137,138,139,140,141,142,143,144,145,146,147,148,149,150,151,152,153,154,155,156,157,158,159,160,161,162,163,164,165,166,167,168,169,170,171,172,173,174,176,177,178,179,180,181,182,183,184,185,186,187,188,189,190,191,192,193,194,195,196,197,198,199,200,201,202,203,204,205,206,207,208,210,211,212,213,214,215,216,217,218,0,1,2,3,4,5,6,7,8,10,11,12,13,14,15,17,18,19,20,21,22,23,24,25,26,27,28,29,30,31,32,33,34,35,36,37,38,39,40,41,42,43,44,45,46,47,48,49,50,51,52,53,54,55,56,57,58,59,60,61,62,63,64,65,67,68,69,71,72,73,75,76,77,79,80,81,82,83,84,85,86,87,88,89,90,91,92,93,94,97,98,99,100,101,102,103,104,105,106,107,108,109,111,112,113,114,115,116,117,118,119,120,121,122,124,125,126,127,128,129,130,131,132,133,134,136,137,138,139,140,141,142,143,144,145,146,147,148,149,150,151,152,153,154,155,156,157,158,159,160,161,162,163,164,165,166,167,168,169,170,171,172,173,174,175,177,178,179,180,181,182,183,184,185,186,187,188,189,191,192,193,194,195,196,197,198,199,200,201,202,203,204,205,206,207,208,209,210,211,212,213,214,215,216,217,218,0,1,2,3,4,5,6,7,8,9,10,11,12,13,14,15,16,17,18,19,20,21,22,23,24,25,26,27,28,29,30,31,32,34,35,36,37,38,39,40,41,42,43,44,45,46,47,48,49,51,52,53,54,55,56,57,58,59,60,61,62,63,64,65,66,67,68,69,70,71,72,73,74,75,76,77,78,80,81,82,83,84,85,86,87,88,89,90,91,92,93,94,96,97,98,99,100,101,102,103,104,105,106,107,108,109,110,111,112,113,114,115,116,117,118,119,120,121,122,123,124,125,126,127,128,129,130,131,132,133,134,135,136,137,138,139,140,141,142,143,144,145,146,147,148,149,150,151,152,153,154,155,156,157,158,159,161,162,163,164,165,167,168,169,170,171,172,173,174,175,176,177,178,179,180,181,182,183,184,185,186,187,188,189,190,191,192,193,194,195,196,197,198,199,200,201,202,203,204,205,206,207,208,209,210,211,212,213,214,215,216,217,218,13,74,78,176,7,38,41,48,94,103,133,153,177,206,15,19,21,37,42,47,49,55,57,68,80,85,86,88,89,97,99,100,111,115,121,128,129,136,137,140,148,151,162,170,171,172,174,183,195,216,15,17,20,25,42,44,57,60,68,80,85,112,120,124,128,136,146,158,182,183,188,207,215,2,14,40,46,76,84,107,113,138,180,202,208,212,213,90,114,157,192,203,23,29,31,36,43,53,59,71,72,73,91,92,93,105,106,114,125,132,141,147,152,184,189,218],"categories_nodes":[0,1,2,5,6,8,9,10,22,24,25,26,27,29,30],"categories_segments":[0,177,386,449,499,542,756,962,1175,1179,1189,1225,1248,1262,1267],"categories_sizes":[177,209,63,50,43,214,206,213,4,10,36,23,14,5,24],"default_left":[0,0,1,0,0,1,1,0,0,0,0,0,0,0,0,0,0,0,0,0,0,0,1,0,1,1,1,1,0,1,1,0,0,0,0,0,0,0,0,0,0,0,0,0,0,0,0,0,0,0,0,0,0,0,0,0,0,0,0,0,0,0,0],"id":12,"left_children":[1,3,5,7,9,11,13,15,17,19,21,23,25,27,29,31,33,35,37,39,41,43,45,47,49,51,53,55,57,59,61,-1,-1,-1,-1,-1,-1,-1,-1,-1,-1,-1,-1,-1,-1,-1,-1,-1,-1,-1,-1,-1,-1,-1,-1,-1,-1,-1,-1,-1,-1,-1,-1],"loss_changes":[1.8690016E4,3.8364883E3,1.2571406E3,9.180918E2,3.8856946E2,4.2772998E2,1.1743945E2,2.969264E2,5.070537E2,8.6503784E1,2.8953424E2,3.787881E2,1.7335693E2,5.28042E1,4.2109375E1,7.963542E1,2.0099146E2,4.3906738E2,7.1411145E2,1.3291034E2,1.477221E2,1.1456264E2,1.3773802E2,9.6385445E1,3.9386322E1,1.8895508E2,2.3248962E2,3.232434E1,1.2561719E2,8.518968E1,1.3234375E1,0E0,0E0,0E0,0E0,0E0,0E0,0E0,0E0,0E0,0E0,0E0,0E0,0E0,0E0,0E0,0E0,0E0,0E0,0E0,0E0,0E0,0E0,0E0,0E0,0E0,0E0,0E0,0E0,0E0,0E0,0E0,0E0],"parents":[2147483647,0,0,1,1,2,2,3,3,4,4,5,5,6,6,7,7,8,8,9,9,10,10,11,11,12,12,13,13,14,14,15,15,16,16,17,17,18,18,19,19,20,20,21,21,22,22,23,23,24,24,25,25,26,26,27,27,28,28,29,29,30,30],"right_children":[2,4,6,8,10,12,14,16,18,20,22,24,26,28,30,32,34,36,38,40,42,44,46,48,50,52,54,56,58,60,62,-1,-1,-1,-1,-1,-1,-1,-1,-1,-1,-1,-1,-1,-1,-1,-1,-1,-1,-1,-1,-1,-1,-1,-1,-1,-1,-1,-1,-1,-1,-1,-1],"split_conditions":[1E-45,1E-45,1E-45,2.012E3,2.022E3,1E-45,1E-45,2.004E3,1E-45,1E-45,1E-45,2.025E3,9E0,2.012E3,2.001E3,2E0,1.2E1,2.026E3,2.02E3,1.2E1,9E0,5E0,1E-45,1.1E1,1E-45,1E-45,1E-45,1E-45,2.018E3,1E-45,1E-45,5.4941654E-2,1.27682965E-2,4.9506962E-2,-2.7181492E-3,7.979022E-2,-2.7375843E-2,6.36721E-2,-3.8687076E-4,2.4612842E-2,-9.9270325E-3,5.458154E-3,2.2044532E-2,-8.952078E-3,4.970064E-2,-8.018304E-3,-5.6199048E-2,-6.563283E-5,-2.2224726E-2,-9.878829E-3,-5.941457E-2,-2.1942893E-2,-4.117078E-2,3.8701736E-3,-2.7214298E-2,-9.528637E-4,-4.9378183E-2,-1.5931606E-2,-4.333548E-2,2.2170788E-2,-4.954354E-2,-5.0161064E-2,-5.8994185E-2],"split_indices":[0,0,0,3,3,0,0,3,0,0,0,3,2,3,3,2,2,3,3,2,2,2,0,2,0,0,0,0,3,0,0,0,0,0,0,0,0,0,0,0,0,0,0,0,0,0,0,0,0,0,0,0,0,0,0,0,0,0,0,0,0,0,0],"split_type":[1,1,1,0,0,1,1,0,1,1,1,0,0,0,0,0,0,0,0,0,0,0,1,0,1,1,1,1,0,1,1,0,0,0,0,0,0,0,0,0,0,0,0,0,0,0,0,0,0,0,0,0,0,0,0,0,0,0,0,0,0,0,0],"sum_hessian":[2.471E3,1.277E3,1.194E3,5.68E2,7.09E2,7.3E2,4.64E2,2.22E2,3.46E2,5.7E2,1.39E2,2.14E2,5.16E2,2.09E2,2.55E2,7.8E1,1.44E2,2.23E2,1.23E2,2.69E2,3.01E2,2.2E1,1.17E2,1.91E2,2.3E1,3.26E2,1.9E2,9.4E1,1.15E2,8E0,2.47E2,6E0,7.2E1,1.33E2,1.1E1,2.18E2,5E0,9E1,3.3E1,2.53E2,1.6E1,1.61E2,1.4E2,6E0,1.6E1,1.09E2,8E0,1.59E2,3.2E1,3E0,2E1,1.13E2,2.13E2,4.3E1,1.47E2,2E0,9.2E1,3.5E1,8E1,3E0,5E0,1.19E2,1.28E2],"tree_param":{"num_deleted":"0","num_feature":"5","num_nodes":"63","size_leaf_vector":"1"}},{"base_weights":[-2.3996641E-3,2.5740767E0,-2.743239E0,4.5778637E0,9.931065E-1,-2.055186E0,-4.2525992E0,1.1745037E0,5.1685433E0,1.4731083E0,-9.3379736E-1,-1.6311219E0,-3.1900828E0,-3.8340626E0,-5.7679635E-2,1.3297355E0,-4.858197E-1,6.101382E0,3.6643255E0,2.0496209E0,1.1441442E0,4.5704922E-1,-1.7733836E0,-6.873092E-1,-2.667264E0,-5.532867E-1,-3.9402916E0,-2.7528853E0,-4.058571E0,9.060913E-3,2.4001107E-2,1.4852339E-2,